{"learner":{"attributes":{"scikit_learn":"{\"_estimator_type\": \"regressor\"}"},"feature_names":["Home","PTSDiff1","PTSDiff2","Rest1","Rest2","Starter0_BPM1","Starter0_BPM2","Starter1_BPM1","Starter1_BPM2","Starter2_BPM1","Starter2_BPM2","Starter3_BPM1","Starter3_BPM2","Starter4_BPM1","Starter4_BPM2"],"feature_types":["int","float","float","float","float","float","float","float","float","float","float","float","float","float","float"],"gradient_booster":{"model":{"cats":{"enc":[],"feature_segments":[],"sorted_idx":[]},"gbtree_model_param":{"num_parallel_tree":"1","num_trees":"1000"},"iteration_indptr":[0,1,2,3,4,5,6,7,8,9,10,11,12,13,14,15,16,17,18,19,20,21,22,23,24,25,26,27,28,29,30,31,32,33,34,35,36,37,38,39,40,41,42,43,44,45,46,47,48,49,50,51,52,53,54,55,56,57,58,59,60,61,62,63,64,65,66,67,68,69,70,71,72,73,74,75,76,77,78,79,80,81,82,83,84,85,86,87,88,89,90,91,92,93,94,95,96,97,98,99,100,101,102,103,104,105,106,107,108,109,110,111,112,113,114,115,116,117,118,119,120,121,122,123,124,125,126,127,128,129,130,131,132,133,134,135,136,137,138,139,140,141,142,143,144,145,146,147,148,149,150,151,152,153,154,155,156,157,158,159,160,161,162,163,164,165,166,167,168,169,170,171,172,173,174,175,176,177,178,179,180,181,182,183,184,185,186,187,188,189,190,191,192,193,194,195,196,197,198,199,200,201,202,203,204,205,206,207,208,209,210,211,212,213,214,215,216,217,218,219,220,221,222,223,224,225,226,227,228,229,230,231,232,233,234,235,236,237,238,239,240,241,242,243,244,245,246,247,248,249,250,251,252,253,254,255,256,257,258,259,260,261,262,263,264,265,266,267,268,269,270,271,272,273,274,275,276,277,278,279,280,281,282,283,284,285,286,287,288,289,290,291,292,293,294,295,296,297,298,299,300,301,302,303,304,305,306,307,308,309,310,311,312,313,314,315,316,317,318,319,320,321,322,323,324,325,326,327,328,329,330,331,332,333,334,335,336,337,338,339,340,341,342,343,344,345,346,347,348,349,350,351,352,353,354,355,356,357,358,359,360,361,362,363,364,365,366,367,368,369,370,371,372,373,374,375,376,377,378,379,380,381,382,383,384,385,386,387,388,389,390,391,392,393,394,395,396,397,398,399,400,401,402,403,404,405,406,407,408,409,410,411,412,413,414,415,416,417,418,419,420,421,422,423,424,425,426,427,428,429,430,431,432,433,434,435,436,437,438,439,440,441,442,443,444,445,446,447,448,449,450,451,452,453,454,455,456,457,458,459,460,461,462,463,464,465,466,467,468,469,470,471,472,473,474,475,476,477,478,479,480,481,482,483,484,485,486,487,488,489,490,491,492,493,494,495,496,497,498,499,500,501,502,503,504,505,506,507,508,509,510,511,512,513,514,515,516,517,518,519,520,521,522,523,524,525,526,527,528,529,530,531,532,533,534,535,536,537,538,539,540,541,542,543,544,545,546,547,548,549,550,551,552,553,554,555,556,557,558,559,560,561,562,563,564,565,566,567,568,569,570,571,572,573,574,575,576,577,578,579,580,581,582,583,584,585,586,587,588,589,590,591,592,593,594,595,596,597,598,599,600,601,602,603,604,605,606,607,608,609,610,611,612,613,614,615,616,617,618,619,620,621,622,623,624,625,626,627,628,629,630,631,632,633,634,635,636,637,638,639,640,641,642,643,644,645,646,647,648,649,650,651,652,653,654,655,656,657,658,659,660,661,662,663,664,665,666,667,668,669,670,671,672,673,674,675,676,677,678,679,680,681,682,683,684,685,686,687,688,689,690,691,692,693,694,695,696,697,698,699,700,701,702,703,704,705,706,707,708,709,710,711,712,713,714,715,716,717,718,719,720,721,722,723,724,725,726,727,728,729,730,731,732,733,734,735,736,737,738,739,740,741,742,743,744,745,746,747,748,749,750,751,752,753,754,755,756,757,758,759,760,761,762,763,764,765,766,767,768,769,770,771,772,773,774,775,776,777,778,779,780,781,782,783,784,785,786,787,788,789,790,791,792,793,794,795,796,797,798,799,800,801,802,803,804,805,806,807,808,809,810,811,812,813,814,815,816,817,818,819,820,821,822,823,824,825,826,827,828,829,830,831,832,833,834,835,836,837,838,839,840,841,842,843,844,845,846,847,848,849,850,851,852,853,854,855,856,857,858,859,860,861,862,863,864,865,866,867,868,869,870,871,872,873,874,875,876,877,878,879,880,881,882,883,884,885,886,887,888,889,890,891,892,893,894,895,896,897,898,899,900,901,902,903,904,905,906,907,908,909,910,911,912,913,914,915,916,917,918,919,920,921,922,923,924,925,926,927,928,929,930,931,932,933,934,935,936,937,938,939,940,941,942,943,944,945,946,947,948,949,950,951,952,953,954,955,956,957,958,959,960,961,962,963,964,965,966,967,968,969,970,971,972,973,974,975,976,977,978,979,980,981,982,983,984,985,986,987,988,989,990,991,992,993,994,995,996,997,998,999,1000],"tree_info":[0,0,0,0,0,0,0,0,0,0,0,0,0,0,0,0,0,0,0,0,0,0,0,0,0,0,0,0,0,0,0,0,0,0,0,0,0,0,0,0,0,0,0,0,0,0,0,0,0,0,0,0,0,0,0,0,0,0,0,0,0,0,0,0,0,0,0,0,0,0,0,0,0,0,0,0,0,0,0,0,0,0,0,0,0,0,0,0,0,0,0,0,0,0,0,0,0,0,0,0,0,0,0,0,0,0,0,0,0,0,0,0,0,0,0,0,0,0,0,0,0,0,0,0,0,0,0,0,0,0,0,0,0,0,0,0,0,0,0,0,0,0,0,0,0,0,0,0,0,0,0,0,0,0,0,0,0,0,0,0,0,0,0,0,0,0,0,0,0,0,0,0,0,0,0,0,0,0,0,0,0,0,0,0,0,0,0,0,0,0,0,0,0,0,0,0,0,0,0,0,0,0,0,0,0,0,0,0,0,0,0,0,0,0,0,0,0,0,0,0,0,0,0,0,0,0,0,0,0,0,0,0,0,0,0,0,0,0,0,0,0,0,0,0,0,0,0,0,0,0,0,0,0,0,0,0,0,0,0,0,0,0,0,0,0,0,0,0,0,0,0,0,0,0,0,0,0,0,0,0,0,0,0,0,0,0,0,0,0,0,0,0,0,0,0,0,0,0,0,0,0,0,0,0,0,0,0,0,0,0,0,0,0,0,0,0,0,0,0,0,0,0,0,0,0,0,0,0,0,0,0,0,0,0,0,0,0,0,0,0,0,0,0,0,0,0,0,0,0,0,0,0,0,0,0,0,0,0,0,0,0,0,0,0,0,0,0,0,0,0,0,0,0,0,0,0,0,0,0,0,0,0,0,0,0,0,0,0,0,0,0,0,0,0,0,0,0,0,0,0,0,0,0,0,0,0,0,0,0,0,0,0,0,0,0,0,0,0,0,0,0,0,0,0,0,0,0,0,0,0,0,0,0,0,0,0,0,0,0,0,0,0,0,0,0,0,0,0,0,0,0,0,0,0,0,0,0,0,0,0,0,0,0,0,0,0,0,0,0,0,0,0,0,0,0,0,0,0,0,0,0,0,0,0,0,0,0,0,0,0,0,0,0,0,0,0,0,0,0,0,0,0,0,0,0,0,0,0,0,0,0,0,0,0,0,0,0,0,0,0,0,0,0,0,0,0,0,0,0,0,0,0,0,0,0,0,0,0,0,0,0,0,0,0,0,0,0,0,0,0,0,0,0,0,0,0,0,0,0,0,0,0,0,0,0,0,0,0,0,0,0,0,0,0,0,0,0,0,0,0,0,0,0,0,0,0,0,0,0,0,0,0,0,0,0,0,0,0,0,0,0,0,0,0,0,0,0,0,0,0,0,0,0,0,0,0,0,0,0,0,0,0,0,0,0,0,0,0,0,0,0,0,0,0,0,0,0,0,0,0,0,0,0,0,0,0,0,0,0,0,0,0,0,0,0,0,0,0,0,0,0,0,0,0,0,0,0,0,0,0,0,0,0,0,0,0,0,0,0,0,0,0,0,0,0,0,0,0,0,0,0,0,0,0,0,0,0,0,0,0,0,0,0,0,0,0,0,0,0,0,0,0,0,0,0,0,0,0,0,0,0,0,0,0,0,0,0,0,0,0,0,0,0,0,0,0,0,0,0,0,0,0,0,0,0,0,0,0,0,0,0,0,0,0,0,0,0,0,0,0,0,0,0,0,0,0,0,0,0,0,0,0,0,0,0,0,0,0,0,0,0,0,0,0,0,0,0,0,0,0,0,0,0,0,0,0,0,0,0,0,0,0,0,0,0,0,0,0,0,0,0,0,0,0,0,0,0,0,0,0,0,0,0,0,0,0,0,0,0,0,0,0,0,0,0,0,0,0,0,0,0,0,0,0,0,0,0,0,0,0,0,0,0,0,0,0,0,0,0,0,0,0,0,0,0,0,0,0,0,0,0,0,0,0,0,0,0,0,0,0,0,0,0,0,0,0,0,0,0,0,0,0,0,0,0,0,0,0,0,0,0,0,0,0,0,0,0,0,0,0,0,0,0,0,0,0,0,0,0,0,0,0,0,0,0,0,0,0,0,0,0,0,0,0,0,0,0,0,0,0,0,0,0,0,0,0,0,0,0,0,0,0,0,0,0,0,0,0,0,0,0,0,0,0,0,0,0,0,0,0,0,0,0,0,0,0,0,0,0,0,0,0,0,0,0,0,0,0,0,0,0,0,0,0,0,0,0,0,0,0],"trees":[{"base_weights":[1.5710445E-2,5.377962E-1,-9.770564E-2,1.5261607E-1,6.6220564E-1,-4.741893E-1,6.72965E-2,-3.32249E-3,2.8539702E-1,8.607754E-1,5.07623E-1,-6.1237586E-1,-2.925663E-1,-9.8810144E-2,2.3401684E-1,-1.1131237E-3,1.8285842E-3,-3.3433386E-3,3.4253749E-3,5.4584392E-3,1.02249235E-2,3.5527092E-3,6.724494E-3,-9.824031E-3,-5.1965886E-3,-1.3113027E-3,-5.0736372E-3,5.9332873E-4,-2.9901303E-3,1.0688294E-3,4.72144E-3],"categories":[],"categories_nodes":[],"categories_segments":[],"categories_sizes":[],"default_left":[0,0,0,0,0,0,0,0,0,0,0,0,0,0,0,0,0,0,0,0,0,0,0,0,0,0,0,0,0,0,0],"id":0,"left_children":[1,3,5,7,9,11,13,15,17,19,21,23,25,27,29,-1,-1,-1,-1,-1,-1,-1,-1,-1,-1,-1,-1,-1,-1,-1,-1],"loss_changes":[3.70607E2,5.342566E1,3.1945612E2,5.6743026E0,2.546997E1,3.914914E1,9.9054565E1,2.5737727E0,5.3554554E0,1.8184052E1,1.1739349E1,2.9989136E1,2.34785E1,5.6753693E1,5.3988693E1,0E0,0E0,0E0,0E0,0E0,0E0,0E0,0E0,0E0,0E0,0E0,0E0,0E0,0E0,0E0,0E0],"parents":[2147483647,0,0,1,1,2,2,3,3,4,4,5,5,6,6,7,7,8,8,9,9,10,10,11,11,12,12,13,13,14,14],"right_children":[2,4,6,8,10,12,14,16,18,20,22,24,26,28,30,-1,-1,-1,-1,-1,-1,-1,-1,-1,-1,-1,-1,-1,-1,-1,-1],"split_conditions":[-9.556133E-1,-5.598614E-1,-3.8682982E-1,-1.3533269E0,-8.5223716E-1,-9.984842E-1,1E0,-2.8257892E-1,-1.4282249E0,-2.943307E-1,1E0,-1.3347677E0,3.6117333E-1,3.3540708E-1,6.919133E-1,-1.1131237E-3,1.8285842E-3,-3.3433386E-3,3.4253749E-3,5.4584392E-3,1.02249235E-2,3.5527092E-3,6.724494E-3,-9.824031E-3,-5.1965886E-3,-1.3113027E-3,-5.0736372E-3,5.9332873E-4,-2.9901303E-3,1.0688294E-3,4.72144E-3],"split_indices":[2,1,1,1,8,1,0,11,9,9,0,7,2,2,1,0,0,0,0,0,0,0,0,0,0,0,0,0,0,0,0],"split_type":[0,0,0,0,0,0,0,0,0,0,0,0,0,0,0,0,0,0,0,0,0,0,0,0,0,0,0,0,0,0,0],"sum_hessian":[6.257E3,1.116E3,5.141E3,2.73E2,8.43E2,1.566E3,3.575E3,1.26E2,1.47E2,3.67E2,4.76E2,8.88E2,6.78E2,1.791E3,1.784E3,8E1,4.6E1,1.2E1,1.35E2,1.26E2,2.41E2,2.49E2,2.27E2,1.76E2,7.12E2,3.88E2,2.9E2,1.001E3,7.9E2,1.164E3,6.2E2],"tree_param":{"num_deleted":"0","num_feature":"15","num_nodes":"31","size_leaf_vector":"1"}},{"base_weights":[-2.8010479E-3,4.0750742E-1,-1.5212294E-1,1.6151458E-2,5.644224E-1,-5.1905954E-1,1.1195472E-2,3.09888E-1,-1.147346E-1,9.320408E-1,4.7873077E-1,-6.7332035E-1,-3.334853E-1,1.6806927E-1,-1.3467303E-1,3.4723817E-3,-1.14954E-2,-2.7505194E-3,8.909894E-4,7.7583618E-3,1.213274E-2,3.3704978E-3,6.4027193E-3,-8.487795E-3,-5.1155835E-3,-1.6219012E-3,-4.6027694E-3,4.9701653E-4,3.621322E-3,-3.1723285E-3,3.99768E-4],"categories":[],"categories_nodes":[],"categories_segments":[],"categories_sizes":[],"default_left":[0,0,0,0,0,0,0,0,0,0,0,0,0,0,0,0,0,0,0,0,0,0,0,0,0,0,0,0,0,0,0],"id":1,"left_children":[1,3,5,7,9,11,13,15,17,19,21,23,25,27,29,-1,-1,-1,-1,-1,-1,-1,-1,-1,-1,-1,-1,-1,-1,-1,-1],"loss_changes":[3.9150348E2,1.04694275E2,2.807662E2,1.8835657E1,3.789154E1,4.1083984E1,7.423203E1,8.630157E0,1.11023655E1,9.118652E0,2.2419754E1,2.1902893E1,1.4194595E1,3.588531E1,5.360976E1,0E0,0E0,0E0,0E0,0E0,0E0,0E0,0E0,0E0,0E0,0E0,0E0,0E0,0E0,0E0,0E0],"parents":[2147483647,0,0,1,1,2,2,3,3,4,4,5,5,6,6,7,7,8,8,9,9,10,10,11,11,12,12,13,13,14,14],"right_children":[2,4,6,8,10,12,14,16,18,20,22,24,26,28,30,-1,-1,-1,-1,-1,-1,-1,-1,-1,-1,-1,-1,-1,-1,-1,-1],"split_conditions":[-5.100806E-1,-4.4141683E-1,-3.8682982E-1,-1.0201488E0,-1.2748576E0,-1.0296988E0,3.226189E-1,1.4629468E0,-9.6031827E-1,5.266583E-1,1E0,1E0,1.9686535E-1,6.6294485E-1,1E0,3.4723817E-3,-1.14954E-2,-2.7505194E-3,8.909894E-4,7.7583618E-3,1.213274E-2,3.3704978E-3,6.4027193E-3,-8.487795E-3,-5.1155835E-3,-1.6219012E-3,-4.6027694E-3,4.9701653E-4,3.621322E-3,-3.1723285E-3,3.99768E-4],"split_indices":[2,1,1,10,6,1,2,13,1,13,0,0,2,1,0,0,0,0,0,0,0,0,0,0,0,0,0,0,0,0,0],"split_type":[0,0,0,0,0,0,0,0,0,0,0,0,0,0,0,0,0,0,0,0,0,0,0,0,0,0,0,0,0,0,0],"sum_hessian":[6.388E3,1.704E3,4.684E3,4.88E2,1.216E3,1.442E3,3.242E3,1.5E2,3.38E2,2.28E2,9.88E2,7.86E2,6.56E2,1.562E3,1.68E3,1.47E2,3E0,1.89E2,1.49E2,1.49E2,7.9E1,5.28E2,4.6E2,3.75E2,4.11E2,2.8E2,3.76E2,9.71E2,5.91E2,8.21E2,8.59E2],"tree_param":{"num_deleted":"0","num_feature":"15","num_nodes":"31","size_leaf_vector":"1"}},{"base_weights":[-6.7550824E-3,-3.697163E-1,1.5813857E-1,4.0156163E-2,-5.114414E-1,5.387035E-1,-2.8260346E-3,1.5971182E-1,-1.5889835E-1,-9.488668E-1,-4.451588E-1,1.0069617E0,4.7419548E-1,-1.12583384E-1,1.828828E-1,-1.0163685E-3,3.0413398E-3,4.628711E-3,-2.3345477E-3,-2.7825285E-3,-1.0200863E-2,-3.6051287E-3,-6.384244E-3,1.5879897E-2,8.685371E-3,6.0676304E-3,3.284491E-3,2.1142342E-4,-2.8393453E-3,2.6378918E-3,-1.9652017E-3],"categories":[],"categories_nodes":[],"categories_segments":[],"categories_sizes":[],"default_left":[0,0,0,0,0,0,0,0,0,0,0,0,0,0,0,0,0,0,0,0,0,0,0,0,0,0,0,0,0,0,0],"id":2,"left_children":[1,3,5,7,9,11,13,15,17,19,21,23,25,27,29,-1,-1,-1,-1,-1,-1,-1,-1,-1,-1,-1,-1,-1,-1,-1,-1],"loss_changes":[3.8184164E2,1.157923E2,2.687381E2,1.2233799E1,4.2517242E1,3.8911682E1,6.288149E1,1.2146908E1,9.054942E0,8.9817505E0,2.0840454E1,1.1248062E1,2.1981506E1,4.443635E1,3.5229588E1,0E0,0E0,0E0,0E0,0E0,0E0,0E0,0E0,0E0,0E0,0E0,0E0,0E0,0E0,0E0,0E0],"parents":[2147483647,0,0,1,1,2,2,3,3,4,4,5,5,6,6,7,7,8,8,9,9,10,10,11,11,12,12,13,13,14,14],"right_children":[2,4,6,8,10,12,14,16,18,20,22,24,26,28,30,-1,-1,-1,-1,-1,-1,-1,-1,-1,-1,-1,-1,-1,-1,-1,-1],"split_conditions":[-3.8682982E-1,-5.6810176E-1,-4.0028635E-1,-1.0308558E0,-1.4194461E0,-1.4793692E0,6.54201E-1,-1.3533269E0,-1.0945373E0,-1.3445147E0,7.2862417E-1,-6.274534E-2,-9.963165E-1,4.8618487E-1,1.1496071E0,-1.0163685E-3,3.0413398E-3,4.628711E-3,-2.3345477E-3,-2.7825285E-3,-1.0200863E-2,-3.6051287E-3,-6.384244E-3,1.5879897E-2,8.685371E-3,6.0676304E-3,3.284491E-3,2.1142342E-4,-2.8393453E-3,2.6378918E-3,-1.9652017E-3],"split_indices":[1,2,2,2,5,6,1,1,12,14,2,4,2,2,2,0,0,0,0,0,0,0,0,0,0,0,0,0,0,0,0],"split_type":[0,0,0,0,0,0,0,0,0,0,0,0,0,0,0,0,0,0,0,0,0,0,0,0,0,0,0,0,0,0,0],"sum_hessian":[6.378E3,1.992E3,4.386E3,5.12E2,1.48E3,1.303E3,3.083E3,3.2E2,1.92E2,1.93E2,1.287E3,1.56E2,1.147E3,1.938E3,1.145E3,1.14E2,2.06E2,2E1,1.72E2,1.9E1,1.74E2,8.97E2,3.9E2,2.8E1,1.28E2,5.99E2,5.48E2,1.089E3,8.49E2,9.44E2,2.01E2],"tree_param":{"num_deleted":"0","num_feature":"15","num_nodes":"31","size_leaf_vector":"1"}},{"base_weights":[-2.969435E-3,3.766662E-1,-1.6144517E-1,3.0169645E-3,5.2948225E-1,-5.3187513E-1,5.5131136E-4,1.6263688E-1,-1.9151182E-1,6.812848E-1,3.2765412E-1,-6.978816E-1,-3.389308E-1,6.449094E-2,-3.234765E-1,5.412619E-3,5.191406E-4,-1.0123449E-2,-1.1866896E-3,1.0094814E-2,5.8373073E-3,1.7004862E-3,4.885455E-3,-9.909886E-3,-6.1343154E-3,-5.045501E-3,-1.7276818E-3,-4.0338616E-4,2.142432E-3,-6.2292686E-4,-4.604335E-3],"categories":[],"categories_nodes":[],"categories_segments":[],"categories_sizes":[],"default_left":[0,0,0,0,0,0,0,0,0,0,0,0,0,0,0,0,0,0,0,0,0,0,0,0,0,0,0,0,0,0,0],"id":3,"left_children":[1,3,5,7,9,11,13,15,17,19,21,23,25,27,29,-1,-1,-1,-1,-1,-1,-1,-1,-1,-1,-1,-1,-1,-1,-1,-1],"loss_changes":[3.8426196E2,1.0740277E2,2.7039792E2,1.7015863E1,4.0678528E1,4.3676605E1,6.4993195E1,1.2590553E1,1.464845E1,2.3775574E1,1.4497406E1,1.761023E1,1.7415375E1,4.113861E1,1.8464901E1,0E0,0E0,0E0,0E0,0E0,0E0,0E0,0E0,0E0,0E0,0E0,0E0,0E0,0E0,0E0,0E0],"parents":[2147483647,0,0,1,1,2,2,3,3,4,4,5,5,6,6,7,7,8,8,9,9,10,10,11,11,12,12,13,13,14,14],"right_children":[2,4,6,8,10,12,14,16,18,20,22,24,26,28,30,-1,-1,-1,-1,-1,-1,-1,-1,-1,-1,-1,-1,-1,-1,-1,-1],"split_conditions":[-4.1951102E-1,-4.5407468E-1,-4.0121925E-1,-9.963165E-1,-9.963165E-1,-1.057795E0,1.1496071E0,-1.4467666E0,-1.6924921E0,-1.3016875E0,1E0,-1.3889782E0,1E0,5.608612E-1,3.9460295E-1,5.412619E-3,5.191406E-4,-1.0123449E-2,-1.1866896E-3,1.0094814E-2,5.8373073E-3,1.7004862E-3,4.885455E-3,-9.909886E-3,-6.1343154E-3,-5.045501E-3,-1.7276818E-3,-4.0338616E-4,2.142432E-3,-6.2292686E-4,-4.604335E-3],"split_indices":[2,1,1,2,2,1,2,6,7,6,0,5,0,1,14,0,0,0,0,0,0,0,0,0,0,0,0,0,0,0,0],"split_type":[0,0,0,0,0,0,0,0,0,0,0,0,0,0,0,0,0,0,0,0,0,0,0,0,0,0,0,0,0,0,0],"sum_hessian":[6.385E3,1.88E3,4.505E3,5.46E2,1.334E3,1.37E3,3.135E3,3E2,2.46E2,7.6E2,5.74E2,7.35E2,6.35E2,2.619E3,5.16E2,6.7E1,2.33E2,1.9E1,2.27E2,1.72E2,5.88E2,2.91E2,2.83E2,1.62E2,5.73E2,3.17E2,3.18E2,1.541E3,1.078E3,1.78E2,3.38E2],"tree_param":{"num_deleted":"0","num_feature":"15","num_nodes":"31","size_leaf_vector":"1"}},{"base_weights":[1.7269573E-3,-3.6922824E-1,1.6043463E-1,-5.194658E-1,-1.7687812E-1,4.8734134E-1,2.9355317E-2,-2.6859343E-1,-6.9275343E-1,3.1740153E-1,-2.517934E-1,6.829619E-1,2.5917533E-1,-1.2598746E-1,1.8982449E-1,-4.440087E-3,-3.9702817E-4,-1.0904297E-2,-5.9197065E-3,4.7878707E-3,-1.7809094E-3,-1.5220294E-3,-5.1314244E-3,8.005552E-3,4.468549E-3,6.6374335E-3,1.3473892E-3,-4.855772E-3,-6.4408255E-4,3.7256035E-4,3.458839E-3],"categories":[],"categories_nodes":[],"categories_segments":[],"categories_sizes":[],"default_left":[0,0,0,0,0,0,0,0,0,0,0,0,0,0,0,0,0,0,0,0,0,0,0,0,0,0,0,0,0,0,0],"id":4,"left_children":[1,3,5,7,9,11,13,15,17,19,21,23,25,27,29,-1,-1,-1,-1,-1,-1,-1,-1,-1,-1,-1,-1,-1,-1,-1,-1],"loss_changes":[3.756718E2,5.516147E1,1.914855E2,4.646057E1,3.1184372E1,5.690985E1,7.956829E1,1.7648767E1,2.4764526E1,8.961422E0,1.8922249E1,1.8744293E1,2.9713623E1,3.588507E1,3.7368416E1,0E0,0E0,0E0,0E0,0E0,0E0,0E0,0E0,0E0,0E0,0E0,0E0,0E0,0E0,0E0,0E0],"parents":[2147483647,0,0,1,1,2,2,3,3,4,4,5,5,6,6,7,7,8,8,9,9,10,10,11,11,12,12,13,13,14,14],"right_children":[2,4,6,8,10,12,14,16,18,20,22,24,26,28,30,-1,-1,-1,-1,-1,-1,-1,-1,-1,-1,-1,-1,-1,-1,-1,-1],"split_conditions":[-4.1688517E-1,-9.984842E-1,-5.8915216E-1,-3.014853E-1,-9.723043E-1,-3.3482862E-1,1E0,-7.052454E-1,-1.4194461E0,8.542169E-2,5.4859537E-1,-8.007532E-2,-7.264863E-1,-6.6577774E-1,3.6598384E-1,-4.440087E-3,-3.9702817E-4,-1.0904297E-2,-5.9197065E-3,4.7878707E-3,-1.7809094E-3,-1.5220294E-3,-5.1314244E-3,8.005552E-3,4.468549E-3,6.6374335E-3,1.3473892E-3,-4.855772E-3,-6.4408255E-4,3.7256035E-4,3.458839E-3],"split_indices":[1,1,6,10,14,8,0,7,5,6,8,10,14,7,1,0,0,0,0,0,0,0,0,0,0,0,0,0,0,0,0],"split_type":[0,0,0,0,0,0,0,0,0,0,0,0,0,0,0,0,0,0,0,0,0,0,0,0,0,0,0,0,0,0,0],"sum_hessian":[6.379E3,1.911E3,4.468E3,1.072E3,8.39E2,1.278E3,3.19E3,4.39E2,6.33E2,1.1E2,7.29E2,6.87E2,5.91E2,1.621E3,1.569E3,2.48E2,1.91E2,1.26E2,5.07E2,8.3E1,2.7E1,5.29E2,2E2,4.57E2,2.3E2,1.38E2,4.53E2,2.36E2,1.385E3,7.94E2,7.75E2],"tree_param":{"num_deleted":"0","num_feature":"15","num_nodes":"31","size_leaf_vector":"1"}},{"base_weights":[-1.5544858E-2,3.8862902E-1,-1.6209577E-1,4.4681434E-2,5.694175E-1,-5.061295E-1,-8.4532425E-3,1.8319437E-1,-1.6121514E-1,9.641503E-1,4.8343307E-1,-9.1581374E-1,-4.281759E-1,-7.580393E-2,2.6169586E-1,4.76286E-3,9.283352E-4,-5.4436433E-3,-5.1713432E-5,1.4588821E-2,8.665404E-3,6.7984783E-3,3.5563537E-3,-7.473316E-3,-1.28022E-2,-2.0172498E-3,-5.1251254E-3,6.7386596E-4,-2.234447E-3,4.7684545E-4,4.266421E-3],"categories":[],"categories_nodes":[],"categories_segments":[],"categories_sizes":[],"default_left":[0,0,0,0,0,0,0,0,0,0,0,0,0,0,0,0,0,0,0,0,0,0,0,0,0,0,0,0,0,0,0],"id":5,"left_children":[1,3,5,7,9,11,13,15,17,19,21,23,25,27,29,-1,-1,-1,-1,-1,-1,-1,-1,-1,-1,-1,-1,-1,-1,-1,-1],"loss_changes":[3.7594955E2,1.0499953E2,2.4620926E2,1.6656307E1,3.7106415E1,4.553235E1,5.8625053E1,9.198705E0,1.4047379E1,8.249084E0,2.262558E1,1.3102921E1,2.3005325E1,5.453707E1,2.267778E1,0E0,0E0,0E0,0E0,0E0,0E0,0E0,0E0,0E0,0E0,0E0,0E0,0E0,0E0,0E0,0E0],"parents":[2147483647,0,0,1,1,2,2,3,3,4,4,5,5,6,6,7,7,8,8,9,9,10,10,11,11,12,12,13,13,14,14],"right_children":[2,4,6,8,10,12,14,16,18,20,22,24,26,28,30,-1,-1,-1,-1,-1,-1,-1,-1,-1,-1,-1,-1,-1,-1,-1,-1],"split_conditions":[-5.100806E-1,-2.7635613E-1,-3.8682982E-1,-1.0308558E0,-1.3016875E0,-1.3283051E0,1.0262175E0,-1.3275747E0,-8.5939723E-1,-1.3070326E0,-8.122385E-1,5.659112E-1,-4.0649496E-2,3.6117333E-1,4.354521E-1,4.76286E-3,9.283352E-4,-5.4436433E-3,-5.1713432E-5,1.4588821E-2,8.665404E-3,6.7984783E-3,3.5563537E-3,-7.473316E-3,-1.28022E-2,-2.0172498E-3,-5.1251254E-3,6.7386596E-4,-2.234447E-3,4.7684545E-4,4.266421E-3],"split_indices":[2,1,1,2,6,5,1,6,9,14,8,14,2,2,13,0,0,0,0,0,0,0,0,0,0,0,0,0,0,0,0],"split_type":[0,0,0,0,0,0,0,0,0,0,0,0,0,0,0,0,0,0,0,0,0,0,0,0,0,0,0,0,0,0,0],"sum_hessian":[6.345E3,1.688E3,4.657E3,5.82E2,1.106E3,1.437E3,3.22E3,3.48E2,2.34E2,1.96E2,9.1E2,2.28E2,1.209E3,2.578E3,6.42E2,8.1E1,2.67E2,6.7E1,1.67E2,3E1,1.66E2,3.57E2,5.53E2,1.58E2,7E1,3.29E2,8.8E2,1.309E3,1.269E3,2.8E2,3.62E2],"tree_param":{"num_deleted":"0","num_feature":"15","num_nodes":"31","size_leaf_vector":"1"}},{"base_weights":[-3.4715214E-3,3.5756642E-1,-1.6011976E-1,-4.8567858E-2,5.1081544E-1,-4.9424446E-1,-1.7335061E-2,1.2285392E-1,-2.1980497E-1,3.4664932E-1,6.9372267E-1,-8.1188345E-1,-4.257664E-1,-1.8669418E-1,1.5368706E-1,9.47691E-3,8.308844E-4,5.4466478E-3,-2.5852332E-3,5.326537E-3,2.086351E-3,1.4155092E-2,6.5565724E-3,-9.271257E-3,-3.4840542E-3,-5.757211E-3,-3.190966E-3,-1.7516199E-4,-3.3673355E-3,2.1597322E-3,-1.6654504E-3],"categories":[],"categories_nodes":[],"categories_segments":[],"categories_sizes":[],"default_left":[0,0,0,0,0,0,0,0,0,0,0,0,0,0,0,0,0,0,0,0,0,0,0,0,0,0,0,0,0,0,0],"id":6,"left_children":[1,3,5,7,9,11,13,15,17,19,21,23,25,27,29,-1,-1,-1,-1,-1,-1,-1,-1,-1,-1,-1,-1,-1,-1,-1,-1],"loss_changes":[3.5754745E2,1.19089355E2,2.1033554E2,1.5437734E1,4.1467255E1,2.8366028E1,8.952792E1,8.547668E0,7.9253435E0,1.8731567E1,1.7095581E1,1.212204E1,1.7219559E1,3.9414455E1,3.071296E1,0E0,0E0,0E0,0E0,0E0,0E0,0E0,0E0,0E0,0E0,0E0,0E0,0E0,0E0,0E0,0E0],"parents":[2147483647,0,0,1,1,2,2,3,3,4,4,5,5,6,6,7,7,8,8,9,9,10,10,11,11,12,12,13,13,14,14],"right_children":[2,4,6,8,10,12,14,16,18,20,22,24,26,28,30,-1,-1,-1,-1,-1,-1,-1,-1,-1,-1,-1,-1,-1,-1,-1,-1],"split_conditions":[-4.0028635E-1,-5.314204E-1,-4.1688517E-1,-1.0308558E0,1E0,-1.2790685E0,1E0,-1.9108579E0,-1.414294E0,-1.3219723E0,-1.8292998E0,-8.0856836E-1,-1.2652928E0,3.226189E-1,1.1496071E0,9.47691E-3,8.308844E-4,5.4466478E-3,-2.5852332E-3,5.326537E-3,2.086351E-3,1.4155092E-2,6.5565724E-3,-9.271257E-3,-3.4840542E-3,-5.757211E-3,-3.190966E-3,-1.7516199E-4,-3.3673355E-3,2.1597322E-3,-1.6654504E-3],"split_indices":[2,1,1,2,0,7,0,12,10,2,8,1,1,2,2,0,0,0,0,0,0,0,0,0,0,0,0,0,0,0,0],"split_type":[0,0,0,0,0,0,0,0,0,0,0,0,0,0,0,0,0,0,0,0,0,0,0,0,0,0,0,0,0,0,0],"sum_hessian":[6.32E3,1.912E3,4.408E3,5.24E2,1.388E3,1.319E3,3.089E3,2.62E2,2.62E2,7.33E2,6.55E2,2.32E2,1.087E3,1.552E3,1.537E3,1.1E1,2.51E2,1.2E1,2.5E2,3.11E2,4.22E2,3.1E1,6.24E2,1.85E2,4.7E1,4.5E2,6.37E2,7.3E2,8.22E2,1.287E3,2.5E2],"tree_param":{"num_deleted":"0","num_feature":"15","num_nodes":"31","size_leaf_vector":"1"}},{"base_weights":[1.8845173E-3,4.210518E-1,-1.2514922E-1,4.539631E-2,4.93791E-1,-4.296143E-1,-1.9639432E-2,-3.7414002E-1,1.9198182E-1,9.175761E-1,4.170015E-1,-3.135526E-1,-6.5961957E-1,-1.75333E-1,1.3839135E-1,-2.425244E-4,-7.835167E-3,3.3059854E-3,-2.190016E-3,9.597344E-3,-8.342329E-3,2.6764954E-3,5.7249186E-3,-3.7235878E-3,6.4216496E-4,-1.0143323E-2,-5.3285277E-3,-2.1363983E-4,-3.4332268E-3,7.117272E-5,3.2723218E-3],"categories":[],"categories_nodes":[],"categories_segments":[],"categories_sizes":[],"default_left":[0,0,0,0,0,0,0,0,0,0,0,0,0,0,0,0,0,0,0,0,0,0,0,0,0,0,0,0,0,0,0],"id":7,"left_children":[1,3,5,7,9,11,13,15,17,19,21,23,25,27,29,-1,-1,-1,-1,-1,-1,-1,-1,-1,-1,-1,-1,-1,-1,-1,-1],"loss_changes":[3.399904E2,4.0555023E1,1.5739938E2,1.4954333E1,4.0099945E1,3.3455368E1,8.958418E1,9.004856E0,1.0326853E1,1.4832794E1,2.4346832E1,1.8684654E1,1.843509E1,4.7429455E1,4.479303E1,0E0,0E0,0E0,0E0,0E0,0E0,0E0,0E0,0E0,0E0,0E0,0E0,0E0,0E0,0E0,0E0],"parents":[2147483647,0,0,1,1,2,2,3,3,4,4,5,5,6,6,7,7,8,8,9,9,10,10,11,11,12,12,13,13,14,14],"right_children":[2,4,6,8,10,12,14,16,18,20,22,24,26,28,30,-1,-1,-1,-1,-1,-1,-1,-1,-1,-1,-1,-1,-1,-1,-1,-1],"split_conditions":[-6.3084006E-1,-8.164544E-1,-6.364548E-1,-9.8413527E-1,-1.4467666E0,6.6732407E-1,1E0,-5.9009254E-1,-2.6466304E-1,1.188927E0,1E0,6.697195E-1,-1.2790685E0,3.226189E-1,2.6133126E-1,-2.425244E-4,-7.835167E-3,3.3059854E-3,-2.190016E-3,9.597344E-3,-8.342329E-3,2.6764954E-3,5.7249186E-3,-3.7235878E-3,6.4216496E-4,-1.0143323E-2,-5.3285277E-3,-2.1363983E-4,-3.4332268E-3,7.117272E-5,3.2723218E-3],"split_indices":[2,9,7,7,6,2,0,14,8,14,0,9,7,2,13,0,0,0,0,0,0,0,0,0,0,0,0,0,0,0,0],"split_type":[0,0,0,0,0,0,0,0,0,0,0,0,0,0,0,0,0,0,0,0,0,0,0,0,0,0,0,0,0,0,0],"sum_hessian":[6.383E3,1.484E3,4.899E3,2.41E2,1.243E3,1.26E3,3.639E3,6.2E1,1.79E2,1.89E2,1.054E3,8.39E2,4.21E2,1.833E3,1.806E3,3.4E1,2.8E1,1.34E2,4.5E1,1.85E2,4E0,5.39E2,5.15E2,7.26E2,1.13E2,1.09E2,3.12E2,9.57E2,8.76E2,1.066E3,7.4E2],"tree_param":{"num_deleted":"0","num_feature":"15","num_nodes":"31","size_leaf_vector":"1"}},{"base_weights":[-5.9059854E-3,3.648096E-1,-1.5852791E-1,-3.611353E-2,4.4774663E-1,-3.945906E-1,-1.8244201E-3,-2.3173046E-1,3.4997326E-1,8.343449E-1,3.7110567E-1,-6.013764E-1,-1.9993642E-1,6.162215E-2,-2.608745E-1,-5.7130936E-5,-4.2769494E-3,4.2075748E-3,-3.0603085E-3,1.28718065E-2,6.8924394E-3,8.304722E-3,3.240571E-3,-7.2694295E-3,-3.7152877E-3,-3.7155005E-3,-2.826148E-4,-6.8899535E-4,1.8312349E-3,-1.1122889E-2,-2.218127E-3],"categories":[],"categories_nodes":[],"categories_segments":[],"categories_sizes":[],"default_left":[0,0,0,0,0,0,0,0,0,0,0,0,0,0,0,0,0,0,0,0,0,0,0,0,0,0,0,0,0,0,0],"id":8,"left_children":[1,3,5,7,9,11,13,15,17,19,21,23,25,27,29,-1,-1,-1,-1,-1,-1,-1,-1,-1,-1,-1,-1,-1,-1,-1,-1],"loss_changes":[3.5775232E2,6.133171E1,1.6568576E2,2.4022558E1,4.4963898E1,7.18096E1,4.4277794E1,9.343037E0,5.0972853E0,1.5670975E1,2.7330109E1,2.4723694E1,2.7153244E1,3.4330544E1,1.7379917E1,0E0,0E0,0E0,0E0,0E0,0E0,0E0,0E0,0E0,0E0,0E0,0E0,0E0,0E0,0E0,0E0],"parents":[2147483647,0,0,1,1,2,2,3,3,4,4,5,5,6,6,7,7,8,8,9,9,10,10,11,11,12,12,13,13,14,14],"right_children":[2,4,6,8,10,12,14,16,18,20,22,24,26,28,30,-1,-1,-1,-1,-1,-1,-1,-1,-1,-1,-1,-1,-1,-1,-1,-1],"split_conditions":[-4.1951102E-1,-8.332384E-1,-3.271709E-1,-1.3368756E-1,-1.2832719E0,-2.4468784E-1,1.022398E0,-7.581292E-1,5.8063275E-1,-1.1575693E0,-1.4246143E0,-1.6019624E-1,1E0,1E0,-1.2790685E0,-5.7130936E-5,-4.2769494E-3,4.2075748E-3,-3.0603085E-3,1.28718065E-2,6.8924394E-3,8.304722E-3,3.240571E-3,-7.2694295E-3,-3.7152877E-3,-3.7155005E-3,-2.826148E-4,-6.8899535E-4,1.8312349E-3,-1.1122889E-2,-2.218127E-3],"split_indices":[2,9,5,7,8,9,2,8,12,10,12,7,0,0,7,0,0,0,0,0,0,0,0,0,0,0,0,0,0,0,0],"split_type":[0,0,0,0,0,0,0,0,0,0,0,0,0,0,0,0,0,0,0,0,0,0,0,0,0,0,0,0,0,0,0],"sum_hessian":[6.321E3,1.843E3,4.478E3,3.16E2,1.527E3,1.786E3,2.692E3,2.1E2,1.06E2,2.51E2,1.276E3,8.65E2,9.21E2,2.163E3,5.29E2,9.8E1,1.12E2,9.6E1,1E1,5.9E1,1.92E2,1.17E2,1.159E3,5.58E2,3.07E2,4.6E2,4.61E2,1.043E3,1.12E3,2.2E1,5.07E2],"tree_param":{"num_deleted":"0","num_feature":"15","num_nodes":"31","size_leaf_vector":"1"}},{"base_weights":[6.391194E-3,3.514931E-1,-1.4229941E-1,9.992939E-2,5.7536554E-1,-5.5413735E-1,-1.8368587E-2,-1.6477773E-1,2.4225907E-1,6.763625E-1,3.798632E-1,-8.887382E-1,-4.6960947E-1,1.0241989E-1,-1.7256297E-1,-5.3986167E-3,-7.2934653E-4,4.237768E-3,-5.840402E-5,1.1400177E-2,6.268813E-3,2.8672086E-3,5.9473687E-3,-1.2660499E-2,-8.013896E-3,-6.967517E-3,-3.5968754E-3,-2.3187927E-4,2.5621061E-3,-2.3553867E-3,1.6743623E-3],"categories":[],"categories_nodes":[],"categories_segments":[],"categories_sizes":[],"default_left":[0,0,0,0,0,0,0,0,0,0,0,0,0,0,0,0,0,0,0,0,0,0,0,0,0,0,0,0,0,0,0],"id":9,"left_children":[1,3,5,7,9,11,13,15,17,19,21,23,25,27,29,-1,-1,-1,-1,-1,-1,-1,-1,-1,-1,-1,-1,-1,-1,-1,-1],"loss_changes":[3.259928E2,1.07679214E2,2.2660481E2,3.4023384E1,1.9725159E1,2.8629364E1,6.360309E1,1.0846466E1,2.6437702E1,1.456485E1,6.774273E0,5.7746735E0,2.0272995E1,3.699861E1,3.2156982E1,0E0,0E0,0E0,0E0,0E0,0E0,0E0,0E0,0E0,0E0,0E0,0E0,0E0,0E0,0E0,0E0],"parents":[2147483647,0,0,1,1,2,2,3,3,4,4,5,5,6,6,7,7,8,8,9,9,10,10,11,11,12,12,13,13,14,14],"right_children":[2,4,6,8,10,12,14,16,18,20,22,24,26,28,30,-1,-1,-1,-1,-1,-1,-1,-1,-1,-1,-1,-1,-1,-1,-1,-1],"split_conditions":[-4.1951102E-1,-1.3818657E-2,-6.5889007E-1,-9.6031827E-1,-4.04417E-1,-1.2798922E0,4.8618487E-1,-1.4194461E0,-9.963165E-1,-1.6246301E0,5.536565E-1,-1.4282249E0,-9.555125E-1,3.780804E-1,1.0915681E0,-5.3986167E-3,-7.2934653E-4,4.237768E-3,-5.840402E-5,1.1400177E-2,6.268813E-3,2.8672086E-3,5.9473687E-3,-1.2660499E-2,-8.013896E-3,-6.967517E-3,-3.5968754E-3,-2.3187927E-4,2.5621061E-3,-2.3553867E-3,1.6743623E-3],"split_indices":[2,1,1,1,6,5,2,5,2,8,11,9,7,1,1,0,0,0,0,0,0,0,0,0,0,0,0,0,0,0,0],"split_type":[0,0,0,0,0,0,0,0,0,0,0,0,0,0,0,0,0,0,0,0,0,0,0,0,0,0,0,0,0,0,0],"sum_hessian":[6.351E3,1.912E3,4.439E3,9.01E2,1.011E3,1.026E3,3.413E3,3.15E2,5.86E2,6.65E2,3.46E2,2.05E2,8.21E2,1.914E3,1.499E3,6.1E1,2.54E2,3.38E2,2.48E2,6.2E1,6.03E2,2.43E2,1.03E2,3.6E1,1.69E2,2.66E2,5.55E2,1.054E3,8.6E2,1.265E3,2.34E2],"tree_param":{"num_deleted":"0","num_feature":"15","num_nodes":"31","size_leaf_vector":"1"}},{"base_weights":[2.2921315E-3,-4.647656E-1,9.437638E-2,-2.5181025E-1,-6.801172E-1,4.0207645E-1,-1.5645026E-3,-7.372327E-1,-1.9111302E-1,-1.114444E0,-5.77155E-1,5.170035E-1,6.037763E-2,-1.155055E-1,2.2387466E-1,-1.1795687E-2,-5.406388E-3,8.207896E-4,-2.898278E-3,-1.9835612E-2,-1.0042685E-2,-8.3217705E-3,-4.137993E-3,7.5046252E-3,4.166711E-3,-1.0421076E-2,1.1858752E-3,-2.6086883E-3,4.0298203E-4,7.861076E-4,3.7382606E-3],"categories":[],"categories_nodes":[],"categories_segments":[],"categories_sizes":[],"default_left":[0,0,0,0,0,0,0,0,0,0,0,0,0,0,0,0,0,0,0,0,0,0,0,0,0,0,0,0,0,0,0],"id":10,"left_children":[1,3,5,7,9,11,13,15,17,19,21,23,25,27,29,-1,-1,-1,-1,-1,-1,-1,-1,-1,-1,-1,-1,-1,-1,-1,-1],"loss_changes":[2.7185858E2,4.756929E1,1.558716E2,1.5327602E1,2.2476654E1,4.925316E1,1.0344076E2,4.4059906E0,1.2644854E1,7.392006E0,1.7152557E1,2.1681961E1,2.0467226E1,6.0594315E1,2.9420593E1,0E0,0E0,0E0,0E0,0E0,0E0,0E0,0E0,0E0,0E0,0E0,0E0,0E0,0E0,0E0,0E0],"parents":[2147483647,0,0,1,1,2,2,3,3,4,4,5,5,6,6,7,7,8,8,9,9,10,10,11,11,12,12,13,13,14,14],"right_children":[2,4,6,8,10,12,14,16,18,20,22,24,26,28,30,-1,-1,-1,-1,-1,-1,-1,-1,-1,-1,-1,-1,-1,-1,-1,-1],"split_conditions":[-9.984842E-1,-9.613028E-2,-6.957912E-1,-1.5342456E0,-1.4194461E0,2.7951014E-1,5.775405E-1,-1.5113046E0,-9.833182E-1,-1.6432098E0,-9.6893847E-1,-8.0406374E-1,-1.2353392E0,1E0,1E0,-1.1795687E-2,-5.406388E-3,8.207896E-4,-2.898278E-3,-1.9835612E-2,-1.0042685E-2,-8.3217705E-3,-4.137993E-3,7.5046252E-3,4.166711E-3,-1.0421076E-2,1.1858752E-3,-2.6086883E-3,4.0298203E-4,7.861076E-4,3.7382606E-3],"split_indices":[1,10,8,7,5,10,1,5,10,7,7,14,11,0,0,0,0,0,0,0,0,0,0,0,0,0,0,0,0,0,0],"split_type":[0,0,0,0,0,0,0,0,0,0,0,0,0,0,0,0,0,0,0,0,0,0,0,0,0,0,0,0,0,0,0],"sum_hessian":[6.319E3,1.04E3,5.279E3,5.24E2,5.16E2,1.254E3,4.025E3,5.7E1,4.67E2,9.7E1,4.19E2,9.38E2,3.16E2,2.674E3,1.351E3,1.6E1,4.1E1,1.24E2,3.43E2,9E0,8.8E1,1.62E2,2.57E2,2.8E2,6.58E2,1.5E1,3.01E2,1.383E3,1.291E3,6.87E2,6.64E2],"tree_param":{"num_deleted":"0","num_feature":"15","num_nodes":"31","size_leaf_vector":"1"}},{"base_weights":[-4.69004E-3,3.8098317E-1,-1.4897384E-1,-4.5249727E-2,5.156683E-1,-5.070799E-1,-5.8160345E-3,2.7796558E-1,-1.4642929E-1,7.9506904E-1,4.4506517E-1,-8.374897E-1,-4.2531982E-1,-1.4538373E-1,1.690976E-1,-4.990352E-4,4.6317163E-3,-2.631167E-5,-2.9856E-3,1.14889415E-2,6.695378E-3,3.995149E-3,7.378242E-3,6.3018627E-3,-8.626869E-3,-7.8959465E-3,-3.6334214E-3,-3.5148823E-5,-3.0179094E-3,1.582081E-5,3.2883512E-3],"categories":[],"categories_nodes":[],"categories_segments":[],"categories_sizes":[],"default_left":[0,0,0,0,0,0,0,0,0,0,0,0,0,0,0,0,0,0,0,0,0,0,0,0,0,0,0,0,0,0,0],"id":11,"left_children":[1,3,5,7,9,11,13,15,17,19,21,23,25,27,29,-1,-1,-1,-1,-1,-1,-1,-1,-1,-1,-1,-1,-1,-1,-1,-1],"loss_changes":[3.550251E2,9.9739655E1,2.3802357E2,1.37104645E1,2.5685242E1,3.5464813E1,8.102458E1,6.095449E0,6.977694E0,1.1001038E1,1.3787262E1,1.0232758E1,2.3757523E1,4.096041E1,3.9414764E1,0E0,0E0,0E0,0E0,0E0,0E0,0E0,0E0,0E0,0E0,0E0,0E0,0E0,0E0,0E0,0E0],"parents":[2147483647,0,0,1,1,2,2,3,3,4,4,5,5,6,6,7,7,8,8,9,9,10,10,11,11,12,12,13,13,14,14],"right_children":[2,4,6,8,10,12,14,16,18,20,22,24,26,28,30,-1,-1,-1,-1,-1,-1,-1,-1,-1,-1,-1,-1,-1,-1,-1,-1],"split_conditions":[-4.9788854E-1,-5.830501E-1,-4.709848E-1,-1.0901763E0,-1.2496036E0,-1.2387551E0,4.9420094E-1,-9.951347E-1,-1.0308558E0,-1.1575693E0,1.094189E0,-2.0566168E0,-1.4194461E0,3.854262E-1,1E0,-4.990352E-4,4.6317163E-3,-2.631167E-5,-2.9856E-3,1.14889415E-2,6.695378E-3,3.995149E-3,7.378242E-3,6.3018627E-3,-8.626869E-3,-7.8959465E-3,-3.6334214E-3,-3.5148823E-5,-3.0179094E-3,1.582081E-5,3.2883512E-3],"split_indices":[2,1,1,10,6,7,1,13,2,10,13,12,5,2,0,0,0,0,0,0,0,0,0,0,0,0,0,0,0,0,0],"split_type":[0,0,0,0,0,0,0,0,0,0,0,0,0,0,0,0,0,0,0,0,0,0,0,0,0,0,0,0,0,0,0],"sum_hessian":[6.378E3,1.736E3,4.642E3,4.17E2,1.319E3,1.325E3,3.317E3,9.9E1,3.18E2,2.64E2,1.055E3,2.61E2,1.064E3,1.845E3,1.472E3,3.6E1,6.3E1,1.64E2,1.54E2,6.7E1,1.97E2,9.15E2,1.4E2,4E0,2.57E2,1.53E2,9.11E2,9.68E2,8.77E2,7.19E2,7.53E2],"tree_param":{"num_deleted":"0","num_feature":"15","num_nodes":"31","size_leaf_vector":"1"}},{"base_weights":[-4.2126575E-3,-3.514926E-1,1.4450033E-1,6.75296E-2,-4.1053605E-1,4.4611397E-1,3.0326627E-2,4.46668E-1,-5.2240666E-2,-1.9549884E-1,-5.046893E-1,6.1193836E-1,2.4910446E-1,-1.2078854E-1,1.8819186E-1,9.095663E-3,1.297157E-3,-4.8707444E-3,7.8582607E-4,-4.2735497E-3,-9.824532E-4,-1.0191088E-2,-4.617106E-3,6.888492E-3,2.9012198E-3,-5.2952813E-4,3.6426864E-3,-1.8298166E-3,2.2004487E-3,8.7834705E-5,3.0467683E-3],"categories":[],"categories_nodes":[],"categories_segments":[],"categories_sizes":[],"default_left":[0,0,0,0,0,0,0,0,0,0,0,0,0,0,0,0,0,0,0,0,0,0,0,0,0,0,0,0,0,0,0],"id":12,"left_children":[1,3,5,7,9,11,13,15,17,19,21,23,25,27,29,-1,-1,-1,-1,-1,-1,-1,-1,-1,-1,-1,-1,-1,-1,-1,-1],"loss_changes":[3.2933957E2,4.7331573E1,1.5374477E2,1.0785388E1,3.383438E1,3.989975E1,7.731562E1,8.244864E0,1.0334709E1,1.150301E1,2.528653E1,1.6259659E1,1.9569126E1,3.514332E1,3.3121254E1,0E0,0E0,0E0,0E0,0E0,0E0,0E0,0E0,0E0,0E0,0E0,0E0,0E0,0E0,0E0,0E0],"parents":[2147483647,0,0,1,1,2,2,3,3,4,4,5,5,6,6,7,7,8,8,9,9,10,10,11,11,12,12,13,13,14,14],"right_children":[2,4,6,8,10,12,14,16,18,20,22,24,26,28,30,-1,-1,-1,-1,-1,-1,-1,-1,-1,-1,-1,-1,-1,-1,-1,-1],"split_conditions":[-4.1688517E-1,-1.0201488E0,-6.168295E-1,-8.9987874E-1,-4.1746163E-1,-2.5189364E-1,1E0,-1.1163198E0,-1.1676699E0,-8.694107E-1,-1.6432098E0,4.045936E-1,-2.8257892E-1,1.2311848E0,1.9173552E-1,9.095663E-3,1.297157E-3,-4.8707444E-3,7.8582607E-4,-4.2735497E-3,-9.824532E-4,-1.0191088E-2,-4.617106E-3,6.888492E-3,2.9012198E-3,-5.2952813E-4,3.6426864E-3,-1.8298166E-3,2.2004487E-3,8.7834705E-5,3.0467683E-3],"split_indices":[1,10,6,12,14,10,0,6,7,11,7,12,11,1,1,0,0,0,0,0,0,0,0,0,0,0,0,0,0,0,0],"split_type":[0,0,0,0,0,0,0,0,0,0,0,0,0,0,0,0,0,0,0,0,0,0,0,0,0,0,0,0,0,0,0],"sum_hessian":[6.375E3,1.911E3,4.464E3,2.36E2,1.675E3,1.225E3,3.239E3,5.6E1,1.8E2,5.11E2,1.164E3,6.64E2,5.61E2,1.655E3,1.584E3,2.2E1,3.4E1,4.1E1,1.39E2,1.5E2,3.61E2,8.8E1,1.076E3,5.35E2,1.29E2,1.55E2,4.06E2,1.4E3,2.55E2,6.24E2,9.6E2],"tree_param":{"num_deleted":"0","num_feature":"15","num_nodes":"31","size_leaf_vector":"1"}},{"base_weights":[-5.2402867E-3,3.4860152E-1,-1.523056E-1,4.0753342E-2,5.298698E-1,-4.7699136E-1,-8.623668E-3,1.7978065E-1,-1.5537804E-1,3.7439844E-1,7.070707E-1,-6.2496513E-1,-3.1126443E-1,-1.250179E-1,1.5462208E-1,-7.0346764E-4,3.0053672E-3,4.7950745E-3,-1.920183E-3,5.6855935E-3,2.2732925E-3,1.1563818E-2,6.0542664E-3,-7.56281E-3,-4.9047186E-3,-1.5085544E-3,-4.393521E-3,-4.3991435E-4,-3.138507E-3,2.3549134E-3,-2.0435357E-3],"categories":[],"categories_nodes":[],"categories_segments":[],"categories_sizes":[],"default_left":[0,0,0,0,0,0,0,0,0,0,0,0,0,0,0,0,0,0,0,0,0,0,0,0,0,0,0,0,0,0,0],"id":13,"left_children":[1,3,5,7,9,11,13,15,17,19,21,23,25,27,29,-1,-1,-1,-1,-1,-1,-1,-1,-1,-1,-1,-1,-1,-1,-1,-1],"loss_changes":[3.3090982E2,1.0416281E2,2.0955432E2,1.8924393E1,3.210611E1,3.359851E1,5.920702E1,1.2284129E1,6.7916355E0,1.7803345E1,2.4326965E1,1.2468658E1,1.3329983E1,2.7817719E1,3.7700165E1,0E0,0E0,0E0,0E0,0E0,0E0,0E0,0E0,0E0,0E0,0E0,0E0,0E0,0E0,0E0,0E0],"parents":[2147483647,0,0,1,1,2,2,3,3,4,4,5,5,6,6,7,7,8,8,9,9,10,10,11,11,12,12,13,13,14,14],"right_children":[2,4,6,8,10,12,14,16,18,20,22,24,26,28,30,-1,-1,-1,-1,-1,-1,-1,-1,-1,-1,-1,-1,-1,-1,-1,-1],"split_conditions":[-4.1951102E-1,-2.4069588E-1,-3.8682982E-1,-9.1156894E-1,1E0,-1.057795E0,5.608612E-1,-7.0790094E-1,-1.4504119E0,-1.3782107E0,-1.3275747E0,1E0,2.6461285E-1,7.9864997E-1,1.1496071E0,-7.0346764E-4,3.0053672E-3,4.7950745E-3,-1.920183E-3,5.6855935E-3,2.2732925E-3,1.1563818E-2,6.0542664E-3,-7.56281E-3,-4.9047186E-3,-1.5085544E-3,-4.393521E-3,-4.3991435E-4,-3.138507E-3,2.3549134E-3,-2.0435357E-3],"split_indices":[2,1,1,2,0,1,1,13,10,2,6,0,2,2,2,0,0,0,0,0,0,0,0,0,0,0,0,0,0,0,0],"split_type":[0,0,0,0,0,0,0,0,0,0,0,0,0,0,0,0,0,0,0,0,0,0,0,0,0,0,0,0,0,0,0],"sum_hessian":[6.357E3,1.866E3,4.491E3,6.92E2,1.174E3,1.377E3,3.114E3,4.05E2,2.87E2,6.27E2,5.47E2,7.26E2,6.51E2,1.818E3,1.296E3,1.32E2,2.73E2,1.5E1,2.72E2,2.69E2,3.58E2,9.9E1,4.48E2,3.65E2,3.61E2,2.9E2,3.61E2,1.273E3,5.45E2,1.058E3,2.38E2],"tree_param":{"num_deleted":"0","num_feature":"15","num_nodes":"31","size_leaf_vector":"1"}},{"base_weights":[3.399594E-3,4.4823778E-1,-9.985321E-2,-1.3819645E-2,5.557957E-1,-4.8810062E-1,8.5958075E-3,7.270474E-1,-6.59285E-2,9.571221E-1,5.167106E-1,-7.210404E-1,-3.8427824E-1,-1.5717825E-1,1.7911863E-1,1.25485845E-2,4.21038E-3,-2.63219E-3,9.820062E-4,1.2516754E-2,6.403102E-3,3.555378E-3,6.0838303E-3,-3.6924551E-3,-8.43276E-3,-5.255039E-3,-2.525415E-3,3.351561E-4,-2.7357296E-3,2.2806501E-4,3.3667083E-3],"categories":[],"categories_nodes":[],"categories_segments":[],"categories_sizes":[],"default_left":[0,0,0,0,0,0,0,0,0,0,0,0,0,0,0,0,0,0,0,0,0,0,0,0,0,0,0,0,0,0,0],"id":14,"left_children":[1,3,5,7,9,11,13,15,17,19,21,23,25,27,29,-1,-1,-1,-1,-1,-1,-1,-1,-1,-1,-1,-1,-1,-1,-1,-1],"loss_changes":[2.9184308E2,5.949614E1,2.1713995E2,8.811434E0,1.473645E1,2.6954498E1,1.1400578E2,1.8943839E0,6.923026E0,7.1305695E0,1.2889221E1,1.4567261E1,1.4397484E1,4.5399494E1,4.8951435E1,0E0,0E0,0E0,0E0,0E0,0E0,0E0,0E0,0E0,0E0,0E0,0E0,0E0,0E0,0E0,0E0],"parents":[2147483647,0,0,1,1,2,2,3,3,4,4,5,5,6,6,7,7,8,8,9,9,10,10,11,11,12,12,13,13,14,14],"right_children":[2,4,6,8,10,12,14,16,18,20,22,24,26,28,30,-1,-1,-1,-1,-1,-1,-1,-1,-1,-1,-1,-1,-1,-1,-1,-1],"split_conditions":[-8.403067E-1,-8.2207847E-1,-6.5889007E-1,-1.821904E0,-1.6246301E0,-1.0011711E0,1E0,-9.6893847E-1,-8.6727804E-1,-4.6280554E-1,-1.3818657E-2,-4.7164264E-1,1E0,2.7240898E-2,2.8940547E-1,1.25485845E-2,4.21038E-3,-2.63219E-3,9.820062E-4,1.2516754E-2,6.403102E-3,3.555378E-3,6.0838303E-3,-3.6924551E-3,-8.43276E-3,-5.255039E-3,-2.525415E-3,3.351561E-4,-2.7357296E-3,2.2806501E-4,3.3667083E-3],"split_indices":[2,1,1,12,8,7,0,7,5,10,1,10,0,2,1,0,0,0,0,0,0,0,0,0,0,0,0,0,0,0,0],"split_type":[0,0,0,0,0,0,0,0,0,0,0,0,0,0,0,0,0,0,0,0,0,0,0,0,0,0,0,0,0,0,0],"sum_hessian":[6.352E3,1.196E3,5.156E3,2.26E2,9.7E2,1.125E3,4.031E3,1.4E1,2.12E2,8.4E1,8.86E2,3.45E2,7.8E2,2.044E3,1.987E3,4E0,1E1,9.6E1,1.16E2,4.2E1,4.2E1,3.23E2,5.63E2,9E1,2.55E2,3.75E2,4.05E2,7.75E2,1.269E3,9.98E2,9.89E2],"tree_param":{"num_deleted":"0","num_feature":"15","num_nodes":"31","size_leaf_vector":"1"}},{"base_weights":[-4.880399E-3,3.4353092E-1,-1.4354138E-1,-2.4364222E-2,4.705409E-1,-4.6382228E-1,-7.689511E-3,-2.2392201E-1,1.4974762E-1,8.1915504E-1,3.8303274E-1,-8.583808E-1,-4.0895534E-1,-1.536128E-1,1.4361577E-1,-4.0895544E-4,-4.5181178E-3,1.8128641E-3,-8.269612E-3,9.579195E-3,5.111249E-3,2.4484505E-3,5.3784316E-3,-7.5471173E-3,-1.6630827E-2,-5.237854E-3,-2.8952395E-3,-1.0694716E-6,-3.0787284E-3,1.2915399E-5,3.2548408E-3],"categories":[],"categories_nodes":[],"categories_segments":[],"categories_sizes":[],"default_left":[0,0,0,0,0,0,0,0,0,0,0,0,0,0,0,0,0,0,0,0,0,0,0,0,0,0,0,0,0,0,0],"id":15,"left_children":[1,3,5,7,9,11,13,15,17,19,21,23,25,27,29,-1,-1,-1,-1,-1,-1,-1,-1,-1,-1,-1,-1,-1,-1,-1,-1],"loss_changes":[3.0817722E2,8.486655E1,1.9853604E2,1.6259623E1,4.0870148E1,2.9068878E1,7.078515E1,9.074273E0,7.850968E0,1.1051178E1,2.2994019E1,1.25095825E1,1.6236969E1,3.8645435E1,4.074142E1,0E0,0E0,0E0,0E0,0E0,0E0,0E0,0E0,0E0,0E0,0E0,0E0,0E0,0E0,0E0,0E0],"parents":[2147483647,0,0,1,1,2,2,3,3,4,4,5,5,6,6,7,7,8,8,9,9,10,10,11,11,12,12,13,13,14,14],"right_children":[2,4,6,8,10,12,14,16,18,20,22,24,26,28,30,-1,-1,-1,-1,-1,-1,-1,-1,-1,-1,-1,-1,-1,-1,-1,-1],"split_conditions":[-4.556658E-1,-5.598614E-1,-3.8682982E-1,-5.796554E-1,-1.2070822E0,-1.4830617E0,1E0,-1.0308558E0,1.5906897E0,-4.018323E-1,1E0,1.3072603E0,-4.2757034E-1,3.6117333E-1,4.9420094E-1,-4.0895544E-4,-4.5181178E-3,1.8128641E-3,-8.269612E-3,9.579195E-3,5.111249E-3,2.4484505E-3,5.3784316E-3,-7.5471173E-3,-1.6630827E-2,-5.237854E-3,-2.8952395E-3,-1.0694716E-6,-3.0787284E-3,1.2915399E-5,3.2548408E-3],"split_indices":[2,1,1,13,6,5,0,2,13,8,0,8,9,2,1,0,0,0,0,0,0,0,0,0,0,0,0,0,0,0,0],"split_type":[0,0,0,0,0,0,0,0,0,0,0,0,0,0,0,0,0,0,0,0,0,0,0,0,0,0,0,0,0,0,0],"sum_hessian":[6.377E3,1.815E3,4.562E3,4.66E2,1.349E3,1.358E3,3.204E3,2.17E2,2.49E2,2.69E2,1.08E3,1.64E2,1.194E3,1.631E3,1.573E3,1.21E2,9.6E1,2.42E2,7E0,1.84E2,8.5E1,5.72E2,5.08E2,1.47E2,1.7E1,6.07E2,5.87E2,8.18E2,8.13E2,8.83E2,6.9E2],"tree_param":{"num_deleted":"0","num_feature":"15","num_nodes":"31","size_leaf_vector":"1"}},{"base_weights":[2.9256071E-3,3.5145527E-1,-1.4038907E-1,-2.0874666E-1,4.6194577E-1,-4.604605E-1,1.6637733E-2,-5.448205E-1,-1.1245134E-1,7.486809E-1,3.826426E-1,-9.419133E-1,-4.0641347E-1,-1.5945156E-1,1.9130628E-1,-4.199357E-3,-1.3029742E-2,6.3456725E-3,-1.588451E-3,7.092242E-3,2.0771652E-2,2.7075817E-3,5.05633E-3,-2.5825496E-3,-1.0293282E-2,-7.4395584E-3,-3.358745E-3,-7.527474E-3,-1.1011009E-3,4.906467E-4,3.206202E-3],"categories":[],"categories_nodes":[],"categories_segments":[],"categories_sizes":[],"default_left":[0,0,0,0,0,0,0,0,0,0,0,0,0,0,0,0,0,0,0,0,0,0,0,0,0,0,0,0,0,0,0],"id":16,"left_children":[1,3,5,7,9,11,13,15,17,19,21,23,25,27,29,-1,-1,-1,-1,-1,-1,-1,-1,-1,-1,-1,-1,-1,-1,-1,-1],"loss_changes":[3.1353186E2,1.13306046E2,2.2356322E2,9.712159E0,3.445874E1,3.7712097E1,9.184093E1,5.7965183E0,8.279851E0,1.58246E1,1.6362183E1,8.519165E0,3.1131561E1,4.3447685E1,2.7556614E1,0E0,0E0,0E0,0E0,0E0,0E0,0E0,0E0,0E0,0E0,0E0,0E0,0E0,0E0,0E0,0E0],"parents":[2147483647,0,0,1,1,2,2,3,3,4,4,5,5,6,6,7,7,8,8,9,9,10,10,11,11,12,12,13,13,14,14],"right_children":[2,4,6,8,10,12,14,16,18,20,22,24,26,28,30,-1,-1,-1,-1,-1,-1,-1,-1,-1,-1,-1,-1,-1,-1,-1,-1],"split_conditions":[-4.1951102E-1,-9.6031827E-1,-3.3020046E-1,-1.2569273E0,-1.1664426E0,-1.5113046E0,1E0,-1.4296527E-1,-1.7363219E0,1.8653537E0,1E0,-1.6410477E-1,-1.2102475E0,-9.837552E-1,3.8991916E-1,-4.199357E-3,-1.3029742E-2,6.3456725E-3,-1.588451E-3,7.092242E-3,2.0771652E-2,2.7075817E-3,5.05633E-3,-2.5825496E-3,-1.0293282E-2,-7.4395584E-3,-3.358745E-3,-7.527474E-3,-1.1011009E-3,4.906467E-4,3.206202E-3],"split_indices":[2,1,1,5,6,5,0,7,6,13,0,2,7,5,1,0,0,0,0,0,0,0,0,0,0,0,0,0,0,0,0],"split_type":[0,0,0,0,0,0,0,0,0,0,0,0,0,0,0,0,0,0,0,0,0,0,0,0,0,0,0,0,0,0,0],"sum_hessian":[6.275E3,1.828E3,4.447E3,3.01E2,1.527E3,1.463E3,2.984E3,6.6E1,2.35E2,3.29E2,1.198E3,1.46E2,1.317E3,1.486E3,1.498E3,5.8E1,8E0,1.3E1,2.22E2,3.21E2,8E0,6.29E2,5.69E2,1.7E1,1.29E2,2.26E2,1.091E3,1.13E2,1.373E3,7.14E2,7.84E2],"tree_param":{"num_deleted":"0","num_feature":"15","num_nodes":"31","size_leaf_vector":"1"}},{"base_weights":[-4.6297377E-3,3.298246E-1,-1.3409968E-1,3.687095E-2,4.0335014E-1,-3.7751547E-1,-2.0115254E-2,-1.9331825E-1,1.9088036E-1,5.203635E-1,2.3315047E-1,-5.7252944E-1,-1.930029E-1,-1.7468254E-1,1.2514403E-1,3.573568E-3,-3.257146E-3,5.5097328E-3,9.5998874E-4,7.742491E-3,4.448109E-3,1.5693802E-3,4.4510225E-3,-7.3625254E-3,-3.2607573E-3,1.1423639E-3,-3.0007567E-3,-1.0392364E-3,-4.483907E-3,-4.155749E-5,2.8991485E-3],"categories":[],"categories_nodes":[],"categories_segments":[],"categories_sizes":[],"default_left":[0,0,0,0,0,0,0,0,0,0,0,0,0,0,0,0,0,0,0,0,0,0,0,0,0,0,0,0,0,0,0],"id":17,"left_children":[1,3,5,7,9,11,13,15,17,19,21,23,25,27,29,-1,-1,-1,-1,-1,-1,-1,-1,-1,-1,-1,-1,-1,-1,-1,-1],"loss_changes":[2.7215262E2,3.776555E1,1.2570774E2,1.2551211E1,2.7800385E1,5.1884277E1,6.933222E1,1.0469246E1,7.190331E0,1.5576431E1,9.186026E0,2.808577E1,2.450962E1,2.8926872E1,3.3918495E1,0E0,0E0,0E0,0E0,0E0,0E0,0E0,0E0,0E0,0E0,0E0,0E0,0E0,0E0,0E0,0E0],"parents":[2147483647,0,0,1,1,2,2,3,3,4,4,5,5,6,6,7,7,8,8,9,9,10,10,11,11,12,12,13,13,14,14],"right_children":[2,4,6,8,10,12,14,16,18,20,22,24,26,28,30,-1,-1,-1,-1,-1,-1,-1,-1,-1,-1,-1,-1,-1,-1,-1,-1],"split_conditions":[-4.704564E-1,-7.224556E-1,-5.128329E-1,-6.849431E-1,-1.0308558E0,-4.2960188E-1,1E0,-1.2810892E0,-1.3016875E0,-1.3275747E0,5.1447916E-1,-2.1224903E-1,-4.0649496E-2,1.00696E0,1.2908381E-1,3.573568E-3,-3.257146E-3,5.5097328E-3,9.5998874E-4,7.742491E-3,4.448109E-3,1.5693802E-3,4.4510225E-3,-7.3625254E-3,-3.2607573E-3,1.1423639E-3,-3.0007567E-3,-1.0392364E-3,-4.483907E-3,-4.155749E-5,2.8991485E-3],"split_indices":[2,9,5,7,2,7,0,10,6,6,11,9,2,2,9,0,0,0,0,0,0,0,0,0,0,0,0,0,0,0,0],"split_type":[0,0,0,0,0,0,0,0,0,0,0,0,0,0,0,0,0,0,0,0,0,0,0,0,0,0,0,0,0,0,0],"sum_hessian":[6.283E3,1.753E3,4.53E3,3.52E2,1.401E3,1.444E3,3.086E3,1.41E2,2.11E2,8.29E2,5.72E2,7.01E2,7.43E2,1.495E3,1.591E3,2.7E1,1.14E2,4.3E1,1.68E2,1.88E2,6.41E2,4.22E2,1.5E2,4.2E2,2.81E2,1.92E2,5.51E2,1.189E3,3.06E2,8.92E2,6.99E2],"tree_param":{"num_deleted":"0","num_feature":"15","num_nodes":"31","size_leaf_vector":"1"}},{"base_weights":[7.895454E-3,-2.93625E-1,1.338004E-1,-9.3815915E-2,-4.0815276E-1,4.2944127E-1,2.6879245E-2,-3.854094E-1,5.186759E-2,-8.33252E-1,-3.4026852E-1,6.0930735E-1,2.3705044E-1,-1.1027251E-1,1.6856097E-1,-1.9024612E-3,-5.9116636E-3,3.0642177E-3,-1.0899238E-3,-9.078698E-3,-2.1601804E-3,-4.816276E-3,-2.0096558E-3,4.3290965E-3,7.2637144E-3,7.0920563E-3,1.5898676E-3,4.6892237E-4,-2.6842977E-3,-2.1422996E-4,2.9732601E-3],"categories":[],"categories_nodes":[],"categories_segments":[],"categories_sizes":[],"default_left":[0,0,0,0,0,0,0,0,0,0,0,0,0,0,0,0,0,0,0,0,0,0,0,0,0,0,0,0,0,0,0],"id":18,"left_children":[1,3,5,7,9,11,13,15,17,19,21,23,25,27,29,-1,-1,-1,-1,-1,-1,-1,-1,-1,-1,-1,-1,-1,-1,-1,-1],"loss_changes":[2.4254639E2,4.302881E1,1.4245593E2,2.9204E1,3.4230103E1,4.1277252E1,6.4357605E1,9.083305E0,1.8828337E1,7.35717E0,2.0244774E1,1.2447159E1,2.126498E1,4.184649E1,3.985708E1,0E0,0E0,0E0,0E0,0E0,0E0,0E0,0E0,0E0,0E0,0E0,0E0,0E0,0E0,0E0,0E0],"parents":[2147483647,0,0,1,1,2,2,3,3,4,4,5,5,6,6,7,7,8,8,9,9,10,10,11,11,12,12,13,13,14,14],"right_children":[2,4,6,8,10,12,14,16,18,20,22,24,26,28,30,-1,-1,-1,-1,-1,-1,-1,-1,-1,-1,-1,-1,-1,-1,-1,-1],"split_conditions":[-4.2888585E-1,-3.6208537E-1,-6.24794E-1,-1.4763829E0,-1.4194461E0,-2.5189364E-1,1E0,-1.560348E-1,-3.979762E-1,5.41334E-1,1E0,-1.0712622E-1,-1.4467666E0,7.234799E-2,1.9173552E-1,-1.9024612E-3,-5.9116636E-3,3.0642177E-3,-1.0899238E-3,-9.078698E-3,-2.1601804E-3,-4.816276E-3,-2.0096558E-3,4.3290965E-3,7.2637144E-3,7.0920563E-3,1.5898676E-3,4.6892237E-4,-2.6842977E-3,-2.1422996E-4,2.9732601E-3],"split_indices":[1,10,6,1,5,10,0,12,14,9,0,9,6,12,1,0,0,0,0,0,0,0,0,0,0,0,0,0,0,0,0],"split_type":[0,0,0,0,0,0,0,0,0,0,0,0,0,0,0,0,0,0,0,0,0,0,0,0,0,0,0,0,0,0,0],"sum_hessian":[6.387E3,1.881E3,4.506E3,6.86E2,1.195E3,1.196E3,3.31E3,2.28E2,4.58E2,1.63E2,1.032E3,6.17E2,5.79E2,1.682E3,1.628E3,1.18E2,1.1E2,1.77E2,2.81E2,1.45E2,1.8E1,5.11E2,5.21E2,2.48E2,3.69E2,8.1E1,4.98E2,8.44E2,8.38E2,6.58E2,9.7E2],"tree_param":{"num_deleted":"0","num_feature":"15","num_nodes":"31","size_leaf_vector":"1"}},{"base_weights":[5.5936915E-3,3.440248E-1,-1.4404033E-1,9.961972E-2,5.5692697E-1,-4.6396524E-1,-1.0880528E-3,2.664772E-1,-9.204723E-2,4.1227722E-1,7.044499E-1,-2.9547018E-1,-5.873655E-1,6.4699E-2,-3.5495085E-1,-1.3404387E-5,4.016417E-3,-2.457952E-3,8.2354737E-4,9.175341E-3,3.5833786E-3,1.1472174E-2,6.4300136E-3,-6.111448E-5,-3.6099565E-3,-7.3085385E-3,-4.463797E-3,-6.0162466E-4,2.339216E-3,2.4112647E-3,-3.9711194E-3],"categories":[],"categories_nodes":[],"categories_segments":[],"categories_sizes":[],"default_left":[0,0,0,0,0,0,0,0,0,0,0,0,0,0,0,0,0,0,0,0,0,0,0,0,0,0,0,0,0,0,0],"id":19,"left_children":[1,3,5,7,9,11,13,15,17,19,21,23,25,27,29,-1,-1,-1,-1,-1,-1,-1,-1,-1,-1,-1,-1,-1,-1,-1,-1],"loss_changes":[3.1994754E2,1.0073512E2,2.0036015E2,2.890343E1,2.1795593E1,2.7958466E1,7.053684E1,1.7484863E1,1.1308914E1,1.39791565E1,1.3165298E1,1.08810425E1,1.5453003E1,5.399965E1,1.2033104E1,0E0,0E0,0E0,0E0,0E0,0E0,0E0,0E0,0E0,0E0,0E0,0E0,0E0,0E0,0E0,0E0],"parents":[2147483647,0,0,1,1,2,2,3,3,4,4,5,5,6,6,7,7,8,8,9,9,10,10,11,11,12,12,13,13,14,14],"right_children":[2,4,6,8,10,12,14,16,18,20,22,24,26,28,30,-1,-1,-1,-1,-1,-1,-1,-1,-1,-1,-1,-1,-1,-1,-1,-1],"split_conditions":[-4.0028635E-1,-1.3818657E-2,-3.8682982E-1,-9.963165E-1,1E0,2.4377804E-1,1.1496071E0,-9.984842E-1,1E0,-1.4504119E0,-1.4793692E0,-7.034891E-1,1E0,5.2700394E-1,-8.0406374E-1,-1.3404387E-5,4.016417E-3,-2.457952E-3,8.2354737E-4,9.175341E-3,3.5833786E-3,1.1472174E-2,6.4300136E-3,-6.111448E-5,-3.6099565E-3,-7.3085385E-3,-4.463797E-3,-6.0162466E-4,2.339216E-3,2.4112647E-3,-3.9711194E-3],"split_indices":[2,1,1,2,0,2,2,1,0,10,6,14,0,1,14,0,0,0,0,0,0,0,0,0,0,0,0,0,0,0,0],"split_type":[0,0,0,0,0,0,0,0,0,0,0,0,0,0,0,0,0,0,0,0,0,0,0,0,0,0,0,0,0,0,0],"sum_hessian":[6.316E3,1.936E3,4.38E3,9.02E2,1.034E3,1.352E3,3.028E3,4.82E2,4.2E2,5.24E2,5.1E2,5.73E2,7.79E2,2.554E3,4.74E2,1.62E2,3.2E2,2.23E2,1.97E2,4.9E1,4.75E2,6E1,4.5E2,1.06E2,4.67E2,3.84E2,3.95E2,1.47E3,1.084E3,3.1E1,4.43E2],"tree_param":{"num_deleted":"0","num_feature":"15","num_nodes":"31","size_leaf_vector":"1"}},{"base_weights":[-9.6286245E-4,3.3397797E-1,-1.4193076E-1,-9.666099E-2,4.3550286E-1,-4.4798467E-1,-8.1844255E-3,7.670852E-2,-2.9436705E-1,3.0288336E-1,5.7924414E-1,-8.2237697E-1,-3.72708E-1,-1.589168E-1,1.4206606E-1,-3.3034492E-4,3.1686462E-3,-9.873533E-3,-2.0402407E-3,6.510092E-3,2.2862183E-3,4.659774E-3,8.283735E-3,-1.3305972E-2,-7.521964E-3,-8.745441E-3,-3.3293476E-3,7.6807584E-5,-3.195818E-3,2.4661183E-4,3.7056722E-3],"categories":[],"categories_nodes":[],"categories_segments":[],"categories_sizes":[],"default_left":[0,0,0,0,0,0,0,0,0,0,0,0,0,0,0,0,0,0,0,0,0,0,0,0,0,0,0,0,0,0,0],"id":20,"left_children":[1,3,5,7,9,11,13,15,17,19,21,23,25,27,29,-1,-1,-1,-1,-1,-1,-1,-1,-1,-1,-1,-1,-1,-1,-1,-1],"loss_changes":[2.9760202E2,8.166841E1,1.8157773E2,1.2259186E1,2.8628601E1,3.771237E1,6.9958405E1,5.0443597E0,1.0253834E1,2.0222816E1,2.00439E1,7.024231E0,2.2163437E1,4.1276237E1,4.1492466E1,0E0,0E0,0E0,0E0,0E0,0E0,0E0,0E0,0E0,0E0,0E0,0E0,0E0,0E0,0E0,0E0],"parents":[2147483647,0,0,1,1,2,2,3,3,4,4,5,5,6,6,7,7,8,8,9,9,10,10,11,11,12,12,13,13,14,14],"right_children":[2,4,6,8,10,12,14,16,18,20,22,24,26,28,30,-1,-1,-1,-1,-1,-1,-1,-1,-1,-1,-1,-1,-1,-1,-1,-1],"split_conditions":[-4.0028635E-1,-8.2207847E-1,-3.8682982E-1,-9.556133E-1,1E0,-1.2798922E0,1E0,-2.943307E-1,-1.586442E0,-1.1859134E0,7.0166093E-1,-1.6432098E0,-1.577974E0,3.854262E-1,7.0166093E-1,-3.3034492E-4,3.1686462E-3,-9.873533E-3,-2.0402407E-3,6.510092E-3,2.2862183E-3,4.659774E-3,8.283735E-3,-1.3305972E-2,-7.521964E-3,-8.745441E-3,-3.3293476E-3,7.6807584E-5,-3.195818E-3,2.4661183E-4,3.7056722E-3],"split_indices":[2,1,1,2,0,5,0,9,5,8,1,7,7,2,1,0,0,0,0,0,0,0,0,0,0,0,0,0,0,0,0],"split_type":[0,0,0,0,0,0,0,0,0,0,0,0,0,0,0,0,0,0,0,0,0,0,0,0,0,0,0,0,0,0,0],"sum_hessian":[6.301E3,1.866E3,4.435E3,3.56E2,1.51E3,1.348E3,3.087E3,1.9E2,1.66E2,7.87E2,7.23E2,2.24E2,1.124E3,1.541E3,1.546E3,1.31E2,5.9E1,1.8E1,1.48E2,1.37E2,6.5E2,4.99E2,2.24E2,2.5E1,1.99E2,8.1E1,1.043E3,7.57E2,7.84E2,1.022E3,5.24E2],"tree_param":{"num_deleted":"0","num_feature":"15","num_nodes":"31","size_leaf_vector":"1"}},{"base_weights":[-6.7443624E-3,2.3738684E-1,-1.6840303E-1,-1.4598726E-1,3.3391035E-1,-4.5486128E-1,-2.7757343E-2,4.5331493E-2,-2.7326787E-1,5.1279986E-1,1.7637818E-1,-9.282171E-1,-4.079901E-1,-1.8225858E-1,1.2288778E-1,2.5089162E-3,-1.6066453E-3,-1.4615503E-2,-2.450072E-3,6.3030934E-3,3.2923385E-3,4.043207E-5,3.5061343E-3,-1.0680586E-2,-2.580591E-3,-6.178299E-3,-3.1888026E-3,5.2283925E-4,-2.929925E-3,8.011854E-4,7.256523E-3],"categories":[],"categories_nodes":[],"categories_segments":[],"categories_sizes":[],"default_left":[0,0,0,0,0,0,0,0,0,0,0,0,0,0,0,0,0,0,0,0,0,0,0,0,0,0,0,0,0,0,0],"id":21,"left_children":[1,3,5,7,9,11,13,15,17,19,21,23,25,27,29,-1,-1,-1,-1,-1,-1,-1,-1,-1,-1,-1,-1,-1,-1,-1,-1],"loss_changes":[2.5380585E2,9.485457E1,1.55866E2,1.2577591E1,5.759578E1,2.7887207E1,6.0443928E1,8.805635E0,1.0052223E1,2.045726E1,3.272782E1,1.0407982E1,2.1512283E1,3.331118E1,3.384227E1,0E0,0E0,0E0,0E0,0E0,0E0,0E0,0E0,0E0,0E0,0E0,0E0,0E0,0E0,0E0,0E0],"parents":[2147483647,0,0,1,1,2,2,3,3,4,4,5,5,6,6,7,7,8,8,9,9,10,10,11,11,12,12,13,13,14,14],"right_children":[2,4,6,8,10,12,14,16,18,20,22,24,26,28,30,-1,-1,-1,-1,-1,-1,-1,-1,-1,-1,-1,-1,-1,-1,-1,-1],"split_conditions":[-1.6410477E-1,-8.0856836E-1,-3.3020046E-1,-9.963165E-1,-8.403067E-1,-1.5342456E0,1E0,-8.49752E-1,-2.3051093E0,-6.24794E-1,1E0,2.4026443E-1,-9.304432E-1,1.9686535E-1,1.6701903E0,2.5089162E-3,-1.6066453E-3,-1.4615503E-2,-2.450072E-3,6.3030934E-3,3.2923385E-3,4.043207E-5,3.5061343E-3,-1.0680586E-2,-2.580591E-3,-6.178299E-3,-3.1888026E-3,5.2283925E-4,-2.929925E-3,8.011854E-4,7.256523E-3],"split_indices":[2,1,1,2,2,7,0,6,11,6,0,9,5,2,1,0,0,0,0,0,0,0,0,0,0,0,0,0,0,0,0],"split_type":[0,0,0,0,0,0,0,0,0,0,0,0,0,0,0,0,0,0,0,0,0,0,0,0,0,0,0,0,0,0,0],"sum_hessian":[6.429E3,2.561E3,3.868E3,5.15E2,2.046E3,1.273E3,2.595E3,2.06E2,3.09E2,9.57E2,1.089E3,1.13E2,1.16E3,1.281E3,1.314E3,1.03E2,1.03E2,6E0,3.03E2,5.82E2,3.75E2,5.48E2,5.41E2,9.3E1,2E1,3.44E2,8.16E2,4.11E2,8.7E2,1.228E3,8.6E1],"tree_param":{"num_deleted":"0","num_feature":"15","num_nodes":"31","size_leaf_vector":"1"}},{"base_weights":[9.395876E-3,3.2723394E-1,-1.2706853E-1,7.510523E-2,4.7466663E-1,-5.0016445E-1,-1.8569618E-2,2.1018289E-1,-9.981639E-2,3.2069853E-1,6.250567E-1,-6.4969116E-1,-3.5349092E-1,-1.5484269E-1,1.24215335E-1,4.203549E-3,9.4056677E-4,-6.955601E-3,-5.138859E-4,5.637832E-3,2.1807086E-3,1.2353545E-2,5.9335474E-3,-1.1571435E-2,-5.8852094E-3,-7.5563383E-3,-2.8394803E-3,-9.353734E-4,-4.571183E-3,1.7137735E-4,3.110035E-3],"categories":[],"categories_nodes":[],"categories_segments":[],"categories_sizes":[],"default_left":[0,0,0,0,0,0,0,0,0,0,0,0,0,0,0,0,0,0,0,0,0,0,0,0,0,0,0,0,0,0,0],"id":22,"left_children":[1,3,5,7,9,11,13,15,17,19,21,23,25,27,29,-1,-1,-1,-1,-1,-1,-1,-1,-1,-1,-1,-1,-1,-1,-1,-1],"loss_changes":[2.7463974E2,7.066553E1,1.7931935E2,1.6631466E1,2.7585876E1,2.1658112E1,6.681767E1,9.6498375E0,8.821377E0,1.4720642E1,1.0991638E1,1.4622177E1,1.3936325E1,3.2516403E1,3.353606E1,0E0,0E0,0E0,0E0,0E0,0E0,0E0,0E0,0E0,0E0,0E0,0E0,0E0,0E0,0E0,0E0],"parents":[2147483647,0,0,1,1,2,2,3,3,4,4,5,5,6,6,7,7,8,8,9,9,10,10,11,11,12,12,13,13,14,14],"right_children":[2,4,6,8,10,12,14,16,18,20,22,24,26,28,30,-1,-1,-1,-1,-1,-1,-1,-1,-1,-1,-1,-1,-1,-1,-1,-1],"split_conditions":[-4.1951102E-1,-2.3291443E-1,-6.5889007E-1,-9.963165E-1,1E0,1E0,1E0,-9.999534E-1,-1.4839901E0,-1.0004872E0,-1.8292998E0,-1.577974E0,-1.3060285E0,1.129229E0,5.903125E-1,4.203549E-3,9.4056677E-4,-6.955601E-3,-5.138859E-4,5.637832E-3,2.1807086E-3,1.2353545E-2,5.9335474E-3,-1.1571435E-2,-5.8852094E-3,-7.5563383E-3,-2.8394803E-3,-9.353734E-4,-4.571183E-3,1.7137735E-4,3.110035E-3],"split_indices":[2,1,1,2,0,0,0,10,7,8,8,7,9,2,1,0,0,0,0,0,0,0,0,0,0,0,0,0,0,0,0],"split_type":[0,0,0,0,0,0,0,0,0,0,0,0,0,0,0,0,0,0,0,0,0,0,0,0,0,0,0,0,0,0,0],"sum_hessian":[6.33E3,1.901E3,4.429E3,7.02E2,1.199E3,9.97E2,3.432E3,3.96E2,3.06E2,5.94E2,6.05E2,4.92E2,5.05E2,1.756E3,1.676E3,1.4E2,2.56E2,2.2E1,2.84E2,1.75E2,4.19E2,2.8E1,5.77E2,5.1E1,4.41E2,7.3E1,4.32E2,1.461E3,2.95E2,1.066E3,6.1E2],"tree_param":{"num_deleted":"0","num_feature":"15","num_nodes":"31","size_leaf_vector":"1"}},{"base_weights":[9.441474E-3,3.339939E-1,-1.2962373E-1,2.1227475E-2,4.0208453E-1,-3.5448226E-1,6.889367E-3,-1.5983866E-1,2.7457368E-1,6.922949E-1,3.463499E-1,-6.8854994E-1,-2.5984368E-1,5.8920946E-2,-2.5506982E-1,3.4279455E-4,-3.94419E-3,3.676995E-3,-2.6279795E-3,1.6257243E-3,7.7582994E-3,2.6718876E-3,5.2058515E-3,-9.854072E-3,-5.6989524E-3,-2.9514453E-3,4.2122738E-3,-1.5580079E-3,1.2985283E-3,-7.599333E-3,-2.0846992E-3],"categories":[],"categories_nodes":[],"categories_segments":[],"categories_sizes":[],"default_left":[0,0,0,0,0,0,0,0,0,0,0,0,0,0,0,0,0,0,0,0,0,0,0,0,0,0,0,0,0,0,0],"id":23,"left_children":[1,3,5,7,9,11,13,15,17,19,21,23,25,27,29,-1,-1,-1,-1,-1,-1,-1,-1,-1,-1,-1,-1,-1,-1,-1,-1],"loss_changes":[2.911573E2,4.1200134E1,1.3862619E2,1.59616165E1,2.5461914E1,5.375746E1,3.832938E1,9.257388E0,7.35289E0,1.1157722E1,1.8274109E1,1.2682465E1,3.2124725E1,3.5751266E1,1.0804966E1,0E0,0E0,0E0,0E0,0E0,0E0,0E0,0E0,0E0,0E0,0E0,0E0,0E0,0E0,0E0,0E0],"parents":[2147483647,0,0,1,1,2,2,3,3,4,4,5,5,6,6,7,7,8,8,9,9,10,10,11,11,12,12,13,13,14,14],"right_children":[2,4,6,8,10,12,14,16,18,20,22,24,26,28,30,-1,-1,-1,-1,-1,-1,-1,-1,-1,-1,-1,-1,-1,-1,-1,-1],"split_conditions":[-4.1951102E-1,-8.164544E-1,-3.749515E-1,-2.6964006E-1,-1.2832719E0,-9.409372E-1,1.0893397E0,-4.0561506E-1,1.9206376E-1,-8.979463E-1,4.4468898E-1,-9.334626E-1,1.664832E0,-5.0539416E-1,-1.0151684E0,3.4279455E-4,-3.94419E-3,3.676995E-3,-2.6279795E-3,1.6257243E-3,7.7582994E-3,2.6718876E-3,5.2058515E-3,-9.854072E-3,-5.6989524E-3,-2.9514453E-3,4.2122738E-3,-1.5580079E-3,1.2985283E-3,-7.599333E-3,-2.0846992E-3],"split_indices":[2,9,5,7,8,7,2,14,8,13,13,13,9,7,9,0,0,0,0,0,0,0,0,0,0,0,0,0,0,0,0],"split_type":[0,0,0,0,0,0,0,0,0,0,0,0,0,0,0,0,0,0,0,0,0,0,0,0,0,0,0,0,0,0,0],"sum_hessian":[6.449E3,1.934E3,4.515E3,3.46E2,1.588E3,1.705E3,2.81E3,2.02E2,1.44E2,2.54E2,1.334E3,3.75E2,1.33E3,2.345E3,4.65E2,1.11E2,9.1E1,1.23E2,2.1E1,3.5E1,2.19E2,9.19E2,4.15E2,1.05E2,2.7E2,1.265E3,6.5E1,5.82E2,1.763E3,3.8E1,4.27E2],"tree_param":{"num_deleted":"0","num_feature":"15","num_nodes":"31","size_leaf_vector":"1"}},{"base_weights":[-1.7941366E-4,3.260987E-1,-1.3335413E-1,1.0602729E-1,5.124785E-1,-5.106596E-1,-2.1328654E-2,3.4969357E-1,2.1795798E-2,7.7749383E-1,4.3546182E-1,-8.290724E-1,-4.4822714E-1,-1.6628584E-1,1.20834E-1,-1.639083E-3,4.394188E-3,-2.0285514E-3,1.2471037E-3,8.344889E-3,3.7760718E-4,5.2068275E-3,2.6098865E-3,8.516204E-3,-8.647918E-3,-5.641976E-3,-3.359654E-3,-2.3528254E-3,1.5503742E-3,-1.4292069E-4,2.7902767E-3],"categories":[],"categories_nodes":[],"categories_segments":[],"categories_sizes":[],"default_left":[0,0,0,0,0,0,0,0,0,0,0,0,0,0,0,0,0,0,0,0,0,0,0,0,0,0,0,0,0,0,0],"id":24,"left_children":[1,3,5,7,9,11,13,15,17,19,21,23,25,27,29,-1,-1,-1,-1,-1,-1,-1,-1,-1,-1,-1,-1,-1,-1,-1,-1],"loss_changes":[2.7583328E2,7.541666E1,1.9053244E2,1.7335472E1,1.9990417E1,2.0143799E1,7.167236E1,1.0072048E1,1.4567687E1,9.370422E0,1.1372528E1,1.0822067E1,1.1071915E1,3.821364E1,3.7540405E1,0E0,0E0,0E0,0E0,0E0,0E0,0E0,0E0,0E0,0E0,0E0,0E0,0E0,0E0,0E0,0E0],"parents":[2147483647,0,0,1,1,2,2,3,3,4,4,5,5,6,6,7,7,8,8,9,9,10,10,11,11,12,12,13,13,14,14],"right_children":[2,4,6,8,10,12,14,16,18,20,22,24,26,28,30,-1,-1,-1,-1,-1,-1,-1,-1,-1,-1,-1,-1,-1,-1,-1,-1],"split_conditions":[-4.556658E-1,-2.9414942E-2,-6.5889007E-1,-1.0201488E0,-1.1662023E0,-1.3347677E0,1E0,-1.2096155E0,-1.0888104E0,3.1199485E-1,-3.6550528E-1,-2.140039E0,1E0,1.0388421E0,3.6598384E-1,-1.639083E-3,4.394188E-3,-2.0285514E-3,1.2471037E-3,8.344889E-3,3.7760718E-4,5.2068275E-3,2.6098865E-3,8.516204E-3,-8.647918E-3,-5.641976E-3,-3.359654E-3,-2.3528254E-3,1.5503742E-3,-1.4292069E-4,2.7902767E-3],"split_indices":[2,1,1,10,8,7,0,9,1,6,6,8,0,1,1,0,0,0,0,0,0,0,0,0,0,0,0,0,0,0,0],"split_type":[0,0,0,0,0,0,0,0,0,0,0,0,0,0,0,0,0,0,0,0,0,0,0,0,0,0,0,0,0,0,0],"sum_hessian":[6.346E3,1.839E3,4.507E3,8.44E2,9.95E2,1.031E3,3.476E3,2.16E2,6.28E2,2.22E2,7.73E2,1.67E2,8.64E2,1.721E3,1.755E3,3.2E1,1.84E2,1.97E2,4.31E2,2.06E2,1.6E1,5.18E2,2.55E2,3E0,1.64E2,4.23E2,4.41E2,1.417E3,3.04E2,9.47E2,8.08E2],"tree_param":{"num_deleted":"0","num_feature":"15","num_nodes":"31","size_leaf_vector":"1"}},{"base_weights":[3.787392E-3,3.0311233E-1,-1.2662533E-1,4.6426304E-2,4.5842448E-1,-2.9884437E-1,8.143883E-2,-1.3199939E-1,1.9522324E-1,5.790225E-1,3.126346E-1,-5.2023125E-1,-2.0655406E-1,-7.137829E-2,2.3728539E-1,-4.859586E-4,-5.3623444E-3,5.7074623E-3,1.1348919E-3,1.102598E-2,5.491839E-3,1.5887974E-3,4.527405E-3,-9.394351E-3,-4.680036E-3,-1.067156E-3,-3.8211518E-3,2.1327574E-4,-4.1284347E-3,1.9875923E-3,8.590035E-3],"categories":[],"categories_nodes":[],"categories_segments":[],"categories_sizes":[],"default_left":[0,0,0,0,0,0,0,0,0,0,0,0,0,0,0,0,0,0,0,0,0,0,0,0,0,0,0,0,0,0,0],"id":25,"left_children":[1,3,5,7,9,11,13,15,17,19,21,23,25,27,29,-1,-1,-1,-1,-1,-1,-1,-1,-1,-1,-1,-1,-1,-1,-1,-1],"loss_changes":[2.453002E2,7.600406E1,1.5686368E2,1.9141191E1,2.070636E1,4.8826874E1,4.724411E1,1.1032337E1,1.19975815E1,9.533646E0,1.1560726E1,1.4973724E1,2.9616173E1,3.1727943E1,2.3350533E1,0E0,0E0,0E0,0E0,0E0,0E0,0E0,0E0,0E0,0E0,0E0,0E0,0E0,0E0,0E0,0E0],"parents":[2147483647,0,0,1,1,2,2,3,3,4,4,5,5,6,6,7,7,8,8,9,9,10,10,11,11,12,12,13,13,14,14],"right_children":[2,4,6,8,10,12,14,16,18,20,22,24,26,28,30,-1,-1,-1,-1,-1,-1,-1,-1,-1,-1,-1,-1,-1,-1,-1,-1],"split_conditions":[-4.0028635E-1,-2.2217186E-1,1.2097781E-1,-9.6031827E-1,-1.0308558E0,-1.057795E0,1E0,-5.6810176E-1,-1.2411642E0,-1.9297744E0,4.4155183E-1,-1.577974E0,6.908906E-1,1.00696E0,2.0570757E0,-4.859586E-4,-5.3623444E-3,5.7074623E-3,1.1348919E-3,1.102598E-2,5.491839E-3,1.5887974E-3,4.527405E-3,-9.394351E-3,-4.680036E-3,-1.067156E-3,-3.8211518E-3,2.1327574E-4,-4.1284347E-3,1.9875923E-3,8.590035E-3],"split_indices":[2,1,1,1,2,1,0,2,8,8,1,7,2,2,1,0,0,0,0,0,0,0,0,0,0,0,0,0,0,0,0],"split_type":[0,0,0,0,0,0,0,0,0,0,0,0,0,0,0,0,0,0,0,0,0,0,0,0,0,0,0,0,0,0,0],"sum_hessian":[6.282E3,1.906E3,4.376E3,7.19E2,1.187E3,2.394E3,1.982E3,3.27E2,3.92E2,6.48E2,5.39E2,7.03E2,1.691E3,1.001E3,9.81E2,2.72E2,5.5E1,6.9E1,3.23E2,3.3E1,6.15E2,2.58E2,2.81E2,7.6E1,6.27E2,1.079E3,6.12E2,7.88E2,2.13E2,9.25E2,5.6E1],"tree_param":{"num_deleted":"0","num_feature":"15","num_nodes":"31","size_leaf_vector":"1"}},{"base_weights":[-8.839278E-3,-2.551505E-1,8.026872E-2,-4.148566E-1,-7.474825E-2,4.039715E-1,2.7812922E-3,-3.001448E-1,-6.625287E-1,2.995026E-1,-1.7885599E-1,5.605628E-1,2.1161808E-1,2.0756288E-1,-7.107292E-2,-2.298106E-6,-3.8205385E-3,-7.0681297E-3,5.9939926E-3,8.499113E-3,1.4118148E-3,-2.7077633E-4,-3.4833564E-3,6.597403E-3,2.9215284E-3,7.650817E-5,4.4734557E-3,7.7639736E-4,3.4945835E-3,-1.5813796E-3,8.149377E-4],"categories":[],"categories_nodes":[],"categories_segments":[],"categories_sizes":[],"default_left":[0,0,0,0,0,0,0,0,0,0,0,0,0,0,0,0,0,0,0,0,0,0,0,0,0,0,0,0,0,0,0],"id":26,"left_children":[1,3,5,7,9,11,13,15,17,19,21,23,25,27,29,-1,-1,-1,-1,-1,-1,-1,-1,-1,-1,-1,-1,-1,-1,-1,-1],"loss_changes":[1.377241E2,4.7997513E1,1.1558086E2,2.4916382E1,3.0600098E1,2.668895E1,5.626085E1,1.4886765E1,1.6015175E1,1.4781175E1,1.5784706E1,1.2851166E1,1.9276936E1,1.8150276E1,3.632922E1,0E0,0E0,0E0,0E0,0E0,0E0,0E0,0E0,0E0,0E0,0E0,0E0,0E0,0E0,0E0,0E0],"parents":[2147483647,0,0,1,1,2,2,3,3,4,4,5,5,6,6,7,7,8,8,9,9,10,10,11,11,12,12,13,13,14,14],"right_children":[2,4,6,8,10,12,14,16,18,20,22,24,26,28,30,-1,-1,-1,-1,-1,-1,-1,-1,-1,-1,-1,-1,-1,-1,-1,-1],"split_conditions":[-6.364548E-1,-4.059447E-1,-8.0524606E-1,3.463292E-1,-7.161764E-1,-2.2583081E-1,-5.3185636E-1,-8.0406374E-1,1.5446275E0,-1.0158271E0,2.6916606E-2,-4.196334E-2,1E0,3.586511E-2,3.728068E-1,-2.298106E-6,-3.8205385E-3,-7.0681297E-3,5.9939926E-3,8.499113E-3,1.4118148E-3,-2.7077633E-4,-3.4833564E-3,6.597403E-3,2.9215284E-3,7.650817E-5,4.4734557E-3,7.7639736E-4,3.4945835E-3,-1.5813796E-3,8.149377E-4],"split_indices":[7,5,6,12,14,10,8,14,9,8,10,8,0,9,5,0,0,0,0,0,0,0,0,0,0,0,0,0,0,0,0],"split_type":[0,0,0,0,0,0,0,0,0,0,0,0,0,0,0,0,0,0,0,0,0,0,0,0,0,0,0,0,0,0,0],"sum_hessian":[6.273E3,1.666E3,4.607E3,8.83E2,7.83E2,8.89E2,3.718E3,6.05E2,2.78E2,1.7E2,6.13E2,4.89E2,4E2,9.85E2,2.733E3,1.3E2,4.75E2,2.69E2,9E0,3.7E1,1.33E2,3.24E2,2.89E2,3.56E2,1.33E2,2.15E2,1.85E2,5.15E2,4.7E2,1.74E3,9.93E2],"tree_param":{"num_deleted":"0","num_feature":"15","num_nodes":"31","size_leaf_vector":"1"}},{"base_weights":[3.656336E-3,3.1289518E-1,-1.2567261E-1,4.540075E-1,1.3949211E-1,-3.8258603E-1,-2.9627007E-2,8.4094715E-1,3.776191E-1,-6.774316E-2,3.381901E-1,-5.537562E-1,-2.2561681E-1,-1.9905819E-1,4.771055E-2,5.703132E-3,1.1080135E-2,5.2787177E-3,2.6028806E-3,-1.7582236E-3,2.7122216E-3,5.7951687E-3,2.7599295E-3,-4.568952E-3,-8.290239E-3,-2.7082234E-3,3.8875826E-3,-5.1331064E-3,-1.5176692E-3,1.024503E-3,-2.5041944E-3],"categories":[],"categories_nodes":[],"categories_segments":[],"categories_sizes":[],"default_left":[0,0,0,0,0,0,0,0,0,0,0,0,0,0,0,0,0,0,0,0,0,0,0,0,0,0,0,0,0,0,0],"id":27,"left_children":[1,3,5,7,9,11,13,15,17,19,21,23,25,27,29,-1,-1,-1,-1,-1,-1,-1,-1,-1,-1,-1,-1,-1,-1,-1,-1],"loss_changes":[2.5347835E2,4.56698E1,1.1026306E2,3.0126892E1,3.4611786E1,3.2547073E1,4.2647945E1,1.1582939E1,1.50590515E1,1.5141348E1,6.279278E0,1.5112244E1,1.7769016E1,1.5080723E1,3.6499878E1,0E0,0E0,0E0,0E0,0E0,0E0,0E0,0E0,0E0,0E0,0E0,0E0,0E0,0E0,0E0,0E0],"parents":[2147483647,0,0,1,1,2,2,3,3,4,4,5,5,6,6,7,7,8,8,9,9,10,10,11,11,12,12,13,13,14,14],"right_children":[2,4,6,8,10,12,14,16,18,20,22,24,26,28,30,-1,-1,-1,-1,-1,-1,-1,-1,-1,-1,-1,-1,-1,-1,-1,-1],"split_conditions":[-4.1951102E-1,-1.0308558E0,-6.18654E-1,-1.4793692E0,-1.8416315E-1,-4.2960188E-1,-3.2228577E-1,-6.2117577E-2,-8.5223716E-1,3.1740388E-1,-8.3917814E-1,6.2411815E-1,1.5367937E0,-1.0011711E0,1.1496071E0,5.703132E-3,1.1080135E-2,5.2787177E-3,2.6028806E-3,-1.7582236E-3,2.7122216E-3,5.7951687E-3,2.7599295E-3,-4.568952E-3,-8.290239E-3,-2.7082234E-3,3.8875826E-3,-5.1331064E-3,-1.5176692E-3,1.024503E-3,-2.5041944E-3],"split_indices":[2,2,5,6,5,7,11,9,8,7,12,12,11,7,2,0,0,0,0,0,0,0,0,0,0,0,0,0,0,0,0],"split_type":[0,0,0,0,0,0,0,0,0,0,0,0,0,0,0,0,0,0,0,0,0,0,0,0,0,0,0,0,0,0,0],"sum_hessian":[6.336E3,1.868E3,4.468E3,1.029E3,8.39E2,1.215E3,3.253E3,1.68E2,8.61E2,4.11E2,4.28E2,5.8E2,6.35E2,1.019E3,2.234E3,8.5E1,8.3E1,3.76E2,4.85E2,3.12E2,9.9E1,8.6E1,3.42E2,4.31E2,1.49E2,5.92E2,4.3E1,1.32E2,8.87E2,1.888E3,3.46E2],"tree_param":{"num_deleted":"0","num_feature":"15","num_nodes":"31","size_leaf_vector":"1"}},{"base_weights":[-1.2118519E-2,-3.8517118E-1,9.338388E-2,-7.418089E-1,-3.1448928E-1,3.256553E-1,-1.5078364E-2,-3.8895527E-1,-8.551635E-1,-5.629056E-3,-4.0046498E-1,6.2076426E-1,2.2817154E-1,-1.4048335E-1,1.1696411E-1,6.4087957E-3,-5.428714E-3,-1.2804565E-2,-7.465456E-3,2.5475284E-3,-2.3012047E-3,-6.284232E-3,-3.134786E-3,2.8851258E-3,7.264244E-3,8.3034596E-4,3.7002545E-3,-2.0302585E-3,2.348337E-3,2.4130163E-3,-8.882586E-5],"categories":[],"categories_nodes":[],"categories_segments":[],"categories_sizes":[],"default_left":[0,0,0,0,0,0,0,0,0,0,0,0,0,0,0,0,0,0,0,0,0,0,0,0,0,0,0,0,0,0,0],"id":28,"left_children":[1,3,5,7,9,11,13,15,17,19,21,23,25,27,29,-1,-1,-1,-1,-1,-1,-1,-1,-1,-1,-1,-1,-1,-1,-1,-1],"loss_changes":[2.5011638E2,3.508287E1,1.2480945E2,8.906837E0,3.1093033E1,4.5226044E1,5.5952003E1,9.541391E0,7.0819016E0,1.502272E1,1.7966614E1,1.3516769E1,2.4407516E1,4.0726845E1,2.575788E1,0E0,0E0,0E0,0E0,0E0,0E0,0E0,0E0,0E0,0E0,0E0,0E0,0E0,0E0,0E0,0E0],"parents":[2147483647,0,0,1,1,2,2,3,3,4,4,5,5,6,6,7,7,8,8,9,9,10,10,11,11,12,12,13,13,14,14],"right_children":[2,4,6,8,10,12,14,16,18,20,22,24,26,28,30,-1,-1,-1,-1,-1,-1,-1,-1,-1,-1,-1,-1,-1,-1,-1,-1],"split_conditions":[-6.7276174E-1,-1.4194461E0,-5.011402E-1,-6.646987E-1,-7.044928E-1,-9.398526E-1,1E0,-9.708909E-1,-6.2932625E-2,-3.7046266E-1,-1.0535415E0,-3.2228577E-1,1E0,1.1939187E0,2.2236547E-2,6.4087957E-3,-5.428714E-3,-1.2804565E-2,-7.465456E-3,2.5475284E-3,-2.3012047E-3,-6.284232E-3,-3.134786E-3,2.8851258E-3,7.264244E-3,8.3034596E-4,3.7002545E-3,-2.0302585E-3,2.348337E-3,2.4130163E-3,-8.882586E-5],"split_indices":[1,5,6,14,8,8,0,12,3,14,7,11,0,1,8,0,0,0,0,0,0,0,0,0,0,0,0,0,0,0,0],"split_type":[0,0,0,0,0,0,0,0,0,0,0,0,0,0,0,0,0,0,0,0,0,0,0,0,0,0,0,0,0,0,0],"sum_hessian":[6.353E3,1.4E3,4.953E3,2.3E2,1.17E3,1.576E3,3.377E3,5.7E1,1.73E2,2.55E2,9.15E2,3.9E2,1.186E3,1.732E3,1.645E3,7E0,5E1,3.3E1,1.4E2,1.18E2,1.37E2,2.51E2,6.64E2,9.5E1,2.95E2,5.87E2,5.99E2,1.485E3,2.47E2,8.27E2,8.18E2],"tree_param":{"num_deleted":"0","num_feature":"15","num_nodes":"31","size_leaf_vector":"1"}},{"base_weights":[-6.5523298E-3,4.495136E-1,-9.523297E-2,1.4126249E-1,5.7070416E-1,-4.716431E-1,1.4419804E-2,4.0571597E-1,-2.0801246E-2,4.106651E-1,7.562903E-1,-7.3348945E-1,-4.0813687E-1,1.4313576E-1,-1.5018167E-1,-2.8650176E-3,5.5178814E-3,4.653573E-3,-8.710365E-4,8.9789815E-3,3.508284E-3,5.5986363E-3,8.919718E-3,-1.0066707E-2,-5.8308695E-3,-9.410288E-3,-3.7109652E-3,1.447191E-6,2.8184548E-3,-2.982277E-3,7.533059E-5],"categories":[],"categories_nodes":[],"categories_segments":[],"categories_sizes":[],"default_left":[0,0,0,0,0,0,0,0,0,0,0,0,0,0,0,0,0,0,0,0,0,0,0,0,0,0,0,0,0,0,0],"id":29,"left_children":[1,3,5,7,9,11,13,15,17,19,21,23,25,27,29,-1,-1,-1,-1,-1,-1,-1,-1,-1,-1,-1,-1,-1,-1,-1,-1],"loss_changes":[2.5589293E2,3.8397232E1,2.186374E2,1.2523069E1,2.1638474E1,1.9572113E1,8.695107E1,1.1381714E1,5.9070277E0,1.1317589E1,8.58876E0,8.945251E0,1.867871E1,4.5678238E1,4.205387E1,0E0,0E0,0E0,0E0,0E0,0E0,0E0,0E0,0E0,0E0,0E0,0E0,0E0,0E0,0E0,0E0],"parents":[2147483647,0,0,1,1,2,2,3,3,4,4,5,5,6,6,7,7,8,8,9,9,10,10,11,11,12,12,13,13,14,14],"right_children":[2,4,6,8,10,12,14,16,18,20,22,24,26,28,30,-1,-1,-1,-1,-1,-1,-1,-1,-1,-1,-1,-1,-1,-1,-1,-1],"split_conditions":[-1.0308558E0,-4.2888585E-1,-6.5889007E-1,-1.0201488E0,1E0,-1.3042933E0,3.226189E-1,-1.2096155E0,-1.4439852E0,-1.5060066E0,-9.11403E-2,-9.4782543E-1,-1.718019E0,2.8940547E-1,1E0,-2.8650176E-3,5.5178814E-3,4.653573E-3,-8.710365E-4,8.9789815E-3,3.508284E-3,5.5986363E-3,8.919718E-3,-1.0066707E-2,-5.8308695E-3,-9.410288E-3,-3.7109652E-3,1.447191E-6,2.8184548E-3,-2.982277E-3,7.533059E-5],"split_indices":[2,1,1,10,0,5,2,9,8,12,9,9,9,1,0,0,0,0,0,0,0,0,0,0,0,0,0,0,0,0,0],"split_type":[0,0,0,0,0,0,0,0,0,0,0,0,0,0,0,0,0,0,0,0,0,0,0,0,0,0,0,0,0,0,0],"sum_hessian":[6.325E3,1.029E3,5.296E3,2.91E2,7.38E2,1.194E3,4.102E3,1.1E2,1.81E2,3.98E2,3.4E2,2.31E2,9.63E2,2.302E3,1.8E3,1.9E1,9.1E1,2.1E1,1.6E2,4.2E1,3.56E2,1.41E2,1.99E2,8E1,1.51E2,6.1E1,9.02E2,1.134E3,1.168E3,9.28E2,8.72E2],"tree_param":{"num_deleted":"0","num_feature":"15","num_nodes":"31","size_leaf_vector":"1"}},{"base_weights":[-2.6783592E-3,-3.7449163E-1,1.0919319E-1,7.168601E-2,-4.5511898E-1,3.9656216E-1,-8.4359525E-3,3.9470527E-2,9.4462395E-1,-7.748248E-1,-3.6838052E-1,2.5157684E-1,5.548624E-1,-1.44604E-1,1.2563483E-1,-6.0058635E-4,2.9247275E-3,1.5743451E-2,2.5192222E-3,-1.1565846E-2,-6.6227093E-3,-7.4079805E-3,-3.0087628E-3,3.8056504E-3,6.816636E-4,3.7230174E-3,6.471431E-3,-2.3589893E-3,5.193613E-4,-3.8496422E-4,2.4436472E-3],"categories":[],"categories_nodes":[],"categories_segments":[],"categories_sizes":[],"default_left":[0,0,0,0,0,0,0,0,0,0,0,0,0,0,0,0,0,0,0,0,0,0,0,0,0,0,0,0,0,0,0],"id":30,"left_children":[1,3,5,7,9,11,13,15,17,19,21,23,25,27,29,-1,-1,-1,-1,-1,-1,-1,-1,-1,-1,-1,-1,-1,-1,-1,-1],"loss_changes":[2.6454556E2,5.2950516E1,1.6526605E2,6.318313E0,3.426715E1,3.245111E1,6.336703E1,5.532226E0,3.0930586E0,1.0620682E1,2.4464355E1,1.7551796E1,1.1181229E1,3.0910297E1,3.409267E1,0E0,0E0,0E0,0E0,0E0,0E0,0E0,0E0,0E0,0E0,0E0,0E0,0E0,0E0,0E0,0E0],"parents":[2147483647,0,0,1,1,2,2,3,3,4,4,5,5,6,6,7,7,8,8,9,9,10,10,11,11,12,12,13,13,14,14],"right_children":[2,4,6,8,10,12,14,16,18,20,22,24,26,28,30,-1,-1,-1,-1,-1,-1,-1,-1,-1,-1,-1,-1,-1,-1,-1,-1],"split_conditions":[-6.467679E-1,-1.0308558E0,-4.1951102E-1,4.7878128E-1,-1.2102475E0,1E0,1E0,-9.6031827E-1,-8.6247593E-1,-6.2932625E-2,-1.3889782E0,-1.0308558E0,-2.9414942E-2,6.8338406E-1,1.445307E-1,-6.0058635E-4,2.9247275E-3,1.5743451E-2,2.5192222E-3,-1.1565846E-2,-6.6227093E-3,-7.4079805E-3,-3.0087628E-3,3.8056504E-3,6.816636E-4,3.7230174E-3,6.471431E-3,-2.3589893E-3,5.193613E-4,-3.8496422E-4,2.4436472E-3],"split_indices":[1,2,2,5,7,0,0,1,1,3,5,2,1,1,1,0,0,0,0,0,0,0,0,0,0,0,0,0,0,0,0],"split_type":[0,0,0,0,0,0,0,0,0,0,0,0,0,0,0,0,0,0,0,0,0,0,0,0,0,0,0,0,0,0,0],"sum_hessian":[6.358E3,1.47E3,4.888E3,2.25E2,1.245E3,1.419E3,3.469E3,2.18E2,7E0,2.64E2,9.81E2,7.42E2,6.77E2,1.721E3,1.748E3,1.57E2,6.1E1,3E0,4E0,5.8E1,2.06E2,1.49E2,8.32E2,4.35E2,3.07E2,2.29E2,4.48E2,1.175E3,5.46E2,7.34E2,1.014E3],"tree_param":{"num_deleted":"0","num_feature":"15","num_nodes":"31","size_leaf_vector":"1"}},{"base_weights":[-4.819718E-3,4.172217E-1,-9.258597E-2,-6.0067125E-2,4.81554E-1,-3.870003E-1,3.3341233E-2,3.310866E-1,-1.6103908E-1,8.364003E-1,4.0283903E-1,-7.457428E-1,-3.2843086E-1,1.528752E-1,-1.0777139E-1,-2.7389259E-3,6.487924E-3,2.8158462E-4,-3.5820827E-3,1.3058909E-2,7.0786355E-3,2.2354736E-3,5.3142416E-3,-3.4504575E-3,-9.089658E-3,-2.4824515E-3,-6.188365E-3,1.7406791E-4,2.6227138E-3,-1.7697121E-3,2.1505796E-3],"categories":[],"categories_nodes":[],"categories_segments":[],"categories_sizes":[],"default_left":[0,0,0,0,0,0,0,0,0,0,0,0,0,0,0,0,0,0,0,0,0,0,0,0,0,0,0,0,0,0,0],"id":31,"left_children":[1,3,5,7,9,11,13,15,17,19,21,23,25,27,29,-1,-1,-1,-1,-1,-1,-1,-1,-1,-1,-1,-1,-1,-1,-1,-1],"loss_changes":[2.3387842E2,3.340535E1,1.9380275E2,5.1877403E0,2.6421661E1,3.265886E1,6.1786186E1,5.3672457E0,3.889695E0,9.5155945E0,1.8001831E1,1.4009621E1,3.1236404E1,2.9382957E1,3.756881E1,0E0,0E0,0E0,0E0,0E0,0E0,0E0,0E0,0E0,0E0,0E0,0E0,0E0,0E0,0E0,0E0],"parents":[2147483647,0,0,1,1,2,2,3,3,4,4,5,5,6,6,7,7,8,8,9,9,10,10,11,11,12,12,13,13,14,14],"right_children":[2,4,6,8,10,12,14,16,18,20,22,24,26,28,30,-1,-1,-1,-1,-1,-1,-1,-1,-1,-1,-1,-1,-1,-1,-1,-1],"split_conditions":[-9.963165E-1,-1.290927E0,-4.1688517E-1,-1.510314E0,-1.4467666E0,-1.4194461E0,3.0391356E-1,-8.838475E-1,-6.504501E-1,-1.3033812E0,-1.3818657E-2,-4.1792697E-1,8.711056E-1,2.8940547E-1,1.1061896E0,-2.7389259E-3,6.487924E-3,2.8158462E-4,-3.5820827E-3,1.3058909E-2,7.0786355E-3,2.2354736E-3,5.3142416E-3,-3.4504575E-3,-9.089658E-3,-2.4824515E-3,-6.188365E-3,1.7406791E-4,2.6227138E-3,-1.7697121E-3,2.1505796E-3],"split_indices":[2,1,1,6,6,5,2,11,14,10,1,10,2,1,1,0,0,0,0,0,0,0,0,0,0,0,0,0,0,0,0],"split_type":[0,0,0,0,0,0,0,0,0,0,0,0,0,0,0,0,0,0,0,0,0,0,0,0,0,0,0,0,0,0,0],"sum_hessian":[6.312E3,1.086E3,5.226E3,1.29E2,9.57E2,1.565E3,3.661E3,2.6E1,1.03E2,1.72E2,7.85E2,2.18E2,1.347E3,1.982E3,1.679E3,9E0,1.7E1,5.3E1,5E1,3.5E1,1.37E2,3.29E2,4.56E2,6.4E1,1.54E2,1.057E3,2.9E2,8.86E2,1.096E3,1.383E3,2.96E2],"tree_param":{"num_deleted":"0","num_feature":"15","num_nodes":"31","size_leaf_vector":"1"}},{"base_weights":[4.212925E-3,3.4314317E-1,-1.09767675E-1,8.780166E-2,4.9396217E-1,-3.8903987E-1,2.1530438E-2,6.515507E-1,4.1348178E-2,5.85891E-1,3.1217882E-1,-8.3102906E-1,-3.2646188E-1,1.2333216E-1,-1.4670332E-1,6.714101E-4,1.0386704E-2,-6.8033882E-3,7.57009E-4,8.577304E-3,5.236211E-3,2.592433E-3,8.280485E-3,-4.5184344E-3,-9.515304E-3,-6.4776116E-3,-2.595685E-3,8.880488E-4,6.9030845E-3,-2.1141134E-3,1.8242347E-3],"categories":[],"categories_nodes":[],"categories_segments":[],"categories_sizes":[],"default_left":[0,0,0,0,0,0,0,0,0,0,0,0,0,0,0,0,0,0,0,0,0,0,0,0,0,0,0,0,0,0,0],"id":32,"left_children":[1,3,5,7,9,11,13,15,17,19,21,23,25,27,29,-1,-1,-1,-1,-1,-1,-1,-1,-1,-1,-1,-1,-1,-1,-1,-1],"loss_changes":[2.442272E2,6.1226624E1,1.7348428E2,1.547642E1,1.6528214E1,4.157646E1,5.514825E1,1.0110905E1,1.3637471E1,1.0773758E1,9.0153885E0,8.114548E0,2.8352798E1,3.920845E1,2.5893303E1,0E0,0E0,0E0,0E0,0E0,0E0,0E0,0E0,0E0,0E0,0E0,0E0,0E0,0E0,0E0,0E0],"parents":[2147483647,0,0,1,1,2,2,3,3,4,4,5,5,6,6,7,7,8,8,9,9,10,10,11,11,12,12,13,13,14,14],"right_children":[2,4,6,8,10,12,14,16,18,20,22,24,26,28,30,-1,-1,-1,-1,-1,-1,-1,-1,-1,-1,-1,-1,-1,-1,-1,-1],"split_conditions":[-5.6810176E-1,-2.4069588E-1,-3.8682982E-1,-1.7363219E0,-1.0308558E0,-1.4194461E0,5.6260294E-1,-8.437405E-1,-1.7994654E0,-1.3509692E0,1.5578156E0,-4.7164264E-1,-1.2387551E0,1.6701903E0,1.1939187E0,6.714101E-4,1.0386704E-2,-6.8033882E-3,7.57009E-4,8.577304E-3,5.236211E-3,2.592433E-3,8.280485E-3,-4.5184344E-3,-9.515304E-3,-6.4776116E-3,-2.595685E-3,8.880488E-4,6.9030845E-3,-2.1141134E-3,1.8242347E-3],"split_indices":[2,1,1,6,2,5,2,5,5,10,13,10,7,1,1,0,0,0,0,0,0,0,0,0,0,0,0,0,0,0,0],"split_type":[0,0,0,0,0,0,0,0,0,0,0,0,0,0,0,0,0,0,0,0,0,0,0,0,0,0,0,0,0,0,0],"sum_hessian":[6.32E3,1.59E3,4.73E3,5.91E2,9.99E2,1.512E3,3.218E3,4.4E1,5.47E2,6.62E2,3.37E2,1.86E2,1.326E3,2.005E3,1.213E3,1.8E1,2.6E1,2.4E1,5.23E2,1.21E2,5.41E2,3.07E2,3E1,4.6E1,1.4E2,2.27E2,1.099E3,1.891E3,1.14E2,1.014E3,1.99E2],"tree_param":{"num_deleted":"0","num_feature":"15","num_nodes":"31","size_leaf_vector":"1"}},{"base_weights":[-8.7768806E-4,-2.8407577E-1,1.2325175E-1,-7.2520986E-2,-3.964539E-1,3.8399437E-1,1.7175777E-2,1.6601972E-1,-1.8766367E-1,-5.395785E-1,-2.388089E-1,2.7464196E-1,5.8492047E-1,-1.254951E-1,1.6686581E-1,-1.7455403E-3,3.0869034E-3,-5.438813E-3,-9.107783E-4,-8.203283E-3,-4.8650317E-3,-3.7027912E-3,-1.0207252E-3,4.6013296E-3,1.2581148E-3,4.7411085E-3,9.273236E-3,-4.4131256E-3,-6.7108124E-4,-9.508502E-5,2.6925704E-3],"categories":[],"categories_nodes":[],"categories_segments":[],"categories_sizes":[],"default_left":[0,0,0,0,0,0,0,0,0,0,0,0,0,0,0,0,0,0,0,0,0,0,0,0,0,0,0,0,0,0,0],"id":33,"left_children":[1,3,5,7,9,11,13,15,17,19,21,23,25,27,29,-1,-1,-1,-1,-1,-1,-1,-1,-1,-1,-1,-1,-1,-1,-1,-1],"loss_changes":[2.2171121E2,4.566513E1,1.2127604E2,1.837859E1,2.8187546E1,2.769954E1,6.661023E1,1.0646473E1,1.546738E1,9.390793E0,1.0730286E1,2.2662434E1,1.6482285E1,2.9418474E1,2.7488628E1,0E0,0E0,0E0,0E0,0E0,0E0,0E0,0E0,0E0,0E0,0E0,0E0,0E0,0E0,0E0,0E0],"parents":[2147483647,0,0,1,1,2,2,3,3,4,4,5,5,6,6,7,7,8,8,9,9,10,10,11,11,12,12,13,13,14,14],"right_children":[2,4,6,8,10,12,14,16,18,20,22,24,26,28,30,-1,-1,-1,-1,-1,-1,-1,-1,-1,-1,-1,-1,-1,-1,-1,-1],"split_conditions":[-3.8682982E-1,-3.8083118E-1,-5.8915216E-1,-6.52463E-1,-1.0296988E0,7.0166093E-1,1E0,-9.964318E-1,-1.151619E0,-1.4431971E0,1E0,-2.9823443E-1,8.5985017E-1,-6.6577774E-1,1.445307E-1,-1.7455403E-3,3.0869034E-3,-5.438813E-3,-9.107783E-4,-8.203283E-3,-4.8650317E-3,-3.7027912E-3,-1.0207252E-3,4.6013296E-3,1.2581148E-3,4.7411085E-3,9.273236E-3,-4.4131256E-3,-6.7108124E-4,-9.508502E-5,2.6925704E-3],"split_indices":[1,14,6,8,1,1,0,9,7,7,0,14,13,7,1,0,0,0,0,0,0,0,0,0,0,0,0,0,0,0,0],"split_type":[0,0,0,0,0,0,0,0,0,0,0,0,0,0,0,0,0,0,0,0,0,0,0,0,0,0,0,0,0,0,0],"sum_hessian":[6.305E3,1.921E3,4.384E3,6.67E2,1.254E3,1.267E3,3.117E3,2.17E2,4.5E2,6.56E2,5.98E2,8.22E2,4.45E2,1.596E3,1.521E3,6.4E1,1.53E2,9.5E1,3.55E2,1.02E2,5.54E2,3.04E2,2.94E2,3.65E2,4.57E2,3.38E2,1.07E2,2.48E2,1.348E3,5.59E2,9.62E2],"tree_param":{"num_deleted":"0","num_feature":"15","num_nodes":"31","size_leaf_vector":"1"}},{"base_weights":[9.401684E-3,3.558286E-1,-9.443512E-2,8.889745E-2,4.9226636E-1,-3.661045E-1,3.1834543E-2,-1.3691048E-1,2.1662012E-1,8.11157E-1,4.1438448E-1,-7.92171E-1,-3.0740294E-1,1.7058901E-1,-1.1723097E-1,-2.4825057E-3,1.787024E-3,6.2045325E-3,1.3223846E-3,5.8865696E-3,1.0250277E-2,5.465986E-3,2.5424561E-3,-5.4729073E-3,-9.904151E-3,-4.4089844E-3,-1.7024429E-3,6.258051E-4,3.4386702E-3,-2.5833726E-3,2.5807432E-4],"categories":[],"categories_nodes":[],"categories_segments":[],"categories_sizes":[],"default_left":[0,0,0,0,0,0,0,0,0,0,0,0,0,0,0,0,0,0,0,0,0,0,0,0,0,0,0,0,0,0,0],"id":34,"left_children":[1,3,5,7,9,11,13,15,17,19,21,23,25,27,29,-1,-1,-1,-1,-1,-1,-1,-1,-1,-1,-1,-1,-1,-1,-1,-1],"loss_changes":[2.2586496E2,5.269165E1,1.6573238E2,1.4190486E1,2.3456573E1,3.8097992E1,6.825488E1,6.29935E0,1.061785E1,8.295235E0,1.6206284E1,8.438972E0,2.4625214E1,3.196326E1,3.2118805E1,0E0,0E0,0E0,0E0,0E0,0E0,0E0,0E0,0E0,0E0,0E0,0E0,0E0,0E0,0E0,0E0],"parents":[2147483647,0,0,1,1,2,2,3,3,4,4,5,5,6,6,7,7,8,8,9,9,10,10,11,11,12,12,13,13,14,14],"right_children":[2,4,6,8,10,12,14,16,18,20,22,24,26,28,30,-1,-1,-1,-1,-1,-1,-1,-1,-1,-1,-1,-1,-1,-1,-1,-1],"split_conditions":[-6.4742464E-1,-3.0421346E-1,-3.8682982E-1,-1.290927E0,-1.3275747E0,-1.4194461E0,3.226189E-1,-3.6312518E-1,-1.3275747E0,1E0,-4.1792697E-1,7.4422755E-3,1E0,6.6294485E-1,1E0,-2.4825057E-3,1.787024E-3,6.2045325E-3,1.3223846E-3,5.8865696E-3,1.0250277E-2,5.465986E-3,2.5424561E-3,-5.4729073E-3,-9.904151E-3,-4.4089844E-3,-1.7024429E-3,6.258051E-4,3.4386702E-3,-2.5833726E-3,2.5807432E-4],"split_indices":[2,1,1,1,6,5,2,7,6,0,10,10,0,1,0,0,0,0,0,0,0,0,0,0,0,0,0,0,0,0,0],"split_type":[0,0,0,0,0,0,0,0,0,0,0,0,0,0,0,0,0,0,0,0,0,0,0,0,0,0,0,0,0,0,0],"sum_hessian":[6.277E3,1.447E3,4.83E3,4.9E2,9.57E2,1.532E3,3.298E3,1.77E2,3.13E2,1.86E2,7.71E2,1.84E2,1.348E3,1.708E3,1.59E3,1.31E2,4.6E1,5.3E1,2.6E2,9.3E1,9.3E1,4.21E2,3.5E2,8.4E1,1E2,6.82E2,6.66E2,1.053E3,6.55E2,8E2,7.9E2],"tree_param":{"num_deleted":"0","num_feature":"15","num_nodes":"31","size_leaf_vector":"1"}},{"base_weights":[-8.323421E-3,2.9464477E-1,-1.3270715E-1,-1.8634221E-1,3.840284E-1,-4.188508E-1,-7.397693E-3,-9.2195636E-1,-1.5698725E-1,5.1435983E-1,2.2168264E-1,-7.711295E-1,-3.5276023E-1,-1.4835495E-1,1.3875799E-1,-9.9599995E-3,-9.0760074E-4,-4.7995156E-4,-3.518345E-3,2.8131746E-3,5.895987E-3,9.810252E-4,3.5149837E-3,-8.913691E-3,-2.1678512E-3,-4.4375677E-3,-2.0915915E-3,-8.44609E-4,-3.8653049E-3,1.067641E-3,6.2663546E-3],"categories":[],"categories_nodes":[],"categories_segments":[],"categories_sizes":[],"default_left":[0,0,0,0,0,0,0,0,0,0,0,0,0,0,0,0,0,0,0,0,0,0,0,0,0,0,0,0,0,0,0],"id":35,"left_children":[1,3,5,7,9,11,13,15,17,19,21,23,25,27,29,-1,-1,-1,-1,-1,-1,-1,-1,-1,-1,-1,-1,-1,-1,-1,-1],"loss_changes":[2.4069112E2,7.9994385E1,1.6235518E2,6.1606884E0,3.306288E1,3.1834259E1,6.491595E1,5.8659554E-1,5.9718947E0,1.507103E1,1.1195362E1,1.4270721E1,1.510434E1,2.4377022E1,2.4080372E1,0E0,0E0,0E0,0E0,0E0,0E0,0E0,0E0,0E0,0E0,0E0,0E0,0E0,0E0,0E0,0E0],"parents":[2147483647,0,0,1,1,2,2,3,3,4,4,5,5,6,6,7,7,8,8,9,9,10,10,11,11,12,12,13,13,14,14],"right_children":[2,4,6,8,10,12,14,16,18,20,22,24,26,28,30,-1,-1,-1,-1,-1,-1,-1,-1,-1,-1,-1,-1,-1,-1,-1,-1],"split_conditions":[-4.1951102E-1,-9.6031827E-1,-4.1688517E-1,-1.89759E0,-1.0308558E0,-1.2790685E0,1E0,-7.030332E-1,-3.2884008E-1,-2.4069588E-1,2.1732317E-1,-8.0856836E-1,-2.5400165E-1,1.00696E0,1.5795878E0,-9.9599995E-3,-9.0760074E-4,-4.7995156E-4,-3.518345E-3,2.8131746E-3,5.895987E-3,9.810252E-4,3.5149837E-3,-8.913691E-3,-2.1678512E-3,-4.4375677E-3,-2.0915915E-3,-8.44609E-4,-3.8653049E-3,1.067641E-3,6.2663546E-3],"split_indices":[2,1,1,11,2,7,0,2,8,1,1,1,9,2,1,0,0,0,0,0,0,0,0,0,0,0,0,0,0,0,0],"split_type":[0,0,0,0,0,0,0,0,0,0,0,0,0,0,0,0,0,0,0,0,0,0,0,0,0,0,0,0,0,0,0],"sum_hessian":[6.385E3,1.858E3,4.527E3,2.91E2,1.567E3,1.378E3,3.149E3,1E1,2.81E2,8.68E2,6.99E2,2.16E2,1.162E3,1.603E3,1.546E3,9E0,1E0,1.81E2,1E2,2.13E2,6.55E2,3.59E2,3.4E2,1.77E2,3.9E1,7.1E2,4.52E2,1.265E3,3.38E2,1.452E3,9.4E1],"tree_param":{"num_deleted":"0","num_feature":"15","num_nodes":"31","size_leaf_vector":"1"}},{"base_weights":[5.4125083E-3,2.0447055E-1,-1.5948513E-1,4.037229E-1,9.198828E-2,-3.474461E-1,-4.8222523E-2,2.2198689E-1,5.7153434E-1,-7.8454636E-2,2.0067379E-1,-5.083794E-1,-1.8697079E-1,-2.3172675E-1,3.305646E-2,3.70625E-3,7.5996335E-4,9.165747E-3,4.8871166E-3,-5.7916227E-3,-3.6736543E-4,6.88554E-4,3.3331225E-3,-3.6214783E-3,-7.0398995E-3,-2.5899475E-3,2.8587154E-3,-6.67517E-3,-1.9847816E-3,1.036012E-3,-1.7941393E-3],"categories":[],"categories_nodes":[],"categories_segments":[],"categories_sizes":[],"default_left":[0,0,0,0,0,0,0,0,0,0,0,0,0,0,0,0,0,0,0,0,0,0,0,0,0,0,0,0,0,0,0],"id":36,"left_children":[1,3,5,7,9,11,13,15,17,19,21,23,25,27,29,-1,-1,-1,-1,-1,-1,-1,-1,-1,-1,-1,-1,-1,-1,-1,-1],"loss_changes":[2.0807239E2,6.433115E1,7.2488716E1,3.1468414E1,3.404557E1,3.3194443E1,3.2507526E1,1.0800013E1,1.4926575E1,1.4934939E1,1.959431E1,1.8137695E1,2.2108257E1,9.560928E0,2.2666466E1,0E0,0E0,0E0,0E0,0E0,0E0,0E0,0E0,0E0,0E0,0E0,0E0,0E0,0E0,0E0,0E0],"parents":[2147483647,0,0,1,1,2,2,3,3,4,4,5,5,6,6,7,7,8,8,9,9,10,10,11,11,12,12,13,13,14,14],"right_children":[2,4,6,8,10,12,14,16,18,20,22,24,26,28,30,-1,-1,-1,-1,-1,-1,-1,-1,-1,-1,-1,-1,-1,-1,-1,-1],"split_conditions":[-5.1905036E-2,-1.0308558E0,-3.6105913E-1,-1.1304285E-1,-2.4096833E-1,1E0,-3.146973E-1,-8.0524606E-1,-1.3315536E0,-1.4830617E0,1E0,7.624221E-1,7.521464E-1,-1.5376278E0,1.022398E0,3.70625E-3,7.5996335E-4,9.165747E-3,4.8871166E-3,-5.7916227E-3,-3.6736543E-4,6.88554E-4,3.3331225E-3,-3.6214783E-3,-7.0398995E-3,-2.5899475E-3,2.8587154E-3,-6.67517E-3,-1.9847816E-3,1.036012E-3,-1.7941393E-3],"split_indices":[2,2,5,9,11,0,11,6,10,5,0,2,11,11,2,0,0,0,0,0,0,0,0,0,0,0,0,0,0,0,0],"split_type":[0,0,0,0,0,0,0,0,0,0,0,0,0,0,0,0,0,0,0,0,0,0,0,0,0,0,0,0,0,0,0],"sum_hessian":[6.337E3,2.871E3,3.466E3,1.035E3,1.836E3,1.288E3,2.178E3,4.98E2,5.37E2,7.15E2,1.121E3,6.42E2,6.46E2,6.68E2,1.51E3,2.46E2,2.52E2,1.02E2,4.35E2,5.4E1,6.61E2,5.63E2,5.58E2,3.69E2,2.73E2,5.61E2,8.5E1,4.6E1,6.22E2,1.134E3,3.76E2],"tree_param":{"num_deleted":"0","num_feature":"15","num_nodes":"31","size_leaf_vector":"1"}},{"base_weights":[5.4440894E-3,2.3602588E-1,-8.0090724E-2,-1.437338E-1,3.1786355E-1,-2.4881321E-1,3.2659523E-2,-4.5248765E-1,1.3922484E-1,5.037053E-1,1.2630694E-1,-4.660195E-1,-1.5091193E-1,-7.81414E-2,1.4109825E-1,-6.0267025E-3,-1.888669E-5,2.515988E-3,-9.019124E-3,3.5828794E-3,7.125463E-3,5.732695E-4,4.660878E-3,-1.5804571E-3,-5.7234284E-3,-1.827342E-3,4.545646E-3,7.121808E-4,-1.7100831E-3,2.7552515E-4,2.8443297E-3],"categories":[],"categories_nodes":[],"categories_segments":[],"categories_sizes":[],"default_left":[0,0,0,0,0,0,0,0,0,0,0,0,0,0,0,0,0,0,0,0,0,0,0,0,0,0,0,0,0,0,0],"id":37,"left_children":[1,3,5,7,9,11,13,15,17,19,21,23,25,27,29,-1,-1,-1,-1,-1,-1,-1,-1,-1,-1,-1,-1,-1,-1,-1,-1],"loss_changes":[1.2675742E2,5.409146E1,8.919031E1,2.705865E1,5.087886E1,3.986492E1,3.3785503E1,1.0014339E1,1.9180386E1,2.1792679E1,1.6520561E1,1.8999763E1,2.5053938E1,1.9306122E1,2.3119001E1,0E0,0E0,0E0,0E0,0E0,0E0,0E0,0E0,0E0,0E0,0E0,0E0,0E0,0E0,0E0,0E0],"parents":[2147483647,0,0,1,1,2,2,3,3,4,4,5,5,6,6,7,7,8,8,9,9,10,10,11,11,12,12,13,13,14,14],"right_children":[2,4,6,8,10,12,14,16,18,20,22,24,26,28,30,-1,-1,-1,-1,-1,-1,-1,-1,-1,-1,-1,-1,-1,-1,-1,-1],"split_conditions":[-6.168295E-1,-8.807033E-1,-3.271709E-1,-4.1708758E-1,-3.9605615E-1,-6.94997E-1,1E0,1.3650694E-1,9.3393356E-1,8.5356325E-2,9.6506226E-1,-3.9309636E-1,1.664832E0,-2.4716845E-1,1.3714604E-1,-6.0267025E-3,-1.888669E-5,2.515988E-3,-9.019124E-3,3.5828794E-3,7.125463E-3,5.732695E-4,4.660878E-3,-1.5804571E-3,-5.7234284E-3,-1.827342E-3,4.545646E-3,7.121808E-4,-1.7100831E-3,2.7552515E-4,2.8443297E-3],"split_indices":[6,7,5,11,8,7,0,13,10,9,7,12,9,8,9,0,0,0,0,0,0,0,0,0,0,0,0,0,0,0,0],"split_type":[0,0,0,0,0,0,0,0,0,0,0,0,0,0,0,0,0,0,0,0,0,0,0,0,0,0,0,0,0,0,0],"sum_hessian":[6.425E3,1.738E3,4.687E3,3.08E2,1.43E3,1.877E3,2.81E3,1.47E2,1.61E2,7.25E2,7.05E2,5.82E2,1.295E3,1.39E3,1.42E3,1.1E2,3.7E1,1.46E2,1.5E1,4.29E2,2.96E2,5.87E2,1.18E2,1.5E2,4.32E2,1.231E3,6.4E1,5.33E2,8.57E2,7.93E2,6.27E2],"tree_param":{"num_deleted":"0","num_feature":"15","num_nodes":"31","size_leaf_vector":"1"}},{"base_weights":[-1.8702266E-3,2.9109526E-1,-1.2793857E-1,5.9836157E-2,4.2393336E-1,-4.406024E-1,-3.164653E-2,1.8057589E-1,-1.4873374E-1,5.5744725E-1,2.704575E-1,-6.3127875E-1,-3.3420247E-1,-1.7597383E-1,1.13729276E-1,-6.661786E-4,2.913817E-3,-3.4604175E-3,5.760954E-5,7.992627E-3,4.418919E-3,-3.1566464E-3,2.982804E-3,-7.782717E-3,-4.4099945E-3,-4.467696E-3,-2.2396322E-3,-6.102251E-3,-1.2649852E-3,-7.189377E-5,2.4865007E-3],"categories":[],"categories_nodes":[],"categories_segments":[],"categories_sizes":[],"default_left":[0,0,0,0,0,0,0,0,0,0,0,0,0,0,0,0,0,0,0,0,0,0,0,0,0,0,0,0,0,0,0],"id":38,"left_children":[1,3,5,7,9,11,13,15,17,19,21,23,25,27,29,-1,-1,-1,-1,-1,-1,-1,-1,-1,-1,-1,-1,-1,-1,-1,-1],"loss_changes":[2.3312566E2,5.831195E1,1.3284842E2,1.7503633E1,2.456157E1,2.086818E1,7.0833244E1,1.2071235E1,7.77517E0,1.764215E1,9.275345E0,1.0033554E1,8.201775E0,3.631793E1,2.744268E1,0E0,0E0,0E0,0E0,0E0,0E0,0E0,0E0,0E0,0E0,0E0,0E0,0E0,0E0,0E0,0E0],"parents":[2147483647,0,0,1,1,2,2,3,3,4,4,5,5,6,6,7,7,8,8,9,9,10,10,11,11,12,12,13,13,14,14],"right_children":[2,4,6,8,10,12,14,16,18,20,22,24,26,28,30,-1,-1,-1,-1,-1,-1,-1,-1,-1,-1,-1,-1,-1,-1,-1,-1],"split_conditions":[-4.0028635E-1,-2.3291443E-1,-6.5889007E-1,-8.403067E-1,-4.3727615E-1,-9.555125E-1,1E0,-1.290927E0,-6.0423905E-1,-8.0406374E-1,-9.555125E-1,-4.3607542E-1,1E0,-9.044301E-1,3.6598384E-1,-6.661786E-4,2.913817E-3,-3.4604175E-3,5.760954E-5,7.992627E-3,4.418919E-3,-3.1566464E-3,2.982804E-3,-7.782717E-3,-4.4099945E-3,-4.467696E-3,-2.2396322E-3,-6.102251E-3,-1.2649852E-3,-7.189377E-5,2.4865007E-3],"split_indices":[2,1,1,2,10,7,0,1,7,14,7,9,0,5,1,0,0,0,0,0,0,0,0,0,0,0,0,0,0,0,0],"split_type":[0,0,0,0,0,0,0,0,0,0,0,0,0,0,0,0,0,0,0,0,0,0,0,0,0,0,0,0,0,0,0],"sum_hessian":[6.31E3,1.898E3,4.412E3,6.93E2,1.205E3,1.038E3,3.374E3,4.39E2,2.54E2,6.43E2,5.62E2,3.7E2,6.68E2,1.693E3,1.681E3,1.36E2,3.03E2,1.11E2,1.43E2,2.06E2,4.37E2,2.5E1,5.37E2,2.07E2,1.63E2,3.29E2,3.39E2,1.72E2,1.521E3,8.87E2,7.94E2],"tree_param":{"num_deleted":"0","num_feature":"15","num_nodes":"31","size_leaf_vector":"1"}},{"base_weights":[5.949469E-3,1.7161064E-1,-1.8424357E-1,3.9807767E-1,7.237941E-2,-3.8477266E-1,-6.686156E-2,6.867323E-1,3.2507652E-1,-1.7428893E-1,1.4187138E-1,-4.864862E-1,-1.7155588E-1,-2.5821415E-1,1.6981764E-3,4.935259E-3,9.351774E-3,1.7105268E-3,4.871642E-3,-9.611834E-3,-1.1314198E-3,-1.9727834E-4,1.822294E-3,-2.1330828E-3,-5.5476627E-3,-3.9437573E-4,-4.936933E-3,2.037907E-3,-3.0791485E-3,2.4812007E-3,-6.19548E-4],"categories":[],"categories_nodes":[],"categories_segments":[],"categories_sizes":[],"default_left":[0,0,0,0,0,0,0,0,0,0,0,0,0,0,0,0,0,0,0,0,0,0,0,0,0,0,0,0,0,0,0],"id":39,"left_children":[1,3,5,7,9,11,13,15,17,19,21,23,25,27,29,-1,-1,-1,-1,-1,-1,-1,-1,-1,-1,-1,-1,-1,-1,-1,-1],"loss_changes":[1.9837196E2,7.559149E1,6.896564E1,2.1375687E1,4.0152897E1,2.3381912E1,2.427074E1,9.426704E0,2.0388275E1,2.4671085E1,1.1918972E1,1.3535385E1,1.4919177E1,1.1268196E1,2.1394693E1,0E0,0E0,0E0,0E0,0E0,0E0,0E0,0E0,0E0,0E0,0E0,0E0,0E0,0E0,0E0,0E0],"parents":[2147483647,0,0,1,1,2,2,3,3,4,4,5,5,6,6,7,7,8,8,9,9,10,10,11,11,12,12,13,13,14,14],"right_children":[2,4,6,8,10,12,14,16,18,20,22,24,26,28,30,-1,-1,-1,-1,-1,-1,-1,-1,-1,-1,-1,-1,-1,-1,-1,-1],"split_conditions":[1.0979178E-1,-1.0308558E0,-3.9055827E-1,-1.310131E0,-7.3686713E-1,1.2908381E-1,-4.894049E-1,5.3497236E-2,-9.11403E-2,-1.577974E0,-6.6577774E-1,-6.274534E-2,1.0393063E0,-8.011402E-1,-3.512706E-1,4.935259E-3,9.351774E-3,1.7105268E-3,4.871642E-3,-9.611834E-3,-1.1314198E-3,-1.9727834E-4,1.822294E-3,-2.1330828E-3,-5.5476627E-3,-3.9437573E-4,-4.936933E-3,2.037907E-3,-3.0791485E-3,2.4812007E-3,-6.19548E-4],"split_indices":[2,2,5,8,5,9,7,7,9,7,7,4,2,8,8,0,0,0,0,0,0,0,0,0,0,0,0,0,0,0,0],"split_type":[0,0,0,0,0,0,0,0,0,0,0,0,0,0,0,0,0,0,0,0,0,0,0,0,0,0,0,0,0,0,0],"sum_hessian":[6.294E3,3.364E3,2.93E3,1.024E3,2.34E3,1.081E3,1.849E3,2.05E2,8.19E2,5.14E2,1.826E3,7.31E2,3.5E2,4.87E2,1.362E3,1.17E2,8.8E1,4.21E2,3.98E2,3.6E1,4.78E2,3.65E2,1.461E3,1.47E2,5.84E2,2.49E2,1.01E2,4.7E1,4.4E2,2.79E2,1.083E3],"tree_param":{"num_deleted":"0","num_feature":"15","num_nodes":"31","size_leaf_vector":"1"}},{"base_weights":[-4.2623943E-3,2.8938812E-1,-1.2938437E-1,3.1466562E-2,4.0347874E-1,-3.921809E-1,-1.0414042E-2,2.8294152E-1,-6.37914E-2,5.130515E-1,2.5021827E-1,-7.6448435E-1,-3.3247283E-1,1.0896334E-1,-1.5969323E-1,-1.0358426E-3,4.371119E-3,-2.5880893E-4,-5.1678442E-3,5.986712E-3,3.2462073E-3,1.1411133E-3,3.7199985E-3,-1.2546724E-2,-6.8407143E-3,-2.0184407E-3,-4.263945E-3,-1.1949279E-4,2.2359765E-3,-4.585028E-3,-8.6734485E-4],"categories":[],"categories_nodes":[],"categories_segments":[],"categories_sizes":[],"default_left":[0,0,0,0,0,0,0,0,0,0,0,0,0,0,0,0,0,0,0,0,0,0,0,0,0,0,0,0,0,0,0],"id":40,"left_children":[1,3,5,7,9,11,13,15,17,19,21,23,25,27,29,-1,-1,-1,-1,-1,-1,-1,-1,-1,-1,-1,-1,-1,-1,-1,-1],"loss_changes":[2.3573824E2,5.639775E1,1.4065709E2,1.4127541E1,2.2189774E1,3.0911621E1,5.5225494E1,9.698995E0,7.3367534E0,1.2292892E1,9.173431E0,6.7492905E0,1.4759262E1,2.3870853E1,2.9979893E1,0E0,0E0,0E0,0E0,0E0,0E0,0E0,0E0,0E0,0E0,0E0,0E0,0E0,0E0,0E0,0E0],"parents":[2147483647,0,0,1,1,2,2,3,3,4,4,5,5,6,6,7,7,8,8,9,9,10,10,11,11,12,12,13,13,14,14],"right_children":[2,4,6,8,10,12,14,16,18,20,22,24,26,28,30,-1,-1,-1,-1,-1,-1,-1,-1,-1,-1,-1,-1,-1,-1,-1,-1],"split_conditions":[-4.1951102E-1,-3.8682982E-1,-3.8682982E-1,-1.0201488E0,-9.963165E-1,-1.4194461E0,4.8618487E-1,-9.964318E-1,6.656183E-1,-2.5189364E-1,1.1245946E-1,-1.4282249E0,2.345621E-1,3.780804E-1,-5.477543E-1,-1.0358426E-3,4.371119E-3,-2.5880893E-4,-5.1678442E-3,5.986712E-3,3.2462073E-3,1.1411133E-3,3.7199985E-3,-1.2546724E-2,-6.8407143E-3,-2.0184407E-3,-4.263945E-3,-1.1949279E-4,2.2359765E-3,-4.585028E-3,-8.6734485E-4],"split_indices":[2,1,1,10,2,5,2,9,12,10,11,9,2,1,5,0,0,0,0,0,0,0,0,0,0,0,0,0,0,0,0],"split_type":[0,0,0,0,0,0,0,0,0,0,0,0,0,0,0,0,0,0,0,0,0,0,0,0,0,0,0,0,0,0,0],"sum_hessian":[6.414E3,1.916E3,4.498E3,5.88E2,1.328E3,1.401E3,3.097E3,1.61E2,4.27E2,7.73E2,5.55E2,1.92E2,1.209E3,1.721E3,1.376E3,4.6E1,1.15E2,3.95E2,3.2E1,5.3E2,2.43E2,2.63E2,2.92E2,2.5E1,1.67E2,5.07E2,7.02E2,8.38E2,8.83E2,2.69E2,1.107E3],"tree_param":{"num_deleted":"0","num_feature":"15","num_nodes":"31","size_leaf_vector":"1"}},{"base_weights":[2.7144E-3,4.0152138E-1,-8.0915466E-2,2.1667941E-1,5.1815933E-1,-3.5525927E-1,4.1078955E-2,7.2291456E-2,3.6619917E-1,7.994399E-1,4.5060992E-1,-4.8336068E-1,-2.0990306E-1,1.4048542E-1,-1.2915191E-1,3.996233E-3,-1.1812092E-4,7.0525007E-3,2.4214115E-3,3.3536174E-3,9.293697E-3,7.328891E-3,3.7412373E-3,-3.1075291E-3,-6.07459E-3,-5.299844E-4,-3.1484794E-3,3.6811523E-4,2.839629E-3,-2.613462E-3,3.242798E-6],"categories":[],"categories_nodes":[],"categories_segments":[],"categories_sizes":[],"default_left":[0,0,0,0,0,0,0,0,0,0,0,0,0,0,0,0,0,0,0,0,0,0,0,0,0,0,0,0,0,0,0],"id":41,"left_children":[1,3,5,7,9,11,13,15,17,19,21,23,25,27,29,-1,-1,-1,-1,-1,-1,-1,-1,-1,-1,-1,-1,-1,-1,-1,-1],"loss_changes":[2.1298613E2,2.375418E1,1.7669434E2,9.256733E0,1.2522003E1,3.01566E1,6.1868225E1,6.0612698E0,8.704309E0,7.5270157E0,1.1578972E1,1.8296982E1,1.2547127E1,3.4320747E1,2.3072475E1,0E0,0E0,0E0,0E0,0E0,0E0,0E0,0E0,0E0,0E0,0E0,0E0,0E0,0E0,0E0,0E0],"parents":[2147483647,0,0,1,1,2,2,3,3,4,4,5,5,6,6,7,7,8,8,9,9,10,10,11,11,12,12,13,13,14,14],"right_children":[2,4,6,8,10,12,14,16,18,20,22,24,26,28,30,-1,-1,-1,-1,-1,-1,-1,-1,-1,-1,-1,-1,-1,-1,-1,-1],"split_conditions":[-9.1156894E-1,-3.0827624E-1,-3.8682982E-1,-3.2238683E-1,-1.3879015E0,-1.0296988E0,5.102424E-1,-6.274534E-2,-1.3016875E0,-1.2204387E0,-1.2832719E0,8.642945E-2,-1.11341335E-1,5.4740393E-1,1E0,3.996233E-3,-1.1812092E-4,7.0525007E-3,2.4214115E-3,3.3536174E-3,9.293697E-3,7.328891E-3,3.7412373E-3,-3.1075291E-3,-6.07459E-3,-5.299844E-4,-3.1484794E-3,3.6811523E-4,2.839629E-3,-2.613462E-3,3.242798E-6],"split_indices":[2,9,1,1,6,1,2,4,6,12,8,2,14,1,0,0,0,0,0,0,0,0,0,0,0,0,0,0,0,0,0],"split_type":[0,0,0,0,0,0,0,0,0,0,0,0,0,0,0,0,0,0,0,0,0,0,0,0,0,0,0,0,0,0,0],"sum_hessian":[6.384E3,1.106E3,5.278E3,4.29E2,6.77E2,1.624E3,3.654E3,2.19E2,2.1E2,1.29E2,5.48E2,8.62E2,7.62E2,2.307E3,1.347E3,4.4E1,1.75E2,5.5E1,1.55E2,2.9E1,1E2,1.15E2,4.33E2,3.62E2,5E2,3.06E2,4.56E2,1.34E3,9.67E2,6.66E2,6.81E2],"tree_param":{"num_deleted":"0","num_feature":"15","num_nodes":"31","size_leaf_vector":"1"}},{"base_weights":[3.20294E-3,-3.0900878E-1,9.583933E-2,-1.4514521E-1,-4.2054868E-1,-4.5937948E-2,2.3932469E-1,-3.424728E-1,1.4609E-2,-7.269414E-1,-3.6919174E-1,1.21133484E-1,-1.6305226E-1,5.5130845E-1,1.63792E-1,2.6411281E-3,-4.3940786E-3,1.140005E-3,-3.095712E-3,-3.0402683E-3,-9.346911E-3,-6.040124E-3,-3.1454063E-3,2.199637E-3,-1.211599E-3,-6.3812886E-3,-1.3112066E-3,6.012883E-3,-1.5782913E-3,4.543859E-3,1.0727145E-3],"categories":[],"categories_nodes":[],"categories_segments":[],"categories_sizes":[],"default_left":[0,0,0,0,0,0,0,0,0,0,0,0,0,0,0,0,0,0,0,0,0,0,0,0,0,0,0,0,0,0,0],"id":42,"left_children":[1,3,5,7,9,11,13,15,17,19,21,23,25,27,29,-1,-1,-1,-1,-1,-1,-1,-1,-1,-1,-1,-1,-1,-1,-1,-1],"loss_changes":[1.8365643E2,2.6495926E1,9.963049E1,1.860411E1,1.3326996E1,4.823149E1,5.726686E1,1.5639099E1,1.057148E1,1.0522652E1,9.332245E0,2.435569E1,2.1897587E1,1.68947E1,3.215976E1,0E0,0E0,0E0,0E0,0E0,0E0,0E0,0E0,0E0,0E0,0E0,0E0,0E0,0E0,0E0,0E0],"parents":[2147483647,0,0,1,1,2,2,3,3,4,4,5,5,6,6,7,7,8,8,9,9,10,10,11,11,12,12,13,13,14,14],"right_children":[2,4,6,8,10,12,14,16,18,20,22,24,26,28,30,-1,-1,-1,-1,-1,-1,-1,-1,-1,-1,-1,-1,-1,-1,-1,-1],"split_conditions":[-6.306518E-1,-2.9308808E-1,1E0,-7.911379E-1,-1.4830617E0,-3.0494988E-1,-7.846731E-1,-1.2496036E0,5.129964E-1,-1.7440193E0,-1.2790685E0,2.5132963E-1,-1.0524887E0,1.0443449E0,-7.7927154E-1,2.6411281E-3,-4.3940786E-3,1.140005E-3,-3.095712E-3,-3.0402683E-3,-9.346911E-3,-6.040124E-3,-3.1454063E-3,2.199637E-3,-1.211599E-3,-6.3812886E-3,-1.3112066E-3,6.012883E-3,-1.5782913E-3,4.543859E-3,1.0727145E-3],"split_indices":[1,10,0,7,5,8,6,6,6,1,7,10,5,10,8,0,0,0,0,0,0,0,0,0,0,0,0,0,0,0,0],"split_type":[0,0,0,0,0,0,0,0,0,0,0,0,0,0,0,0,0,0,0,0,0,0,0,0,0,0,0,0,0,0,0],"sum_hessian":[6.348E3,1.452E3,4.896E3,5.89E2,8.63E2,2.463E3,2.433E3,2.63E2,3.26E2,1.22E2,7.41E2,1.015E3,1.448E3,4.73E2,1.96E3,3.6E1,2.27E2,2.5E2,7.6E1,4.1E1,8.1E1,1.38E2,6.03E2,7.21E2,2.94E2,9E1,1.358E3,4.42E2,3.1E1,3.18E2,1.642E3],"tree_param":{"num_deleted":"0","num_feature":"15","num_nodes":"31","size_leaf_vector":"1"}},{"base_weights":[6.2435507E-3,-2.5791633E-1,1.3333145E-1,1.512466E-1,-3.15347E-1,3.6355025E-1,3.089742E-2,-1.0727007E-2,4.162527E-1,-7.34865E-1,-2.6208588E-1,6.0335666E-1,2.766941E-1,-9.0096384E-2,1.5377098E-1,3.1565179E-3,-1.560164E-3,7.761302E-4,6.3678194E-3,-5.0060153E-3,-9.113087E-3,-1.9956634E-3,-4.740681E-3,-2.919404E-3,6.2528113E-3,1.0888267E-3,4.318949E-3,-4.2554215E-3,-4.210636E-4,6.057691E-4,3.5012157E-3],"categories":[],"categories_nodes":[],"categories_segments":[],"categories_sizes":[],"default_left":[0,0,0,0,0,0,0,0,0,0,0,0,0,0,0,0,0,0,0,0,0,0,0,0,0,0,0,0,0,0,0],"id":43,"left_children":[1,3,5,7,9,11,13,15,17,19,21,23,25,27,29,-1,-1,-1,-1,-1,-1,-1,-1,-1,-1,-1,-1,-1,-1,-1,-1],"loss_changes":[2.118707E2,4.8219604E1,1.0047269E2,1.0864236E1,3.998192E1,2.7160278E1,4.3871323E1,7.541509E0,7.119854E0,7.8933334E0,2.1070473E1,7.013397E0,2.5085884E1,2.3919888E1,2.6768108E1,0E0,0E0,0E0,0E0,0E0,0E0,0E0,0E0,0E0,0E0,0E0,0E0,0E0,0E0,0E0,0E0],"parents":[2147483647,0,0,1,1,2,2,3,3,4,4,5,5,6,6,7,7,8,8,9,9,10,10,11,11,12,12,13,13,14,14],"right_children":[2,4,6,8,10,12,14,16,18,20,22,24,26,28,30,-1,-1,-1,-1,-1,-1,-1,-1,-1,-1,-1,-1,-1,-1,-1,-1],"split_conditions":[-3.3020046E-1,-1.0201488E0,-5.1488453E-1,-3.6312518E-1,-1.4476519E0,-7.8605384E-1,1E0,-7.5835663E-1,-5.8892125E-1,-7.5820386E-3,5.8063275E-1,-1.8851578E0,1E0,-7.1585494E-1,5.1411986E-1,3.1565179E-3,-1.560164E-3,7.761302E-4,6.3678194E-3,-5.0060153E-3,-9.113087E-3,-1.9956634E-3,-4.740681E-3,-2.919404E-3,6.2528113E-3,1.0888267E-3,4.318949E-3,-4.2554215E-3,-4.210636E-4,6.057691E-4,3.5012157E-3],"split_indices":[1,10,6,7,5,12,0,12,13,10,12,9,0,7,9,0,0,0,0,0,0,0,0,0,0,0,0,0,0,0,0],"split_type":[0,0,0,0,0,0,0,0,0,0,0,0,0,0,0,0,0,0,0,0,0,0,0,0,0,0,0,0,0,0,0],"sum_hessian":[6.309E3,2.049E3,4.26E3,2.52E2,1.797E3,1.311E3,2.949E3,1.57E2,9.5E1,2.01E2,1.596E3,3.47E2,9.64E2,1.486E3,1.463E3,4.8E1,1.09E2,3.8E1,5.7E1,8.8E1,1.13E2,1.234E3,3.62E2,8E0,3.39E2,4.64E2,5E2,1.85E2,1.301E3,9.93E2,4.7E2],"tree_param":{"num_deleted":"0","num_feature":"15","num_nodes":"31","size_leaf_vector":"1"}},{"base_weights":[-5.016535E-3,-3.3673397E-1,7.604536E-2,-1.7376879E-1,-4.5262036E-1,2.7353454E-1,-2.5243561E-3,-6.395717E-1,-1.1837062E-1,-7.012921E-1,-3.823834E-1,1.0022262E-1,3.9386347E-1,-7.5514205E-2,1.6122732E-1,-9.642882E-3,-3.840333E-3,2.2667176E-3,-1.7972218E-3,-1.665868E-2,-6.336643E-3,-6.4996267E-3,-3.0668967E-3,5.3301123E-3,2.2864522E-4,8.820551E-3,3.5410314E-3,9.288996E-5,-2.192627E-3,2.77523E-3,-9.686414E-5],"categories":[],"categories_nodes":[],"categories_segments":[],"categories_sizes":[],"default_left":[0,0,0,0,0,0,0,0,0,0,0,0,0,0,0,0,0,0,0,0,0,0,0,0,0,0,0,0,0,0,0],"id":44,"left_children":[1,3,5,7,9,11,13,15,17,19,21,23,25,27,29,-1,-1,-1,-1,-1,-1,-1,-1,-1,-1,-1,-1,-1,-1,-1,-1],"loss_changes":[1.7375958E2,2.3886978E1,8.0578766E1,1.3574944E1,1.2674103E1,3.0783386E1,4.4426582E1,4.2764225E0,1.0074791E1,9.512001E0,1.1548027E1,2.0309992E1,1.6613754E1,3.1343378E1,2.2781193E1,0E0,0E0,0E0,0E0,0E0,0E0,0E0,0E0,0E0,0E0,0E0,0E0,0E0,0E0,0E0,0E0],"parents":[2147483647,0,0,1,1,2,2,3,3,4,4,5,5,6,6,7,7,8,8,9,9,10,10,11,11,12,12,13,13,14,14],"right_children":[2,4,6,8,10,12,14,16,18,20,22,24,26,28,30,-1,-1,-1,-1,-1,-1,-1,-1,-1,-1,-1,-1,-1,-1,-1,-1],"split_conditions":[-8.0856836E-1,-2.8577632E-1,-5.7845694E-1,-1.5342456E0,-1.2790685E0,9.8767035E-2,6.8338406E-1,-9.754354E-1,-1.3033812E0,-1.718019E0,-1.2798922E0,-1.0164781E0,-1.4803174E0,3.1320253E-1,2.8857234E-1,-9.642882E-3,-3.840333E-3,2.2667176E-3,-1.7972218E-3,-1.665868E-2,-6.336643E-3,-6.4996267E-3,-3.0668967E-3,5.3301123E-3,2.2864522E-4,8.820551E-3,3.5410314E-3,9.288996E-5,-2.192627E-3,2.77523E-3,-9.686414E-5],"split_indices":[1,10,6,7,7,1,1,9,10,9,5,12,10,12,14,0,0,0,0,0,0,0,0,0,0,0,0,0,0,0,0],"split_type":[0,0,0,0,0,0,0,0,0,0,0,0,0,0,0,0,0,0,0,0,0,0,0,0,0,0,0,0,0,0,0],"sum_hessian":[6.46E3,1.268E3,5.192E3,5.28E2,7.4E2,1.477E3,3.715E3,5.5E1,4.73E2,1.61E2,5.79E2,6.06E2,8.71E2,2.57E3,1.145E3,2.3E1,3.2E1,7.1E1,4.02E2,9E0,1.52E2,1.26E2,4.53E2,9.1E1,5.15E2,6.4E1,8.07E2,1.617E3,9.53E2,6.81E2,4.64E2],"tree_param":{"num_deleted":"0","num_feature":"15","num_nodes":"31","size_leaf_vector":"1"}},{"base_weights":[6.88288E-3,2.807003E-1,-9.854956E-2,-2.390477E-2,3.7582126E-1,-2.3401175E-1,1.2920749E-1,1.9359186E-1,-1.14077166E-1,5.4250205E-1,2.422836E-1,-4.5910403E-1,-1.5115872E-1,1.9906771E-1,-2.3629536E-1,2.2697942E-3,-1.2064417E-2,-5.934916E-3,-7.3119043E-4,8.48921E-3,4.919728E-3,3.2341438E-3,9.795395E-4,-6.145093E-3,-3.585236E-3,-6.3493795E-4,-3.0734062E-3,1.4856514E-3,6.211682E-3,-1.2023268E-2,-1.8689495E-3],"categories":[],"categories_nodes":[],"categories_segments":[],"categories_sizes":[],"default_left":[0,0,0,0,0,0,0,0,0,0,0,0,0,0,0,0,0,0,0,0,0,0,0,0,0,0,0,0,0,0,0],"id":45,"left_children":[1,3,5,7,9,11,13,15,17,19,21,23,25,27,29,-1,-1,-1,-1,-1,-1,-1,-1,-1,-1,-1,-1,-1,-1,-1,-1],"loss_changes":[1.8069136E2,5.0424316E1,1.3945253E2,8.161145E0,2.9382889E1,5.2783524E1,