{"learner":{"attributes":{"scikit_learn":"{\"_estimator_type\": \"regressor\"}"},"feature_names":["Home","PTSDiff1","PTSDiff2","Rest1","Rest2","Starter0_BPM1","Starter0_BPM2","Starter1_BPM1","Starter1_BPM2","Starter2_BPM1","Starter2_BPM2","Starter3_BPM1","Starter3_BPM2","Starter4_BPM1","Starter4_BPM2"],"feature_types":["int","float","float","float","float","float","float","float","float","float","float","float","float","float","float"],"gradient_booster":{"model":{"cats":{"enc":[],"feature_segments":[],"sorted_idx":[]},"gbtree_model_param":{"num_parallel_tree":"1","num_trees":"1000"},"iteration_indptr":[0,1,2,3,4,5,6,7,8,9,10,11,12,13,14,15,16,17,18,19,20,21,22,23,24,25,26,27,28,29,30,31,32,33,34,35,36,37,38,39,40,41,42,43,44,45,46,47,48,49,50,51,52,53,54,55,56,57,58,59,60,61,62,63,64,65,66,67,68,69,70,71,72,73,74,75,76,77,78,79,80,81,82,83,84,85,86,87,88,89,90,91,92,93,94,95,96,97,98,99,100,101,102,103,104,105,106,107,108,109,110,111,112,113,114,115,116,117,118,119,120,121,122,123,124,125,126,127,128,129,130,131,132,133,134,135,136,137,138,139,140,141,142,143,144,145,146,147,148,149,150,151,152,153,154,155,156,157,158,159,160,161,162,163,164,165,166,167,168,169,170,171,172,173,174,175,176,177,178,179,180,181,182,183,184,185,186,187,188,189,190,191,192,193,194,195,196,197,198,199,200,201,202,203,204,205,206,207,208,209,210,211,212,213,214,215,216,217,218,219,220,221,222,223,224,225,226,227,228,229,230,231,232,233,234,235,236,237,238,239,240,241,242,243,244,245,246,247,248,249,250,251,252,253,254,255,256,257,258,259,260,261,262,263,264,265,266,267,268,269,270,271,272,273,274,275,276,277,278,279,280,281,282,283,284,285,286,287,288,289,290,291,292,293,294,295,296,297,298,299,300,301,302,303,304,305,306,307,308,309,310,311,312,313,314,315,316,317,318,319,320,321,322,323,324,325,326,327,328,329,330,331,332,333,334,335,336,337,338,339,340,341,342,343,344,345,346,347,348,349,350,351,352,353,354,355,356,357,358,359,360,361,362,363,364,365,366,367,368,369,370,371,372,373,374,375,376,377,378,379,380,381,382,383,384,385,386,387,388,389,390,391,392,393,394,395,396,397,398,399,400,401,402,403,404,405,406,407,408,409,410,411,412,413,414,415,416,417,418,419,420,421,422,423,424,425,426,427,428,429,430,431,432,433,434,435,436,437,438,439,440,441,442,443,444,445,446,447,448,449,450,451,452,453,454,455,456,457,458,459,460,461,462,463,464,465,466,467,468,469,470,471,472,473,474,475,476,477,478,479,480,481,482,483,484,485,486,487,488,489,490,491,492,493,494,495,496,497,498,499,500,501,502,503,504,505,506,507,508,509,510,511,512,513,514,515,516,517,518,519,520,521,522,523,524,525,526,527,528,529,530,531,532,533,534,535,536,537,538,539,540,541,542,543,544,545,546,547,548,549,550,551,552,553,554,555,556,557,558,559,560,561,562,563,564,565,566,567,568,569,570,571,572,573,574,575,576,577,578,579,580,581,582,583,584,585,586,587,588,589,590,591,592,593,594,595,596,597,598,599,600,601,602,603,604,605,606,607,608,609,610,611,612,613,614,615,616,617,618,619,620,621,622,623,624,625,626,627,628,629,630,631,632,633,634,635,636,637,638,639,640,641,642,643,644,645,646,647,648,649,650,651,652,653,654,655,656,657,658,659,660,661,662,663,664,665,666,667,668,669,670,671,672,673,674,675,676,677,678,679,680,681,682,683,684,685,686,687,688,689,690,691,692,693,694,695,696,697,698,699,700,701,702,703,704,705,706,707,708,709,710,711,712,713,714,715,716,717,718,719,720,721,722,723,724,725,726,727,728,729,730,731,732,733,734,735,736,737,738,739,740,741,742,743,744,745,746,747,748,749,750,751,752,753,754,755,756,757,758,759,760,761,762,763,764,765,766,767,768,769,770,771,772,773,774,775,776,777,778,779,780,781,782,783,784,785,786,787,788,789,790,791,792,793,794,795,796,797,798,799,800,801,802,803,804,805,806,807,808,809,810,811,812,813,814,815,816,817,818,819,820,821,822,823,824,825,826,827,828,829,830,831,832,833,834,835,836,837,838,839,840,841,842,843,844,845,846,847,848,849,850,851,852,853,854,855,856,857,858,859,860,861,862,863,864,865,866,867,868,869,870,871,872,873,874,875,876,877,878,879,880,881,882,883,884,885,886,887,888,889,890,891,892,893,894,895,896,897,898,899,900,901,902,903,904,905,906,907,908,909,910,911,912,913,914,915,916,917,918,919,920,921,922,923,924,925,926,927,928,929,930,931,932,933,934,935,936,937,938,939,940,941,942,943,944,945,946,947,948,949,950,951,952,953,954,955,956,957,958,959,960,961,962,963,964,965,966,967,968,969,970,971,972,973,974,975,976,977,978,979,980,981,982,983,984,985,986,987,988,989,990,991,992,993,994,995,996,997,998,999,1000],"tree_info":[0,0,0,0,0,0,0,0,0,0,0,0,0,0,0,0,0,0,0,0,0,0,0,0,0,0,0,0,0,0,0,0,0,0,0,0,0,0,0,0,0,0,0,0,0,0,0,0,0,0,0,0,0,0,0,0,0,0,0,0,0,0,0,0,0,0,0,0,0,0,0,0,0,0,0,0,0,0,0,0,0,0,0,0,0,0,0,0,0,0,0,0,0,0,0,0,0,0,0,0,0,0,0,0,0,0,0,0,0,0,0,0,0,0,0,0,0,0,0,0,0,0,0,0,0,0,0,0,0,0,0,0,0,0,0,0,0,0,0,0,0,0,0,0,0,0,0,0,0,0,0,0,0,0,0,0,0,0,0,0,0,0,0,0,0,0,0,0,0,0,0,0,0,0,0,0,0,0,0,0,0,0,0,0,0,0,0,0,0,0,0,0,0,0,0,0,0,0,0,0,0,0,0,0,0,0,0,0,0,0,0,0,0,0,0,0,0,0,0,0,0,0,0,0,0,0,0,0,0,0,0,0,0,0,0,0,0,0,0,0,0,0,0,0,0,0,0,0,0,0,0,0,0,0,0,0,0,0,0,0,0,0,0,0,0,0,0,0,0,0,0,0,0,0,0,0,0,0,0,0,0,0,0,0,0,0,0,0,0,0,0,0,0,0,0,0,0,0,0,0,0,0,0,0,0,0,0,0,0,0,0,0,0,0,0,0,0,0,0,0,0,0,0,0,0,0,0,0,0,0,0,0,0,0,0,0,0,0,0,0,0,0,0,0,0,0,0,0,0,0,0,0,0,0,0,0,0,0,0,0,0,0,0,0,0,0,0,0,0,0,0,0,0,0,0,0,0,0,0,0,0,0,0,0,0,0,0,0,0,0,0,0,0,0,0,0,0,0,0,0,0,0,0,0,0,0,0,0,0,0,0,0,0,0,0,0,0,0,0,0,0,0,0,0,0,0,0,0,0,0,0,0,0,0,0,0,0,0,0,0,0,0,0,0,0,0,0,0,0,0,0,0,0,0,0,0,0,0,0,0,0,0,0,0,0,0,0,0,0,0,0,0,0,0,0,0,0,0,0,0,0,0,0,0,0,0,0,0,0,0,0,0,0,0,0,0,0,0,0,0,0,0,0,0,0,0,0,0,0,0,0,0,0,0,0,0,0,0,0,0,0,0,0,0,0,0,0,0,0,0,0,0,0,0,0,0,0,0,0,0,0,0,0,0,0,0,0,0,0,0,0,0,0,0,0,0,0,0,0,0,0,0,0,0,0,0,0,0,0,0,0,0,0,0,0,0,0,0,0,0,0,0,0,0,0,0,0,0,0,0,0,0,0,0,0,0,0,0,0,0,0,0,0,0,0,0,0,0,0,0,0,0,0,0,0,0,0,0,0,0,0,0,0,0,0,0,0,0,0,0,0,0,0,0,0,0,0,0,0,0,0,0,0,0,0,0,0,0,0,0,0,0,0,0,0,0,0,0,0,0,0,0,0,0,0,0,0,0,0,0,0,0,0,0,0,0,0,0,0,0,0,0,0,0,0,0,0,0,0,0,0,0,0,0,0,0,0,0,0,0,0,0,0,0,0,0,0,0,0,0,0,0,0,0,0,0,0,0,0,0,0,0,0,0,0,0,0,0,0,0,0,0,0,0,0,0,0,0,0,0,0,0,0,0,0,0,0,0,0,0,0,0,0,0,0,0,0,0,0,0,0,0,0,0,0,0,0,0,0,0,0,0,0,0,0,0,0,0,0,0,0,0,0,0,0,0,0,0,0,0,0,0,0,0,0,0,0,0,0,0,0,0,0,0,0,0,0,0,0,0,0,0,0,0,0,0,0,0,0,0,0,0,0,0,0,0,0,0,0,0,0,0,0,0,0,0,0,0,0,0,0,0,0,0,0,0,0,0,0,0,0,0,0,0,0,0,0,0,0,0,0,0,0,0,0,0,0,0,0,0,0,0,0,0,0,0,0,0,0,0,0,0,0,0,0,0,0,0,0,0,0,0,0,0,0,0,0,0,0,0,0,0,0,0,0,0,0,0,0,0,0,0,0,0,0,0,0,0,0,0,0,0,0,0,0,0,0,0,0,0,0,0,0,0,0,0,0,0,0,0,0,0,0,0,0,0,0,0,0,0,0,0,0,0,0,0,0,0,0,0,0,0,0,0,0,0,0,0,0,0,0,0,0,0,0,0,0,0,0,0,0,0,0,0,0,0,0,0,0,0,0,0,0,0,0,0,0,0,0,0],"trees":[{"base_weights":[-1.024958E-2,-5.036229E-1,9.9165276E-2,-2.1408774E-1,-6.8379235E-1,4.5979995E-1,-4.9108014E-2,-1.4323709E-2,-3.6582077E-1,-8.702631E-1,-4.9742186E-1,7.670435E-1,3.757026E-1,-2.1795148E-1,1.21342234E-1,-6.2445262E-3,3.2958286E-4,-1.2024907E-2,-3.1213327E-3,-1.231923E-2,-7.338099E-3,-8.548878E-3,-4.2935843E-3,8.772293E-3,3.4314417E-3,2.3195439E-3,5.3261477E-3,-8.3878596E-4,-4.18267E-3,-7.133527E-4,2.7895817E-3],"categories":[],"categories_nodes":[],"categories_segments":[],"categories_sizes":[],"default_left":[0,0,0,0,0,0,0,0,0,0,0,0,0,0,0,0,0,0,0,0,0,0,0,0,0,0,0,0,0,0,0],"id":0,"left_children":[1,3,5,7,9,11,13,15,17,19,21,23,25,27,29,-1,-1,-1,-1,-1,-1,-1,-1,-1,-1,-1,-1,-1,-1,-1,-1],"loss_changes":[5.950976E2,1.042366E2,4.8250485E2,2.3303768E1,4.2417114E1,6.764087E1,1.8407079E2,9.627003E0,1.9254135E1,2.9446014E1,1.4693436E1,2.6042114E1,4.6476807E1,8.625607E1,9.668458E1,0E0,0E0,0E0,0E0,0E0,0E0,0E0,0E0,0E0,0E0,0E0,0E0,0E0,0E0,0E0,0E0],"parents":[2147483647,0,0,1,1,2,2,3,3,4,4,5,5,6,6,7,7,8,8,9,9,10,10,11,11,12,12,13,13,14,14],"right_children":[2,4,6,8,10,12,14,16,18,20,22,24,26,28,30,-1,-1,-1,-1,-1,-1,-1,-1,-1,-1,-1,-1,-1,-1,-1,-1],"split_conditions":[-9.3505967E-1,-2.2866936E-1,-4.639057E-1,-8.743133E-1,1E0,-1.1145447E0,1E0,-1.8161283E0,-1.7060941E0,-1.1843837E0,-1.3987969E0,-8.743133E-1,1E0,5.416013E-1,1.2550646E-1,-6.2445262E-3,3.2958286E-4,-1.2024907E-2,-3.1213327E-3,-1.231923E-2,-7.338099E-3,-8.548878E-3,-4.2935843E-3,8.772293E-3,3.4314417E-3,2.3195439E-3,5.3261477E-3,-8.3878596E-4,-4.18267E-3,-7.133527E-4,2.7895817E-3],"split_indices":[1,2,2,2,0,8,0,5,7,5,7,2,0,2,1,0,0,0,0,0,0,0,0,0,0,0,0,0,0,0,0],"split_type":[0,0,0,0,0,0,0,0,0,0,0,0,0,0,0,0,0,0,0,0,0,0,0,0,0,0,0,0,0,0,0],"sum_hessian":[1.1022E4,2E3,9.022E3,7.68E2,1.232E3,2.628E3,6.394E3,3.32E2,4.36E2,6.14E2,6.18E2,5.63E2,2.065E3,3.212E3,3.182E3,2.3E1,3.09E2,2.5E1,4.11E2,1.66E2,4.48E2,9.7E1,5.21E2,4.46E2,1.17E2,1.079E3,9.86E2,1.925E3,1.287E3,1.432E3,1.75E3],"tree_param":{"num_deleted":"0","num_feature":"15","num_nodes":"31","size_leaf_vector":"1"}},{"base_weights":[1.7500298E-2,3.801528E-1,-1.2772784E-1,-5.119E-2,4.7737893E-1,-4.5670414E-1,2.751842E-2,1.1377137E-1,-2.282542E-1,3.2355607E-1,6.32985E-1,-6.160725E-1,-2.6503876E-1,-1.5011811E-1,2.0727046E-1,-2.0882785E-3,2.4467397E-3,-2.073304E-3,-2.1050572E-2,4.9412535E-3,1.7362763E-3,1.1509746E-2,5.761749E-3,-8.491548E-3,-5.3673377E-3,-1.4051204E-3,-4.574288E-3,-1.0555316E-3,-7.824476E-3,3.178575E-3,1.2504384E-5],"categories":[],"categories_nodes":[],"categories_segments":[],"categories_sizes":[],"default_left":[0,0,0,0,0,0,0,0,0,0,0,0,0,0,0,0,0,0,0,0,0,0,0,0,0,0,0,0,0,0,0],"id":1,"left_children":[1,3,5,7,9,11,13,15,17,19,21,23,25,27,29,-1,-1,-1,-1,-1,-1,-1,-1,-1,-1,-1,-1,-1,-1,-1,-1],"loss_changes":[5.838661E2,1.3296725E2,4.043012E2,1.708388E1,6.171704E1,7.736096E1,1.7178543E2,1.2846503E1,1.0637653E1,3.3236084E1,3.7150574E1,2.515625E1,2.7582916E1,7.617178E1,6.092173E1,0E0,0E0,0E0,0E0,0E0,0E0,0E0,0E0,0E0,0E0,0E0,0E0,0E0,0E0,0E0,0E0],"parents":[2147483647,0,0,1,1,2,2,3,3,4,4,5,5,6,6,7,7,8,8,9,9,10,10,11,11,12,12,13,13,14,14],"right_children":[2,4,6,8,10,12,14,16,18,20,22,24,26,28,30,-1,-1,-1,-1,-1,-1,-1,-1,-1,-1,-1,-1,-1,-1,-1,-1],"split_conditions":[-4.8754752E-1,-8.3078825E-1,-3.6476672E-1,-4.5216644E-1,1E0,-9.9945295E-1,1E0,-9.528867E-1,2.721257E0,-1.2570895E0,-1.542685E0,-1.2030786E0,5.1294565E-1,1.5801046E0,6.4135045E-1,-2.0882785E-3,2.4467397E-3,-2.073304E-3,-2.1050572E-2,4.9412535E-3,1.7362763E-3,1.1509746E-2,5.761749E-3,-8.491548E-3,-5.3673377E-3,-1.4051204E-3,-4.574288E-3,-1.0555316E-3,-7.824476E-3,3.178575E-3,1.2504384E-5],"split_indices":[2,1,1,10,0,1,0,5,13,2,6,5,2,2,2,0,0,0,0,0,0,0,0,0,0,0,0,0,0,0,0],"split_type":[0,0,0,0,0,0,0,0,0,0,0,0,0,0,0,0,0,0,0,0,0,0,0,0,0,0,0,0,0,0,0],"sum_hessian":[1.1084E4,3.169E3,7.915E3,5.83E2,2.586E3,2.537E3,5.378E3,3.02E2,2.81E2,1.302E3,1.284E3,1.384E3,1.153E3,2.705E3,2.673E3,8.7E1,2.15E2,2.79E2,2E0,6.08E2,6.94E2,1.25E2,1.159E3,3.49E2,1.035E3,7.01E2,4.52E2,2.528E3,1.77E2,1.739E3,9.34E2],"tree_param":{"num_deleted":"0","num_feature":"15","num_nodes":"31","size_leaf_vector":"1"}},{"base_weights":[-9.864189E-3,3.6696678E-1,-1.5906745E-1,-1.24590494E-1,4.6103144E-1,-4.9689612E-1,-4.269639E-3,-3.5393357E-1,8.5728085E-3,8.1156236E-1,3.9686644E-1,-6.265454E-1,-3.313636E-1,-1.1532222E-1,1.838397E-1,-3.0660667E-3,-1.0832907E-2,3.7300987E-3,-1.3163193E-3,6.1474326E-3,1.0621237E-2,6.867351E-3,3.3043914E-3,-8.521653E-3,-5.7048444E-3,-1.372091E-2,-3.0797278E-3,-3.115922E-4,-2.6065186E-3,2.6209652E-3,-1.6214477E-3],"categories":[],"categories_nodes":[],"categories_segments":[],"categories_sizes":[],"default_left":[0,0,0,0,0,0,0,0,0,0,0,0,0,0,0,0,0,0,0,0,0,0,0,0,0,0,0,0,0,0,0],"id":2,"left_children":[1,3,5,7,9,11,13,15,17,19,21,23,25,27,29,-1,-1,-1,-1,-1,-1,-1,-1,-1,-1,-1,-1,-1,-1,-1,-1],"loss_changes":[6.271855E2,1.4635498E2,4.1788837E2,1.5547937E1,5.94162E1,5.3681335E1,1.1451944E2,6.1227627E0,1.6553045E1,1.9566315E1,4.303949E1,1.7310242E1,2.6476913E1,4.2153427E1,5.514144E1,0E0,0E0,0E0,0E0,0E0,0E0,0E0,0E0,0E0,0E0,0E0,0E0,0E0,0E0,0E0,0E0],"parents":[2147483647,0,0,1,1,2,2,3,3,4,4,5,5,6,6,7,7,8,8,9,9,10,10,11,11,12,12,13,13,14,14],"right_children":[2,4,6,8,10,12,14,16,18,20,22,24,26,28,30,-1,-1,-1,-1,-1,-1,-1,-1,-1,-1,-1,-1,-1,-1,-1,-1],"split_conditions":[-4.639057E-1,-9.3505967E-1,-3.7926894E-1,-9.6445096E-1,-1.3030415E0,-9.7013825E-1,6.3636494E-1,1.009649E0,-9.4741344E-1,3.3209905E-1,-1.1808927E0,-1.3161634E0,-1.8161283E0,6.2952954E-1,1.095354E0,-3.0660667E-3,-1.0832907E-2,3.7300987E-3,-1.3163193E-3,6.1474326E-3,1.0621237E-2,6.867351E-3,3.3043914E-3,-8.521653E-3,-5.7048444E-3,-1.372091E-2,-3.0797278E-3,-3.115922E-4,-2.6065186E-3,2.6209652E-3,-1.6214477E-3],"split_indices":[2,1,1,5,8,1,1,8,10,1,6,5,5,2,2,0,0,0,0,0,0,0,0,0,0,0,0,0,0,0,0],"split_type":[0,0,0,0,0,0,0,0,0,0,0,0,0,0,0,0,0,0,0,0,0,0,0,0,0,0,0,0,0,0,0],"sum_hessian":[1.1153E4,3.163E3,7.99E3,5.08E2,2.655E3,2.51E3,5.48E3,1.86E2,3.22E2,4.09E2,2.246E3,1.406E3,1.104E3,3.446E3,2.034E3,1.76E2,1E1,8.9E1,2.33E2,2.31E2,1.78E2,4.17E2,1.829E3,2.77E2,1.129E3,2.3E1,1.081E3,2.183E3,1.263E3,1.659E3,3.75E2],"tree_param":{"num_deleted":"0","num_feature":"15","num_nodes":"31","size_leaf_vector":"1"}},{"base_weights":[3.6018281E-3,3.8020477E-1,-1.4315574E-1,-2.8825471E-2,5.0487524E-1,-5.081186E-1,4.0565426E-3,-2.9334596E-1,8.585659E-2,3.5382816E-1,6.566393E-1,-6.711569E-1,-3.5144153E-1,-1.7376634E-1,1.7653966E-1,-5.8388547E-4,-4.835295E-3,8.057313E-3,5.175213E-4,2.5932319E-3,5.2958843E-3,1.0259113E-2,5.7012807E-3,-9.077932E-3,-5.3248196E-3,-5.1189726E-3,-2.0424223E-3,-4.5500815E-4,-3.670966E-3,3.64645E-4,3.909635E-3],"categories":[],"categories_nodes":[],"categories_segments":[],"categories_sizes":[],"default_left":[0,0,0,0,0,0,0,0,0,0,0,0,0,0,0,0,0,0,0,0,0,0,0,0,0,0,0,0,0,0,0],"id":3,"left_children":[1,3,5,7,9,11,13,15,17,19,21,23,25,27,29,-1,-1,-1,-1,-1,-1,-1,-1,-1,-1,-1,-1,-1,-1,-1,-1],"loss_changes":[6.151468E2,1.5916687E2,4.303018E2,2.2170282E1,5.4600708E1,5.85672E1,1.7510327E2,9.847158E0,1.2479282E1,1.9811539E1,3.7494995E1,3.6499756E1,2.767134E1,6.968937E1,8.702849E1,0E0,0E0,0E0,0E0,0E0,0E0,0E0,0E0,0E0,0E0,0E0,0E0,0E0,0E0,0E0,0E0],"parents":[2147483647,0,0,1,1,2,2,3,3,4,4,5,5,6,6,7,7,8,8,9,9,10,10,11,11,12,12,13,13,14,14],"right_children":[2,4,6,8,10,12,14,16,18,20,22,24,26,28,30,-1,-1,-1,-1,-1,-1,-1,-1,-1,-1,-1,-1,-1,-1,-1,-1],"split_conditions":[-4.8754752E-1,-5.9311503E-1,-4.7681394E-1,-9.6445096E-1,1E0,1E0,1E0,-1.1905446E0,-1.8895034E0,4.0319934E-1,-1.2446028E0,-8.375745E-1,-1.2423655E0,5.416013E-1,5.3310627E-1,-5.8388547E-4,-4.835295E-3,8.057313E-3,5.175213E-4,2.5932319E-3,5.2958843E-3,1.0259113E-2,5.7012807E-3,-9.077932E-3,-5.3248196E-3,-5.1189726E-3,-2.0424223E-3,-4.5500815E-4,-3.670966E-3,3.64645E-4,3.909635E-3],"split_indices":[2,1,1,5,0,0,0,2,6,9,6,5,1,2,1,0,0,0,0,0,0,0,0,0,0,0,0,0,0,0,0],"split_type":[0,0,0,0,0,0,0,0,0,0,0,0,0,0,0,0,0,0,0,0,0,0,0,0,0,0,0,0,0,0,0],"sum_hessian":[1.1128E4,3.12E3,8.008E3,7.29E2,2.391E3,2.301E3,5.707E3,2.2E2,5.09E2,1.2E3,1.191E3,1.126E3,1.175E3,2.81E3,2.897E3,9.9E1,1.21E2,2.2E1,4.87E2,7.82E2,4.18E2,2.24E2,9.67E2,4.14E2,7.12E2,5.61E2,6.14E2,1.69E3,1.12E3,1.753E3,1.144E3],"tree_param":{"num_deleted":"0","num_feature":"15","num_nodes":"31","size_leaf_vector":"1"}},{"base_weights":[1.24133155E-2,-4.3832064E-1,1.2078181E-1,-7.974742E-1,-3.6507818E-1,-4.7237415E-2,2.8964117E-1,-7.27676E-1,-1.4514725E0,-1.5645988E-1,-4.7587308E-1,1.7790702E-1,-1.5617706E-1,4.8139495E-1,1.3707912E-1,-6.507506E-3,-1.2691158E-2,-1.9346284E-2,-6.2306216E-3,9.5594785E-4,-3.0293332E-3,-7.127224E-3,-4.064403E-3,6.4514983E-3,9.764429E-4,-2.746593E-3,9.174044E-4,3.380931E-3,7.887147E-3,8.823242E-5,2.9113751E-3],"categories":[],"categories_nodes":[],"categories_segments":[],"categories_sizes":[],"default_left":[0,0,0,0,0,0,0,0,0,0,0,0,0,0,0,0,0,0,0,0,0,0,0,0,0,0,0,0,0,0,0],"id":4,"left_children":[1,3,5,7,9,11,13,15,17,19,21,23,25,27,29,-1,-1,-1,-1,-1,-1,-1,-1,-1,-1,-1,-1,-1,-1,-1,-1],"loss_changes":[5.413084E2,5.6212616E1,2.5348572E2,1.5513992E1,4.120688E1,1.098849E2,1.3029141E2,1.2918777E1,1.2403145E1,2.2955854E1,1.8885315E1,5.472769E1,8.870476E1,8.666733E1,4.9058765E1,0E0,0E0,0E0,0E0,0E0,0E0,0E0,0E0,0E0,0E0,0E0,0E0,0E0,0E0,0E0,0E0],"parents":[2147483647,0,0,1,1,2,2,3,3,4,4,5,5,6,6,7,7,8,8,9,9,10,10,11,11,12,12,13,13,14,14],"right_children":[2,4,6,8,10,12,14,16,18,20,22,24,26,28,30,-1,-1,-1,-1,-1,-1,-1,-1,-1,-1,-1,-1,-1,-1,-1,-1],"split_conditions":[-8.3078825E-1,-1.4098002E0,1E0,1.1367667E0,-3.695427E-1,-3.8239866E-1,-2.494845E-1,1.1678693E0,-4.8419306E-1,-4.7023213E-1,-1.1387407E0,-1.0976139E0,6.472621E-1,6.472621E-1,3.014832E-1,-6.507506E-3,-1.2691158E-2,-1.9346284E-2,-6.2306216E-3,9.5594785E-4,-3.0293332E-3,-7.127224E-3,-4.064403E-3,6.4514983E-3,9.764429E-4,-2.746593E-3,9.174044E-4,3.380931E-3,7.887147E-3,8.823242E-5,2.9113751E-3],"split_indices":[1,5,0,8,14,12,8,10,7,8,7,8,1,1,1,0,0,0,0,0,0,0,0,0,0,0,0,0,0,0,0],"split_type":[0,0,0,0,0,0,0,0,0,0,0,0,0,0,0,0,0,0,0,0,0,0,0,0,0,0,0,0,0,0,0],"sum_hessian":[1.108E4,2.147E3,8.933E3,3.62E2,1.785E3,4.478E3,4.455E3,3.29E2,3.3E1,6.2E2,1.165E3,1.46E3,3.018E3,1.973E3,2.482E3,2.9E2,3.9E1,2E1,1.3E1,2.28E2,3.92E2,2.62E2,9.03E2,2.13E2,1.247E3,2.042E3,9.76E2,1.347E3,6.26E2,1.355E3,1.127E3],"tree_param":{"num_deleted":"0","num_feature":"15","num_nodes":"31","size_leaf_vector":"1"}},{"base_weights":[1.1901965E-2,3.7354624E-1,-1.348703E-1,3.0994397E-2,5.2413833E-1,-4.6707162E-1,1.5955206E-2,-2.2677648E-1,1.2770532E-1,8.7536895E-1,4.2544448E-1,-6.055049E-1,-2.8279313E-1,-1.04575574E-1,1.8644595E-1,-6.9480166E-3,-1.1357792E-3,3.7244086E-3,2.1511764E-4,9.566432E-3,4.4891215E-3,5.9141205E-3,3.2828134E-3,-4.4713127E-3,-7.330122E-3,-1.6858706E-3,-4.828833E-3,-3.8456606E-6,-2.9115193E-3,2.66737E-3,-4.4004817E-4],"categories":[],"categories_nodes":[],"categories_segments":[],"categories_sizes":[],"default_left":[0,0,0,0,0,0,0,0,0,0,0,0,0,0,0,0,0,0,0,0,0,0,0,0,0,0,0,0,0,0,0],"id":5,"left_children":[1,3,5,7,9,11,13,15,17,19,21,23,25,27,29,-1,-1,-1,-1,-1,-1,-1,-1,-1,-1,-1,-1,-1,-1,-1,-1],"loss_changes":[5.900274E2,1.6552191E2,3.961832E2,2.4484564E1,7.689429E1,6.28136E1,1.1178758E2,1.4119667E1,1.8548378E1,1.648462E1,2.7897217E1,2.8125305E1,2.4164055E1,6.195384E1,4.1699295E1,0E0,0E0,0E0,0E0,0E0,0E0,0E0,0E0,0E0,0E0,0E0,0E0,0E0,0E0,0E0,0E0],"parents":[2147483647,0,0,1,1,2,2,3,3,4,4,5,5,6,6,7,7,8,8,9,9,10,10,11,11,12,12,13,13,14,14],"right_children":[2,4,6,8,10,12,14,16,18,20,22,24,26,28,30,-1,-1,-1,-1,-1,-1,-1,-1,-1,-1,-1,-1,-1,-1,-1,-1],"split_conditions":[-4.639057E-1,-4.149274E-1,-3.7926894E-1,-9.6445096E-1,-1.131721E0,-9.7013825E-1,5.620642E-1,-1.2913382E0,-9.0045726E-1,-7.7272725E-1,-1.3282236E0,2.912693E-1,5.1013213E-1,6.4135045E-1,8.5045296E-1,-6.9480166E-3,-1.1357792E-3,3.7244086E-3,2.1511764E-4,9.566432E-3,4.4891215E-3,5.9141205E-3,3.2828134E-3,-4.4713127E-3,-7.330122E-3,-1.6858706E-3,-4.828833E-3,-3.8456606E-6,-2.9115193E-3,2.66737E-3,-4.4004817E-4],"split_indices":[2,1,1,5,8,1,1,9,6,2,2,2,8,2,2,0,0,0,0,0,0,0,0,0,0,0,0,0,0,0,0],"split_type":[0,0,0,0,0,0,0,0,0,0,0,0,0,0,0,0,0,0,0,0,0,0,0,0,0,0,0,0,0,0,0],"sum_hessian":[1.1114E4,3.208E3,7.906E3,9.8E2,2.228E3,2.468E3,5.438E3,2.67E2,7.13E2,4.87E2,1.741E3,1.408E3,1.06E3,3.186E3,2.252E3,5.1E1,2.16E2,2.15E2,4.98E2,4.08E2,7.9E1,6.41E2,1.1E3,6.3E2,7.78E2,6.76E2,3.84E2,2.045E3,1.141E3,1.67E3,5.82E2],"tree_param":{"num_deleted":"0","num_feature":"15","num_nodes":"31","size_leaf_vector":"1"}},{"base_weights":[-6.1573377E-3,-5.065858E-1,1.0135099E-1,-2.205362E-1,-6.7508304E-1,4.450744E-1,-3.483692E-2,-4.7680682E-1,-1.11426294E-1,-9.106057E-1,-5.739852E-1,7.228339E-1,3.693891E-1,-1.9719827E-1,1.3278598E-1,-4.3148594E-3,-1.9835701E-2,8.1104826E-4,-2.546147E-3,-6.4900243E-3,-1.0194562E-2,-7.3079914E-3,-4.1874293E-3,5.9648096E-3,9.778417E-3,2.4231758E-3,4.9992413E-3,-6.57576E-4,-3.961178E-3,6.6707114E-5,3.7182565E-3],"categories":[],"categories_nodes":[],"categories_segments":[],"categories_sizes":[],"default_left":[0,0,0,0,0,0,0,0,0,0,0,0,0,0,0,0,0,0,0,0,0,0,0,0,0,0,0,0,0,0,0],"id":6,"left_children":[1,3,5,7,9,11,13,15,17,19,21,23,25,27,29,-1,-1,-1,-1,-1,-1,-1,-1,-1,-1,-1,-1,-1,-1,-1,-1],"loss_changes":[5.9050885E2,9.340454E1,4.2295264E2,2.0107227E1,2.8550354E1,5.3634186E1,1.7616476E2,1.3826004E1,1.3997741E1,9.731995E0,2.0556915E1,1.7073822E1,3.333542E1,8.5942375E1,9.6014275E1,0E0,0E0,0E0,0E0,0E0,0E0,0E0,0E0,0E0,0E0,0E0,0E0,0E0,0E0,0E0,0E0],"parents":[2147483647,0,0,1,1,2,2,3,3,4,4,5,5,6,6,7,7,8,8,9,9,10,10,11,11,12,12,13,13,14,14],"right_children":[2,4,6,8,10,12,14,16,18,20,22,24,26,28,30,-1,-1,-1,-1,-1,-1,-1,-1,-1,-1,-1,-1,-1,-1,-1,-1],"split_conditions":[-9.7013825E-1,-2.0384543E-1,-4.8754752E-1,-1.0418472E0,-1.0682398E0,-1.131721E0,1E0,1.8487366E0,-8.4857816E-1,-3.2851985E-1,1E0,6.5806764E-1,1E0,5.416013E-1,5.770258E-1,-4.3148594E-3,-1.9835701E-2,8.1104826E-4,-2.546147E-3,-6.4900243E-3,-1.0194562E-2,-7.3079914E-3,-4.1874293E-3,5.9648096E-3,9.778417E-3,2.4231758E-3,4.9992413E-3,-6.57576E-4,-3.961178E-3,6.6707114E-5,3.7182565E-3],"split_indices":[1,2,2,9,7,8,0,13,2,10,0,1,0,2,1,0,0,0,0,0,0,0,0,0,0,0,0,0,0,0,0],"split_type":[0,0,0,0,0,0,0,0,0,0,0,0,0,0,0,0,0,0,0,0,0,0,0,0,0,0,0,0,0,0,0],"sum_hessian":[1.0974E4,1.94E3,9.034E3,7.2E2,1.22E3,2.563E3,6.471E3,2.14E2,5.06E2,3.64E2,8.56E2,5.47E2,2.016E3,3.287E3,3.184E3,2.09E2,5E0,2.16E2,2.9E2,1.09E2,2.55E2,4.24E2,4.32E2,3.68E2,1.79E2,1.023E3,9.93E2,1.98E3,1.307E3,2.085E3,1.099E3],"tree_param":{"num_deleted":"0","num_feature":"15","num_nodes":"31","size_leaf_vector":"1"}},{"base_weights":[4.3585704E-4,4.140058E-1,-1.1248999E-1,5.769367E-1,3.018921E-1,-3.254592E-1,5.1495833E-3,7.182069E-1,3.378012E-1,1.8139216E-1,4.8864397E-1,-5.846191E-1,-2.452176E-1,-1.527681E-1,1.5922467E-1,5.0711744E-3,9.188083E-3,-2.3360304E-3,3.9408854E-3,-3.0598312E-4,3.0566496E-3,1.2552506E-2,4.5142085E-3,-1.0591678E-2,-5.1120836E-3,-1.3365278E-3,-4.244104E-3,-4.0118623E-5,-2.9094794E-3,2.1672163E-3,-1.6669522E-3],"categories":[],"categories_nodes":[],"categories_segments":[],"categories_sizes":[],"default_left":[0,0,0,0,0,0,0,0,0,0,0,0,0,0,0,0,0,0,0,0,0,0,0,0,0,0,0,0,0,0,0],"id":7,"left_children":[1,3,5,7,9,11,13,15,17,19,21,23,25,27,29,-1,-1,-1,-1,-1,-1,-1,-1,-1,-1,-1,-1,-1,-1,-1,-1],"loss_changes":[5.171393E2,4.3209473E1,2.1791797E2,3.2425262E1,3.1618912E1,6.4218414E1,1.3637627E2,2.5237366E1,1.1702843E1,2.2613064E1,1.5184952E1,2.4924377E1,4.722345E1,5.6895386E1,5.31998E1,0E0,0E0,0E0,0E0,0E0,0E0,0E0,0E0,0E0,0E0,0E0,0E0,0E0,0E0,0E0,0E0],"parents":[2147483647,0,0,1,1,2,2,3,3,4,4,5,5,6,6,7,7,8,8,9,9,10,10,11,11,12,12,13,13,14,14],"right_children":[2,4,6,8,10,12,14,16,18,20,22,24,26,28,30,-1,-1,-1,-1,-1,-1,-1,-1,-1,-1,-1,-1,-1,-1,-1,-1],"split_conditions":[-7.3325384E-1,-8.392271E-1,-4.222177E-1,-4.2565575E-1,1.6927181E-1,-7.7799326E-1,1E0,1E0,-1.3117473E0,-3.830789E-1,-1.741283E0,-1.5940434E0,5.1294565E-1,2.0624961E-1,1.161471E0,5.0711744E-3,9.188083E-3,-2.3360304E-3,3.9408854E-3,-3.0598312E-4,3.0566496E-3,1.2552506E-2,4.5142085E-3,-1.0591678E-2,-5.1120836E-3,-1.3365278E-3,-4.244104E-3,-4.0118623E-5,-2.9094794E-3,2.1672163E-3,-1.6669522E-3],"split_indices":[2,6,7,8,7,9,0,0,7,9,8,7,2,2,2,0,0,0,0,0,0,0,0,0,0,0,0,0,0,0,0],"split_type":[0,0,0,0,0,0,0,0,0,0,0,0,0,0,0,0,0,0,0,0,0,0,0,0,0,0,0,0,0,0,0],"sum_hessian":[1.1071E4,2.374E3,8.697E3,9.66E2,1.408E3,3.094E3,5.603E3,6.06E2,3.6E2,8.57E2,5.51E2,7.3E2,2.364E3,2.767E3,2.836E3,2.97E2,3.09E2,3.2E1,3.28E2,3.17E2,5.4E2,2.4E1,5.27E2,9.6E1,6.34E2,1.458E3,9.06E2,1.333E3,1.434E3,2.411E3,4.25E2],"tree_param":{"num_deleted":"0","num_feature":"15","num_nodes":"31","size_leaf_vector":"1"}},{"base_weights":[-5.413186E-3,3.533306E-1,-1.4555813E-1,4.9741518E-1,2.115119E-1,-4.657015E-1,-4.5694675E-2,2.080234E-1,5.796473E-1,-5.204158E-2,2.9314217E-1,-6.771072E-1,-2.4083363E-1,-1.9508207E-1,9.9849656E-2,-1.0676846E-3,3.8839646E-3,8.754894E-3,5.035241E-3,-4.2228783E-3,1.1870981E-3,4.278266E-3,1.235323E-3,-8.733987E-3,-4.6642814E-3,-3.9247028E-3,3.51863E-4,-3.5893673E-3,-9.2354167E-4,4.926302E-4,5.096656E-3],"categories":[],"categories_nodes":[],"categories_segments":[],"categories_sizes":[],"default_left":[0,0,0,0,0,0,0,0,0,0,0,0,0,0,0,0,0,0,0,0,0,0,0,0,0,0,0,0,0,0,0],"id":8,"left_children":[1,3,5,7,9,11,13,15,17,19,21,23,25,27,29,-1,-1,-1,-1,-1,-1,-1,-1,-1,-1,-1,-1,-1,-1,-1,-1],"loss_changes":[5.537425E2,6.3117218E1,2.5318607E2,3.638449E1,3.359852E1,8.935162E1,1.3130063E2,1.9403439E1,2.6448578E1,2.3441551E1,2.7176956E1,3.9706512E1,3.8269043E1,5.012755E1,6.3391674E1,0E0,0E0,0E0,0E0,0E0,0E0,0E0,0E0,0E0,0E0,0E0,0E0,0E0,0E0,0E0,0E0],"parents":[2147483647,0,0,1,1,2,2,3,3,4,4,5,5,6,6,7,7,8,8,9,9,10,10,11,11,12,12,13,13,14,14],"right_children":[2,4,6,8,10,12,14,16,18,20,22,24,26,28,30,-1,-1,-1,-1,-1,-1,-1,-1,-1,-1,-1,-1,-1,-1,-1,-1],"split_conditions":[-4.8754752E-1,-1.1905446E0,-7.0893586E-1,-7.07294E-1,-6.2392396E-1,1E0,1E0,-4.8783162E-1,-1.3030415E0,-6.891995E-1,-2.3849359E-1,-3.6408594E-1,2.1286337E-2,-2.9597494E-1,1.170149E0,-1.0676846E-3,3.8839646E-3,8.754894E-3,5.035241E-3,-4.2228783E-3,1.1870981E-3,4.278266E-3,1.235323E-3,-8.733987E-3,-4.6642814E-3,-3.9247028E-3,3.51863E-4,-3.5893673E-3,-9.2354167E-4,4.926302E-4,5.096656E-3],"split_indices":[2,2,5,7,13,0,0,13,8,5,10,7,7,7,9,0,0,0,0,0,0,0,0,0,0,0,0,0,0,0,0],"split_type":[0,0,0,0,0,0,0,0,0,0,0,0,0,0,0,0,0,0,0,0,0,0,0,0,0,0,0,0,0,0,0],"sum_hessian":[1.1012E4,3.093E3,7.919E3,1.533E3,1.56E3,1.882E3,6.037E3,3.4E2,1.193E3,3.69E2,1.191E3,9.69E2,9.13E2,2.979E3,3.058E3,1.24E2,2.16E2,2.42E2,9.51E2,1.16E2,2.53E2,6.63E2,5.28E2,5E2,4.69E2,5.89E2,3.24E2,1.147E3,1.832E3,2.723E3,3.35E2],"tree_param":{"num_deleted":"0","num_feature":"15","num_nodes":"31","size_leaf_vector":"1"}},{"base_weights":[-3.8164982E-3,3.924676E-1,-1.2514931E-1,3.1482365E-2,5.2179015E-1,-4.3416616E-1,1.585209E-2,1.8358003E-1,-2.0293087E-1,7.158375E-1,4.3324578E-1,-8.117537E-1,-3.759887E-1,1.1974172E-1,-1.8329914E-1,6.255715E-4,4.024633E-3,-6.35537E-3,-5.561343E-4,7.936643E-3,3.6123141E-3,6.8100677E-3,3.6966193E-3,-1.2354548E-2,-7.251425E-3,-3.256214E-3,-6.860725E-3,3.568843E-5,2.7520102E-3,-4.405257E-3,-7.680652E-4],"categories":[],"categories_nodes":[],"categories_segments":[],"categories_sizes":[],"default_left":[0,0,0,0,0,0,0,0,0,0,0,0,0,0,0,0,0,0,0,0,0,0,0,0,0,0,0,0,0,0,0],"id":9,"left_children":[1,3,5,7,9,11,13,15,17,19,21,23,25,27,29,-1,-1,-1,-1,-1,-1,-1,-1,-1,-1,-1,-1,-1,-1,-1,-1],"loss_changes":[5.357816E2,1.2192102E2,3.7171796E2,2.463831E1,3.273047E1,5.841284E1,1.2124319E2,1.1074088E1,1.7299335E1,1.6299652E1,2.0590271E1,1.216835E1,3.597928E1,6.9548676E1,5.4998154E1,0E0,0E0,0E0,0E0,0E0,0E0,0E0,0E0,0E0,0E0,0E0,0E0,0E0,0E0,0E0,0E0],"parents":[2147483647,0,0,1,1,2,2,3,3,4,4,5,5,6,6,7,7,8,8,9,9,10,10,11,11,12,12,13,13,14,14],"right_children":[2,4,6,8,10,12,14,16,18,20,22,24,26,28,30,-1,-1,-1,-1,-1,-1,-1,-1,-1,-1,-1,-1,-1,-1,-1,-1],"split_conditions":[-6.33606E-1,-5.3595E-1,-3.7926894E-1,-1.1456351E0,-9.844963E-1,-1.3761946E0,6.2952954E-1,-8.760083E-1,-1.0791972E0,-9.2633677E-1,-1.1808927E0,-1.3228317E0,1.2762034E0,5.2145416E-1,-3.1291065E-1,6.255715E-4,4.024633E-3,-6.35537E-3,-5.561343E-4,7.936643E-3,3.6123141E-3,6.8100677E-3,3.6966193E-3,-1.2354548E-2,-7.251425E-3,-3.256214E-3,-6.860725E-3,3.568843E-5,2.7520102E-3,-4.405257E-3,-7.680652E-4],"split_indices":[2,1,1,2,8,5,2,1,9,2,6,9,2,1,5,0,0,0,0,0,0,0,0,0,0,0,0,0,0,0,0],"split_type":[0,0,0,0,0,0,0,0,0,0,0,0,0,0,0,0,0,0,0,0,0,0,0,0,0,0,0,0,0,0,0],"sum_hessian":[1.1141E4,2.611E3,8.53E3,6.89E2,1.922E3,2.672E3,5.858E3,4.18E2,2.71E2,6E2,1.322E3,3.55E2,2.317E3,3.85E3,2.008E3,2.7E2,1.48E2,6.8E1,2.03E2,4.91E2,1.09E2,2.68E2,1.054E3,5.8E1,2.97E2,1.995E3,3.22E2,2.204E3,1.646E3,5.87E2,1.421E3],"tree_param":{"num_deleted":"0","num_feature":"15","num_nodes":"31","size_leaf_vector":"1"}},{"base_weights":[5.24955E-3,-3.495927E-1,1.4760022E-1,-7.3001826E-1,-2.963936E-1,-5.561952E-3,3.0134824E-1,-8.853625E-1,-4.08772E-1,-7.077609E-2,-3.858779E-1,4.3506232E-1,-6.068549E-2,4.9885023E-1,1.7325127E-1,-7.9888245E-3,-1.602065E-2,-3.8605364E-4,-6.61536E-3,1.7641099E-3,-2.4703157E-3,-6.5424107E-3,-3.1018981E-3,7.7864276E-3,2.540391E-3,3.3083642E-4,-2.2102366E-3,3.5553786E-3,7.0334505E-3,-1.4703636E-4,3.006797E-3],"categories":[],"categories_nodes":[],"categories_segments":[],"categories_sizes":[],"default_left":[0,0,0,0,0,0,0,0,0,0,0,0,0,0,0,0,0,0,0,0,0,0,0,0,0,0,0,0,0,0,0],"id":10,"left_children":[1,3,5,7,9,11,13,15,17,19,21,23,25,27,29,-1,-1,-1,-1,-1,-1,-1,-1,-1,-1,-1,-1,-1,-1,-1,-1],"loss_changes":[5.575024E2,6.3736664E1,1.8549228E2,1.8950836E1,5.5977585E1,9.589417E1,9.936554E1,1.4835068E1,1.1950752E1,3.4418797E1,4.0136505E1,2.7106247E1,5.276433E1,4.5057983E1,5.715104E1,0E0,0E0,0E0,0E0,0E0,0E0,0E0,0E0,0E0,0E0,0E0,0E0,0E0,0E0,0E0,0E0],"parents":[2147483647,0,0,1,1,2,2,3,3,4,4,5,5,6,6,7,7,8,8,9,9,10,10,11,11,12,12,13,13,14,14],"right_children":[2,4,6,8,10,12,14,16,18,20,22,24,26,28,30,-1,-1,-1,-1,-1,-1,-1,-1,-1,-1,-1,-1,-1,-1,-1,-1],"split_conditions":[-4.7681394E-1,-1.4098002E0,1E0,-4.222177E-1,-5.331153E-1,-1.0622584E0,-3.6101773E-1,1.0328505E0,-1.2080114E-1,-3.6101773E-1,-1.0846039E0,-6.43572E-1,2.4546054E-1,5.3310627E-1,1.576338E-1,-7.9888245E-3,-1.602065E-2,-3.8605364E-4,-6.61536E-3,1.7641099E-3,-2.4703157E-3,-6.5424107E-3,-3.1018981E-3,7.7864276E-3,2.540391E-3,3.3083642E-4,-2.2102366E-3,3.5553786E-3,7.0334505E-3,-1.4703636E-4,3.006797E-3],"split_indices":[1,5,0,7,10,8,8,8,10,8,7,10,10,1,1,0,0,0,0,0,0,0,0,0,0,0,0,0,0,0,0],"split_type":[0,0,0,0,0,0,0,0,0,0,0,0,0,0,0,0,0,0,0,0,0,0,0,0,0,0,0,0,0,0,0],"sum_hessian":[1.1035E4,3.159E3,7.876E3,3.86E2,2.773E3,3.946E3,3.93E3,2.59E2,1.27E2,7.88E2,1.985E3,4.38E2,3.508E3,1.545E3,2.385E3,2.33E2,2.6E1,5.2E1,7.5E1,3.28E2,4.6E2,4.35E2,1.55E3,1.5E2,2.88E2,2.214E3,1.294E3,9.1E2,6.35E2,9.64E2,1.421E3],"tree_param":{"num_deleted":"0","num_feature":"15","num_nodes":"31","size_leaf_vector":"1"}},{"base_weights":[-2.0660702E-3,3.4054863E-1,-1.4046703E-1,1.1640257E-2,4.670468E-1,-4.559223E-1,9.818224E-3,-2.7770826E-1,1.2708747E-1,3.376598E-1,5.9852105E-1,-6.1843175E-1,-2.9458106E-1,-1.5308341E-1,1.7320463E-1,-1.04718805E-4,-4.5521087E-3,8.330334E-3,8.1940007E-4,9.270165E-3,3.04165E-3,3.8169306E-3,6.9649178E-3,-1.0743185E-2,-5.6803436E-3,-4.89686E-3,-1.6327752E-3,-3.695177E-4,-3.3064866E-3,9.4564294E-4,4.8510036E-3],"categories":[],"categories_nodes":[],"categories_segments":[],"categories_sizes":[],"default_left":[0,0,0,0,0,0,0,0,0,0,0,0,0,0,0,0,0,0,0,0,0,0,0,0,0,0,0,0,0,0,0],"id":11,"left_children":[1,3,5,7,9,11,13,15,17,19,21,23,25,27,29,-1,-1,-1,-1,-1,-1,-1,-1,-1,-1,-1,-1,-1,-1,-1,-1],"loss_changes":[5.2506226E2,1.3255222E2,3.7391357E2,2.963166E1,3.8940308E1,6.654639E1,1.4223535E2,1.1996328E1,2.0138378E1,2.2656357E1,2.3950958E1,2.8499756E1,3.2685432E1,5.516943E1,6.539373E1,0E0,0E0,0E0,0E0,0E0,0E0,0E0,0E0,0E0,0E0,0E0,0E0,0E0,0E0,0E0,0E0],"parents":[2147483647,0,0,1,1,2,2,3,3,4,4,5,5,6,6,7,7,8,8,9,9,10,10,11,11,12,12,13,13,14,14],"right_children":[2,4,6,8,10,12,14,16,18,20,22,24,26,28,30,-1,-1,-1,-1,-1,-1,-1,-1,-1,-1,-1,-1,-1,-1,-1,-1],"split_conditions":[-4.639057E-1,-4.9082077E-1,-3.7926894E-1,-9.528867E-1,1E0,1E0,1E0,-1.2808341E0,-1.7306137E0,-1.7381737E0,3.242402E-2,-1.5175459E0,-1.267593E0,5.416013E-1,1.0424379E0,-1.04718805E-4,-4.5521087E-3,8.330334E-3,8.1940007E-4,9.270165E-3,3.04165E-3,3.8169306E-3,6.9649178E-3,-1.0743185E-2,-5.6803436E-3,-4.89686E-3,-1.6327752E-3,-3.695177E-4,-3.3064866E-3,9.4564294E-4,4.8510036E-3],"split_indices":[2,1,1,5,0,0,0,2,6,10,1,5,1,2,1,0,0,0,0,0,0,0,0,0,0,0,0,0,0,0,0],"split_type":[0,0,0,0,0,0,0,0,0,0,0,0,0,0,0,0,0,0,0,0,0,0,0,0,0,0,0,0,0,0,0],"sum_hessian":[1.1071E4,3.185E3,7.886E3,8.85E2,2.3E3,2.544E3,5.342E3,2.52E2,6.33E2,1.161E3,1.139E3,1.266E3,1.278E3,2.675E3,2.667E3,1.01E2,1.51E2,3.7E1,5.96E2,6.1E1,1.1E3,3.56E2,7.83E2,1.24E2,1.142E3,5.13E2,7.65E2,1.618E3,1.057E3,2.131E3,5.36E2],"tree_param":{"num_deleted":"0","num_feature":"15","num_nodes":"31","size_leaf_vector":"1"}},{"base_weights":[-3.4182456E-3,-3.6881804E-1,1.1675634E-1,-6.1746925E-1,-2.9909763E-1,4.012013E-1,2.0411747E-2,-3.7594253E-1,-7.9229236E-1,-1.5492839E-1,-3.920946E-1,2.0555973E-1,5.806047E-1,-1.2534083E-1,1.708286E-1,2.952397E-3,-5.14781E-3,-5.7880413E-3,-9.134531E-3,2.8061017E-3,-2.2025576E-3,-4.9688797E-3,-2.8105308E-3,3.77047E-3,3.2641026E-4,4.5453478E-3,8.260823E-3,-1.9037863E-3,2.0021012E-3,9.769618E-4,4.3233875E-3],"categories":[],"categories_nodes":[],"categories_segments":[],"categories_sizes":[],"default_left":[0,0,0,0,0,0,0,0,0,0,0,0,0,0,0,0,0,0,0,0,0,0,0,0,0,0,0,0,0,0,0],"id":12,"left_children":[1,3,5,7,9,11,13,15,17,19,21,23,25,27,29,-1,-1,-1,-1,-1,-1,-1,-1,-1,-1,-1,-1,-1,-1,-1,-1],"loss_changes":[4.8526813E2,4.722946E1,2.2788959E2,2.4952377E1,2.860405E1,7.3728455E1,1.3623302E2,2.372802E1,8.421051E0,2.396198E1,1.4976059E1,2.9878265E1,3.357376E1,6.686047E1,5.8441628E1,0E0,0E0,0E0,0E0,0E0,0E0,0E0,0E0,0E0,0E0,0E0,0E0,0E0,0E0,0E0,0E0],"parents":[2147483647,0,0,1,1,2,2,3,3,4,4,5,5,6,6,7,7,8,8,9,9,10,10,11,11,12,12,13,13,14,14],"right_children":[2,4,6,8,10,12,14,16,18,20,22,24,26,28,30,-1,-1,-1,-1,-1,-1,-1,-1,-1,-1,-1,-1,-1,-1,-1,-1],"split_conditions":[-6.085018E-1,-1.1600897E0,-6.6826516E-1,-2.4636732E-1,-2.5486282E-1,1E0,1E0,-9.1519666E-1,-2.5954777E-1,-1.0605998E0,-1.2183646E0,-1.9829786E-1,7.429233E-1,1.1605276E0,9.317033E-1,2.952397E-3,-5.14781E-3,-5.7880413E-3,-9.134531E-3,2.8061017E-3,-2.2025576E-3,-4.9688797E-3,-2.8105308E-3,3.77047E-3,3.2641026E-4,4.5453478E-3,8.260823E-3,-1.9037863E-3,2.0021012E-3,9.769618E-4,4.3233875E-3],"split_indices":[1,7,6,12,14,0,0,14,10,10,1,12,1,1,1,0,0,0,0,0,0,0,0,0,0,0,0,0,0,0,0],"split_type":[0,0,0,0,0,0,0,0,0,0,0,0,0,0,0,0,0,0,0,0,0,0,0,0,0,0,0,0,0,0,0],"sum_hessian":[1.1049E4,2.734E3,8.315E3,5.97E2,2.137E3,2.103E3,6.212E3,2.52E2,3.45E2,8.39E2,1.298E3,1.007E3,1.096E3,3.155E3,3.057E3,4.3E1,2.09E2,1.27E2,2.18E2,1.09E2,7.3E2,6.66E2,6.32E2,5.05E2,5.02E2,7.26E2,3.7E2,2.63E3,5.25E2,2.39E3,6.67E2],"tree_param":{"num_deleted":"0","num_feature":"15","num_nodes":"31","size_leaf_vector":"1"}},{"base_weights":[1.09965E-2,3.5627568E-1,-1.3124351E-1,1.8676402E-2,4.8290342E-1,-4.3868104E-1,1.0988781E-2,1.522508E-1,-2.1828786E-1,7.6105005E-1,4.0638497E-1,-6.3239944E-1,-3.142055E-1,-1.5365157E-1,1.720975E-1,1.2738357E-4,2.9371076E-3,-5.0594015E-3,-8.785212E-4,8.307293E-3,3.5679813E-3,7.1065556E-3,3.3703565E-3,-2.847515E-3,-6.9330363E-3,-4.620489E-3,-1.6769939E-3,-3.5100736E-4,-3.2829035E-3,4.6272128E-4,3.4011423E-3],"categories":[],"categories_nodes":[],"categories_segments":[],"categories_sizes":[],"default_left":[0,0,0,0,0,0,0,0,0,0,0,0,0,0,0,0,0,0,0,0,0,0,0,0,0,0,0,0,0,0,0],"id":13,"left_children":[1,3,5,7,9,11,13,15,17,19,21,23,25,27,29,-1,-1,-1,-1,-1,-1,-1,-1,-1,-1,-1,-1,-1,-1,-1,-1],"loss_changes":[5.430347E2,1.3790063E2,3.4243524E2,2.791896E1,4.962152E1,5.9529694E1,1.420678E2,1.1127041E1,1.1886956E1,1.3928406E1,3.862848E1,2.0298279E1,3.262906E1,5.4832237E1,5.721232E1,0E0,0E0,0E0,0E0,0E0,0E0,0E0,0E0,0E0,0E0,0E0,0E0,0E0,0E0,0E0,0E0],"parents":[2147483647,0,0,1,1,2,2,3,3,4,4,5,5,6,6,7,7,8,8,9,9,10,10,11,11,12,12,13,13,14,14],"right_children":[2,4,6,8,10,12,14,16,18,20,22,24,26,28,30,-1,-1,-1,-1,-1,-1,-1,-1,-1,-1,-1,-1,-1,-1,-1,-1],"split_conditions":[-4.639057E-1,-5.0353324E-1,-3.7926894E-1,-8.743133E-1,-1.1145447E0,-1.3096303E0,1E0,-1.1034596E0,-9.5515835E-1,-7.7272725E-1,-1.1808927E0,-2.0384543E-1,1E0,5.1294565E-1,5.3310627E-1,1.2738357E-4,2.9371076E-3,-5.0594015E-3,-8.785212E-4,8.307293E-3,3.5679813E-3,7.1065556E-3,3.3703565E-3,-2.847515E-3,-6.9330363E-3,-4.620489E-3,-1.6769939E-3,-3.5100736E-4,-3.2829035E-3,4.6272128E-4,3.4011423E-3],"split_indices":[2,1,1,2,8,1,0,1,9,2,6,2,0,2,1,0,0,0,0,0,0,0,0,0,0,0,0,0,0,0,0],"split_type":[0,0,0,0,0,0,0,0,0,0,0,0,0,0,0,0,0,0,0,0,0,0,0,0,0,0,0,0,0,0,0],"sum_hessian":[1.1055E4,3.225E3,7.83E3,8.8E2,2.345E3,2.476E3,5.354E3,5.63E2,3.17E2,5.04E2,1.841E3,9.67E2,1.509E3,2.648E3,2.706E3,2.84E2,2.79E2,9.8E1,2.19E2,4.29E2,7.5E1,3.4E2,1.501E3,1.45E2,8.22E2,7.5E2,7.59E2,1.578E3,1.07E3,1.548E3,1.158E3],"tree_param":{"num_deleted":"0","num_feature":"15","num_nodes":"31","size_leaf_vector":"1"}},{"base_weights":[7.3375884E-3,-3.065428E-1,1.515486E-1,-3.8786396E-2,-4.6590388E-1,5.3024983E-1,3.012415E-2,-1.806423E-1,1.4574495E-1,-6.0249513E-1,-3.319813E-1,9.257663E-1,4.7320792E-1,-1.2123343E-1,1.806304E-1,-3.0053933E-3,-2.3836999E-4,2.1667743E-2,1.3112708E-3,-7.3018633E-3,-4.339541E-3,-5.0430796E-3,-2.176334E-3,1.0010263E-2,2.3493923E-3,3.3441489E-3,6.1072814E-3,-5.7957874E-5,-3.2739853E-3,2.7773592E-3,-5.3608464E-6],"categories":[],"categories_nodes":[],"categories_segments":[],"categories_sizes":[],"default_left":[0,0,0,0,0,0,0,0,0,0,0,0,0,0,0,0,0,0,0,0,0,0,0,0,0,0,0,0,0,0,0],"id":14,"left_children":[1,3,5,7,9,11,13,15,17,19,21,23,25,27,29,-1,-1,-1,-1,-1,-1,-1,-1,-1,-1,-1,-1,-1,-1,-1,-1],"loss_changes":[5.0094904E2,1.4864404E2,3.4867755E2,3.4082428E1,3.975113E1,4.109674E1,1.3084895E2,1.3829994E1,1.6437298E1,2.2926025E1,2.1664497E1,1.1774887E1,3.0544708E1,6.815905E1,5.0665886E1,0E0,0E0,0E0,0E0,0E0,0E0,0E0,0E0,0E0,0E0,0E0,0E0,0E0,0E0,0E0,0E0],"parents":[2147483647,0,0,1,1,2,2,3,3,4,4,5,5,6,6,7,7,8,8,9,9,10,10,11,11,12,12,13,13,14,14],"right_children":[2,4,6,8,10,12,14,16,18,20,22,24,26,28,30,-1,-1,-1,-1,-1,-1,-1,-1,-1,-1,-1,-1,-1,-1,-1,-1],"split_conditions":[-3.7926894E-1,-2.3826517E-1,-6.33606E-1,-9.3505967E-1,1E0,-1.4156779E0,1E0,-6.309789E-1,-2.3962166E0,-9.3505967E-1,-1.2914556E0,-8.4857816E-1,1E0,5.537214E-1,6.2952954E-1,-3.0053933E-3,-2.3836999E-4,2.1667743E-2,1.3112708E-3,-7.3018633E-3,-4.339541E-3,-5.0430796E-3,-2.176334E-3,1.0010263E-2,2.3493923E-3,3.3441489E-3,6.1072814E-3,-5.7957874E-5,-3.2739853E-3,2.7773592E-3,-5.3608464E-6],"split_indices":[1,2,2,1,0,8,0,5,5,1,1,2,0,2,2,0,0,0,0,0,0,0,0,0,0,0,0,0,0,0,0],"split_type":[0,0,0,0,0,0,0,0,0,0,0,0,0,0,0,0,0,0,0,0,0,0,0,0,0,0,0,0,0,0,0],"sum_hessian":[1.1065E4,3.483E3,7.582E3,1.3E3,2.183E3,1.84E3,5.742E3,7.35E2,5.65E2,1.079E3,1.104E3,2.3E2,1.61E3,2.863E3,2.879E3,4.16E2,3.19E2,3E0,5.62E2,6.12E2,4.67E2,4.39E2,6.65E2,2.07E2,2.3E1,8.03E2,8.07E2,1.836E3,1.027E3,1.874E3,1.005E3],"tree_param":{"num_deleted":"0","num_feature":"15","num_nodes":"31","size_leaf_vector":"1"}},{"base_weights":[5.0530145E-3,-3.3225274E-1,1.4070198E-1,-8.476852E-3,-4.648321E-1,4.4945508E-1,-5.582479E-4,1.5459844E-1,-1.694523E-1,-6.1656374E-1,-3.1573087E-1,3.0285278E-1,5.996079E-1,-1.6938642E-1,1.7194843E-1,4.2971972E-4,3.5101785E-3,-1.5211421E-3,-2.1513114E-2,-8.829878E-3,-5.4538366E-3,-5.1259384E-3,-1.9918913E-3,5.979212E-3,2.3868773E-3,1.1330214E-2,5.4334984E-3,-1.3489935E-3,-7.966411E-3,4.5750706E-4,3.6659362E-3],"categories":[],"categories_nodes":[],"categories_segments":[],"categories_sizes":[],"default_left":[0,0,0,0,0,0,0,0,0,0,0,0,0,0,0,0,0,0,0,0,0,0,0,0,0,0,0,0,0,0,0],"id":15,"left_children":[1,3,5,7,9,11,13,15,17,19,21,23,25,27,29,-1,-1,-1,-1,-1,-1,-1,-1,-1,-1,-1,-1,-1,-1,-1,-1],"loss_changes":[5.117726E2,1.3770273E2,3.479134E2,2.451849E1,5.1296112E1,5.4938354E1,1.5945383E2,1.0158398E1,1.582273E1,2.089096E1,2.6282059E1,2.388337E1,3.647522E1,5.9748756E1,6.650195E1,0E0,0E0,0E0,0E0,0E0,0E0,0E0,0E0,0E0,0E0,0E0,0E0,0E0,0E0,0E0,0E0],"parents":[2147483647,0,0,1,1,2,2,3,3,4,4,5,5,6,6,7,7,8,8,9,9,10,10,11,11,12,12,13,13,14,14],"right_children":[2,4,6,8,10,12,14,16,18,20,22,24,26,28,30,-1,-1,-1,-1,-1,-1,-1,-1,-1,-1,-1,-1,-1,-1,-1,-1],"split_conditions":[-4.7681394E-1,-4.639057E-1,-3.7871352E-1,-1.1456351E0,1E0,1E0,1E0,-8.3078825E-1,2.392916E0,-1.1843837E0,-1.4112028E0,-1.1857618E0,-1.542685E0,1.7587969E0,5.471026E-1,4.2971972E-4,3.5101785E-3,-1.5211421E-3,-2.1513114E-2,-8.829878E-3,-5.4538366E-3,-5.1259384E-3,-1.9918913E-3,5.979212E-3,2.3868773E-3,1.1330214E-2,5.4334984E-3,-1.3489935E-3,-7.966411E-3,4.5750706E-4,3.6659362E-3],"split_indices":[1,2,2,2,0,0,0,1,13,5,1,8,6,2,1,0,0,0,0,0,0,0,0,0,0,0,0,0,0,0,0],"split_type":[0,0,0,0,0,0,0,0,0,0,0,0,0,0,0,0,0,0,0,0,0,0,0,0,0,0,0,0,0,0,0],"sum_hessian":[1.1183E4,3.207E3,7.976E3,9.32E2,2.275E3,2.503E3,5.473E3,4.63E2,4.69E2,1.126E3,1.149E3,1.268E3,1.235E3,2.766E3,2.707E3,2.96E2,1.67E2,4.66E2,3E0,2.35E2,8.91E2,4.26E2,7.23E2,2.25E2,1.043E3,1.16E2,1.119E3,2.623E3,1.43E2,1.643E3,1.064E3],"tree_param":{"num_deleted":"0","num_feature":"15","num_nodes":"31","size_leaf_vector":"1"}},{"base_weights":[-8.492261E-3,3.0033028E-1,-1.4734253E-1,2.8102802E-2,4.6311474E-1,-4.2264932E-1,-2.0093326E-2,1.7947601E-1,-1.8704484E-1,3.2205102E-1,6.0360956E-1,-5.7661515E-1,-2.7893808E-1,-1.8791981E-1,1.5062779E-1,4.2309915E-3,8.761855E-4,-2.4717776E-3,3.8916152E-3,5.3523863E-3,2.349376E-3,1.1476888E-2,5.4710796E-3,-9.180173E-3,-5.011418E-3,-5.4560783E-3,-2.1239296E-3,-5.0125443E-3,-1.2531067E-3,3.3924135E-4,3.0115242E-3],"categories":[],"categories_nodes":[],"categories_segments":[],"categories_sizes":[],"default_left":[0,0,0,0,0,0,0,0,0,0,0,0,0,0,0,0,0,0,0,0,0,0,0,0,0,0,0,0,0,0,0],"id":16,"left_children":[1,3,5,7,9,11,13,15,17,19,21,23,25,27,29,-1,-1,-1,-1,-1,-1,-1,-1,-1,-1,-1,-1,-1,-1,-1,-1],"loss_changes":[4.688095E2,1.5025708E2,2.6420715E2,4.13944E1,4.186093E1,5.258899E1,1.4784152E2,1.6657364E1,1.828691E1,1.9578613E1,3.201938E1,2.9171783E1,2.1799911E1,5.0982216E1,4.4925606E1,0E0,0E0,0E0,0E0,0E0,0E0,0E0,0E0,0E0,0E0,0E0,0E0,0E0,0E0,0E0,0E0],"parents":[2147483647,0,0,1,1,2,2,3,3,4,4,5,5,6,6,7,7,8,8,9,9,10,10,11,11,12,12,13,13,14,14],"right_children":[2,4,6,8,10,12,14,16,18,20,22,24,26,28,30,-1,-1,-1,-1,-1,-1,-1,-1,-1,-1,-1,-1,-1,-1,-1,-1],"split_conditions":[-4.0446335E-1,-2.3501432E-1,-3.7926894E-1,-9.060081E-1,1E0,1E0,1E0,-1.0397615E0,5.090661E-1,-8.024828E-1,-1.542685E0,-1.2246861E0,-1.1199158E0,-6.695461E-1,4.8585358E-1,4.2309915E-3,8.761855E-4,-2.4717776E-3,3.8916152E-3,5.3523863E-3,2.349376E-3,1.1476888E-2,5.4710796E-3,-9.180173E-3,-5.011418E-3,-5.4560783E-3,-2.1239296E-3,-5.0125443E-3,-1.2531067E-3,3.3924135E-4,3.0115242E-3],"split_indices":[2,1,1,2,0,0,0,10,7,14,6,5,7,5,1,0,0,0,0,0,0,0,0,0,0,0,0,0,0,0,0],"split_type":[0,0,0,0,0,0,0,0,0,0,0,0,0,0,0,0,0,0,0,0,0,0,0,0,0,0,0,0,0,0,0],"sum_hessian":[1.0931E4,3.39E3,7.541E3,1.269E3,2.121E3,2.383E3,5.158E3,7.45E2,5.24E2,1.06E3,1.061E3,1.149E3,1.234E3,2.601E3,2.557E3,2.03E2,5.42E2,4.75E2,4.9E1,3.06E2,7.54E2,9.8E1,9.63E2,2.06E2,9.43E2,2.45E2,9.89E2,4.32E2,2.169E3,1.441E3,1.116E3],"tree_param":{"num_deleted":"0","num_feature":"15","num_nodes":"31","size_leaf_vector":"1"}},{"base_weights":[7.722201E-3,3.351173E-1,-1.1942691E-1,5.58369E-1,2.5443274E-1,-3.2992464E-1,-1.8304357E-2,3.1743914E-1,7.147697E-1,-9.590623E-2,3.0077177E-1,-7.371444E-1,-2.2879933E-1,-1.4536062E-1,1.0464949E-1,4.607027E-3,-1.5422928E-3,4.943543E-3,9.144738E-3,-6.790264E-3,8.178671E-4,4.5452593E-3,2.1454517E-3,-9.117979E-3,-5.407702E-3,-4.018783E-3,-5.4149335E-4,-3.393444E-3,-5.650065E-4,-6.748371E-4,1.8463789E-3],"categories":[],"categories_nodes":[],"categories_segments":[],"categories_sizes":[],"default_left":[0,0,0,0,0,0,0,0,0,0,0,0,0,0,0,0,0,0,0,0,0,0,0,0,0,0,0,0,0,0,0],"id":17,"left_children":[1,3,5,7,9,11,13,15,17,19,21,23,25,27,29,-1,-1,-1,-1,-1,-1,-1,-1,-1,-1,-1,-1,-1,-1,-1,-1],"loss_changes":[4.5790643E2,5.5283783E1,1.6864348E2,3.0521286E1,3.6750977E1,1.0570569E2,8.3640076E1,2.1897102E1,2.129277E1,2.7513866E1,2.6391373E1,1.7032928E1,6.227865E1,4.5366886E1,3.7476982E1,0E0,0E0,0E0,0E0,0E0,0E0,0E0,0E0,0E0,0E0,0E0,0E0,0E0,0E0,0E0,0E0],"parents":[2147483647,0,0,1,1,2,2,3,3,4,4,5,5,6,6,7,7,8,8,9,9,10,10,11,11,12,12,13,13,14,14],"right_children":[2,4,6,8,10,12,14,16,18,20,22,24,26,28,30,-1,-1,-1,-1,-1,-1,-1,-1,-1,-1,-1,-1,-1,-1,-1,-1],"split_conditions":[-4.8754752E-1,-1.0142698E0,-5.0628597E-1,-2.2230196E-1,-1.025241E0,-9.899979E-1,1E0,-8.743133E-1,1E0,-9.6445096E-1,-8.392271E-1,1E0,1E0,-3.6670434E-1,-3.565307E-1,4.607027E-3,-1.5422928E-3,4.943543E-3,9.144738E-3,-6.790264E-3,8.178671E-4,4.5452593E-3,2.1454517E-3,-9.117979E-3,-5.407702E-3,-4.018783E-3,-5.4149335E-4,-3.393444E-3,-5.650065E-4,-6.748371E-4,1.8463789E-3],"split_indices":[2,8,5,11,9,7,0,2,0,5,6,0,0,9,11,0,0,0,0,0,0,0,0,0,0,0,0,0,0,0,0],"split_type":[0,0,0,0,0,0,0,0,0,0,0,0,0,0,0,0,0,0,0,0,0,0,0,0,0,0,0,0,0,0,0],"sum_hessian":[1.0998E4,3.076E3,7.922E3,8.15E2,2.261E3,2.57E3,5.352E3,3.22E2,4.93E2,2.64E2,1.997E3,5.1E2,2.06E3,2.632E3,2.72E3,2.47E2,7.5E1,2.36E2,2.57E2,6.1E1,2.03E2,7.16E2,1.281E3,2.68E2,2.42E2,1.034E3,1.026E3,8.26E2,1.806E3,8.63E2,1.857E3],"tree_param":{"num_deleted":"0","num_feature":"15","num_nodes":"31","size_leaf_vector":"1"}},{"base_weights":[-4.130448E-3,-2.9457825E-1,1.298993E-1,-4.23003E-1,-1.3206565E-1,3.739538E-1,2.8166547E-2,-7.166052E-1,-3.6337012E-1,8.4132396E-2,-2.628619E-1,1.9449626E-1,5.467456E-1,-1.001095E-1,1.5964247E-1,-1.1305718E-2,-6.234917E-3,-2.1916656E-3,-4.723399E-3,6.4547337E-3,3.7023707E-4,-2.0096358E-3,-5.340159E-3,5.4232976E-3,9.5470203E-4,4.114811E-3,8.2015265E-3,1.5277321E-4,-2.5383905E-3,1.3300305E-3,6.3742828E-3],"categories":[],"categories_nodes":[],"categories_segments":[],"categories_sizes":[],"default_left":[0,0,0,0,0,0,0,0,0,0,0,0,0,0,0,0,0,0,0,0,0,0,0,0,0,0,0,0,0,0,0],"id":18,"left_children":[1,3,5,7,9,11,13,15,17,19,21,23,25,27,29,-1,-1,-1,-1,-1,-1,-1,-1,-1,-1,-1,-1,-1,-1,-1,-1],"loss_changes":[4.3027762E2,7.278265E1,1.8776613E2,3.3863342E1,4.3626625E1,6.8888214E1,9.005936E1,1.1938156E1,2.5384338E1,1.5366533E1,1.602208E1,3.759615E1,4.1563446E1,4.795068E1,3.3478767E1,0E0,0E0,0E0,0E0,0E0,0E0,0E0,0E0,0E0,0E0,0E0,0E0,0E0,0E0,0E0,0E0],"parents":[2147483647,0,0,1,1,2,2,3,3,4,4,5,5,6,6,7,7,8,8,9,9,10,10,11,11,12,12,13,13,14,14],"right_children":[2,4,6,8,10,12,14,16,18,20,22,24,26,28,30,-1,-1,-1,-1,-1,-1,-1,-1,-1,-1,-1,-1,-1,-1,-1,-1],"split_conditions":[-3.7926894E-1,-9.7013825E-1,-5.5485034E-1,-1.4098002E0,-2.7355468E-1,1E0,1E0,-1.2012649E0,-1.4223091E-1,-1.4407146E0,8.478459E-1,-8.3034E-1,7.6481944E-1,1.4503883E-1,1.7617114E0,-1.1305718E-2,-6.234917E-3,-2.1916656E-3,-4.723399E-3,6.4547337E-3,3.7023707E-4,-2.0096358E-3,-5.340159E-3,5.4232976E-3,9.5470203E-4,4.114811E-3,8.2015265E-3,1.5277321E-4,-2.5383905E-3,1.3300305E-3,6.3742828E-3],"split_indices":[1,1,6,5,12,0,0,13,14,6,10,14,1,10,1,0,0,0,0,0,0,0,0,0,0,0,0,0,0,0,0],"split_type":[0,0,0,0,0,0,0,0,0,0,0,0,0,0,0,0,0,0,0,0,0,0,0,0,0,0,0,0,0,0,0],"sum_hessian":[1.1051E4,3.489E3,7.562E3,1.948E3,1.541E3,2.224E3,5.338E3,3.27E2,1.621E3,5.81E2,9.6E2,1.092E3,1.132E3,2.702E3,2.636E3,5.8E1,2.69E2,6.99E2,9.22E2,4.4E1,5.37E2,7.83E2,1.77E2,2.41E2,8.51E2,7.59E2,3.73E2,1.544E3,1.158E3,2.498E3,1.38E2],"tree_param":{"num_deleted":"0","num_feature":"15","num_nodes":"31","size_leaf_vector":"1"}},{"base_weights":[-2.8261282E-3,3.0617893E-1,-1.3907458E-1,-1.811845E-3,4.2371902E-1,-4.908676E-1,-2.753896E-2,1.7503054E-1,-1.5769939E-1,7.4023056E-1,3.470221E-1,-4.1220358E-1,-7.167391E-1,-1.8305784E-1,1.2782942E-1,3.69637E-4,3.9968453E-3,-1.269249E-3,-9.268603E-3,8.195397E-3,3.240265E-3,1.9823087E-3,5.0270767E-3,-5.3257947E-3,-3.0035442E-3,-7.864151E-3,-3.2131686E-3,-3.12693E-3,9.342368E-5,3.389416E-4,3.1692644E-3],"categories":[],"categories_nodes":[],"categories_segments":[],"categories_sizes":[],"default_left":[0,0,0,0,0,0,0,0,0,0,0,0,0,0,0,0,0,0,0,0,0,0,0,0,0,0,0,0,0,0,0],"id":19,"left_children":[1,3,5,7,9,11,13,15,17,19,21,23,25,27,29,-1,-1,-1,-1,-1,-1,-1,-1,-1,-1,-1,-1,-1,-1,-1,-1],"loss_changes":[4.657268E2,1.2254205E2,3.012124E2,2.5830807E1,5.9217987E1,3.2539764E1,1.4089204E2,1.3601808E1,1.1670289E1,1.5479645E1,4.562735E1,1.8326035E1,1.2861801E1,7.268343E1,5.180358E1,0E0,0E0,0E0,0E0,0E0,0E0,0E0,0E0,0E0,0E0,0E0,0E0,0E0,0E0,0E0,0E0],"parents":[2147483647,0,0,1,1,2,2,3,3,4,4,5,5,6,6,7,7,8,8,9,9,10,10,11,11,12,12,13,13,14,14],"right_children":[2,4,6,8,10,12,14,16,18,20,22,24,26,28,30,-1,-1,-1,-1,-1,-1,-1,-1,-1,-1,-1,-1,-1,-1,-1,-1],"split_conditions":[-4.0446335E-1,-4.9082077E-1,-6.253417E-1,-1.1456351E0,-1.2022239E0,9.4785005E-1,1E0,-8.760083E-1,1.1632346E0,4.3524012E-1,1E0,1E0,2.4446364E-1,4.626136E-1,6.119361E-1,3.69637E-4,3.9968453E-3,-1.269249E-3,-9.268603E-3,8.195397E-3,3.240265E-3,1.9823087E-3,5.0270767E-3,-5.3257947E-3,-3.0035442E-3,-7.864151E-3,-3.2131686E-3,-3.12693E-3,9.342368E-5,3.389416E-4,3.1692644E-3],"split_indices":[2,1,1,2,6,2,0,1,8,14,0,0,9,1,1,0,0,0,0,0,0,0,0,0,0,0,0,0,0,0,0],"split_type":[0,0,0,0,0,0,0,0,0,0,0,0,0,0,0,0,0,0,0,0,0,0,0,0,0,0,0,0,0,0,0],"sum_hessian":[1.106E4,3.384E3,7.676E3,9.35E2,2.449E3,1.847E3,5.829E3,4.38E2,4.97E2,4.76E2,1.973E3,1.372E3,4.75E2,2.913E3,2.916E3,2.72E2,1.66E2,4.79E2,1.8E1,3.99E2,7.7E1,1.01E3,9.63E2,6.59E2,7.13E2,4.03E2,7.2E1,1.74E3,1.173E3,1.949E3,9.67E2],"tree_param":{"num_deleted":"0","num_feature":"15","num_nodes":"31","size_leaf_vector":"1"}},{"base_weights":[8.832664E-3,3.1933782E-1,-1.303196E-1,-1.5384462E-2,4.3815503E-1,-5.215552E-1,-2.4708675E-2,1.6808775E-1,-1.5161747E-1,7.3072773E-1,3.632959E-1,-8.496543E-1,-4.5299527E-1,-1.6903009E-1,1.241771E-1,8.0422586E-4,3.627955E-3,-4.903338E-3,-4.9189955E-4,8.157185E-3,4.171056E-3,2.3026827E-3,5.041614E-3,-1.2726439E-2,-7.3235417E-3,-5.9084836E-3,-3.1793052E-3,-2.8699148E-3,5.2754395E-4,2.4423047E-5,2.7351428E-3],"categories":[],"categories_nodes":[],"categories_segments":[],"categories_sizes":[],"default_left":[0,0,0,0,0,0,0,0,0,0,0,0,0,0,0,0,0,0,0,0,0,0,0,0,0,0,0,0,0,0,0],"id":20,"left_children":[1,3,5,7,9,11,13,15,17,19,21,23,25,27,29,-1,-1,-1,-1,-1,-1,-1,-1,-1,-1,-1,-1,-1,-1,-1,-1],"loss_changes":[4.7541046E2,1.3542624E2,3.1392697E2,2.2345993E1,5.477353E1,3.5943665E1,1.2860161E2,6.474145E0,1.7773838E1,1.3280457E1,3.741812E1,1.2861435E1,2.4724487E1,7.952147E1,5.355624E1,0E0,0E0,0E0,0E0,0E0,0E0,0E0,0E0,0E0,0E0,0E0,0E0,0E0,0E0,0E0,0E0],"parents":[2147483647,0,0,1,1,2,2,3,3,4,4,5,5,6,6,7,7,8,8,9,9,10,10,11,11,12,12,13,13,14,14],"right_children":[2,4,6,8,10,12,14,16,18,20,22,24,26,28,30,-1,-1,-1,-1,-1,-1,-1,-1,-1,-1,-1,-1,-1,-1,-1,-1],"split_conditions":[-4.0446335E-1,-5.3595E-1,-7.381689E-1,-1.2347987E0,-1.131721E0,-1.3117473E0,1E0,-1.8020718E-1,-1.0604879E0,-1.879301E-3,1E0,-5.7731956E-2,1E0,5.770258E-1,3.43625E-1,8.0422586E-4,3.627955E-3,-4.903338E-3,-4.9189955E-4,8.157185E-3,4.171056E-3,2.3026827E-3,5.041614E-3,-1.2726439E-2,-7.3235417E-3,-5.9084836E-3,-3.1793052E-3,-2.8699148E-3,5.2754395E-4,2.4423047E-5,2.7351428E-3],"split_indices":[2,1,1,2,8,7,0,7,9,6,0,3,0,1,1,0,0,0,0,0,0,0,0,0,0,0,0,0,0,0,0],"split_type":[0,0,0,0,0,0,0,0,0,0,0,0,0,0,0,0,0,0,0,0,0,0,0,0,0,0,0,0,0,0,0],"sum_hessian":[1.1001E4,3.404E3,7.597E3,8.92E2,2.512E3,1.614E3,5.983E3,3.8E2,5.12E2,5.1E2,2.002E3,2.77E2,1.337E3,3.038E3,2.945E3,2.63E2,1.17E2,1.18E2,3.94E2,4E2,1.1E2,1.031E3,9.71E2,5.8E1,2.19E2,6.6E2,6.77E2,1.983E3,1.055E3,1.623E3,1.322E3],"tree_param":{"num_deleted":"0","num_feature":"15","num_nodes":"31","size_leaf_vector":"1"}},{"base_weights":[-7.145328E-3,3.4398907E-1,-1.1934672E-1,5.2003615E-2,4.9258304E-1,-4.8131144E-1,-2.4933951E-2,-1.8203522E-1,1.4260058E-1,3.7334743E-1,6.127462E-1,-7.8380406E-1,-3.683033E-1,-1.7254396E-1,1.2464876E-1,-5.1261866E-3,-1.7617318E-4,5.892886E-3,1.0297152E-3,5.5170595E-3,2.777261E-3,1.070021E-2,5.556071E-3,-1.01794405E-2,-6.623597E-3,-8.741489E-3,-3.347812E-3,-4.7374002E-4,-3.6490946E-3,1.8053401E-4,3.1458505E-3],"categories":[],"categories_nodes":[],"categories_segments":[],"categories_sizes":[],"default_left":[0,0,0,0,0,0,0,0,0,0,0,0,0,0,0,0,0,0,0,0,0,0,0,0,0,0,0,0,0,0,0],"id":21,"left_children":[1,3,5,7,9,11,13,15,17,19,21,23,25,27,29,-1,-1,-1,-1,-1,-1,-1,-1,-1,-1,-1,-1,-1,-1,-1,-1],"loss_changes":[4.3601678E2,1.1625226E2,2.866061E2,1.9214863E1,2.5217285E1,5.9020782E1,1.4691911E2,1.374249E1,1.1498613E1,1.5093834E1,2.2476715E1,1.2718628E1,2.1157974E1,8.0621216E1,6.690843E1,0E0,0E0,0E0,0E0,0E0,0E0,0E0,0E0,0E0,0E0,0E0,0E0,0E0,0E0,0E0,0E0],"parents":[2147483647,0,0,1,1,2,2,3,3,4,4,5,5,6,6,7,7,8,8,9,9,10,10,11,11,12,12,13,13,14,14],"right_children":[2,4,6,8,10,12,14,16,18,20,22,24,26,28,30,-1,-1,-1,-1,-1,-1,-1,-1,-1,-1,-1,-1,-1,-1,-1,-1],"split_conditions":[-6.1994183E-1,-3.275565E-1,-7.763744E-1,-9.6445096E-1,1E0,-1.0682398E0,1E0,-9.070647E-1,-1.5748657E0,-8.120905E-1,-1.542685E0,-1.5940434E0,-1.6818056E0,4.8876405E-1,5.3310627E-1,-5.1261866E-3,-1.7617318E-4,5.892886E-3,1.0297152E-3,5.5170595E-3,2.777261E-3,1.070021E-2,5.556071E-3,-1.01794405E-2,-6.623597E-3,-8.741489E-3,-3.347812E-3,-4.7374002E-4,-3.6490946E-3,1.8053401E-4,3.1458505E-3],"split_indices":[2,1,1,5,0,7,0,9,6,12,6,7,11,2,1,0,0,0,0,0,0,0,0,0,0,0,0,0,0,0,0],"split_type":[0,0,0,0,0,0,0,0,0,0,0,0,0,0,0,0,0,0,0,0,0,0,0,0,0,0,0,0,0,0,0],"sum_hessian":[1.1065E4,2.679E3,8.386E3,9.04E2,1.775E3,1.734E3,6.652E3,2.52E2,6.52E2,8.93E2,8.82E2,4.7E2,1.264E3,3.348E3,3.304E3,8.3E1,1.69E2,5.2E1,6E2,3.1E2,5.83E2,9.6E1,7.86E2,1.58E2,3.12E2,7.7E1,1.187E3,2.029E3,1.319E3,2.117E3,1.187E3],"tree_param":{"num_deleted":"0","num_feature":"15","num_nodes":"31","size_leaf_vector":"1"}},{"base_weights":[-3.6054598E-3,-3.8043445E-1,9.449506E-2,-1.2154889E-1,-5.3788286E-1,3.8932794E-1,-2.4355372E-2,9.748197E-2,-2.2320797E-1,-9.8904246E-1,-4.772962E-1,6.5198326E-1,3.1346565E-1,-1.7462085E-1,1.23756155E-1,-5.002304E-4,4.0299823E-3,-8.882808E-3,-1.8830578E-3,-1.4973885E-2,-8.04785E-3,-5.9963474E-3,-3.573033E-3,9.471825E-3,5.2413214E-3,2.1253212E-3,4.6576494E-3,-5.4488756E-4,-3.4244582E-3,-2.4449106E-4,2.9330999E-3],"categories":[],"categories_nodes":[],"categories_segments":[],"categories_sizes":[],"default_left":[0,0,0,0,0,0,0,0,0,0,0,0,0,0,0,0,0,0,0,0,0,0,0,0,0,0,0,0,0,0,0],"id":22,"left_children":[1,3,5,7,9,11,13,15,17,19,21,23,25,27,29,-1,-1,-1,-1,-1,-1,-1,-1,-1,-1,-1,-1,-1,-1,-1,-1],"loss_changes":[4.0589792E2,9.238089E1,3.0528683E2,1.9148663E1,3.8069214E1,4.9669464E1,1.3823169E2,1.2322953E1,1.3458462E1,1.4343567E1,1.8062042E1,2.063881E1,2.9784363E1,6.2138214E1,7.860996E1,0E0,0E0,0E0,0E0,0E0,0E0,0E0,0E0,0E0,0E0,0E0,0E0,0E0,0E0,0E0,0E0],"parents":[2147483647,0,0,1,1,2,2,3,3,4,4,5,5,6,6,7,7,8,8,9,9,10,10,11,11,12,12,13,13,14,14],"right_children":[2,4,6,8,10,12,14,16,18,20,22,24,26,28,30,-1,-1,-1,-1,-1,-1,-1,-1,-1,-1,-1,-1,-1,-1,-1,-1],"split_conditions":[-7.763744E-1,-2.2866936E-1,-4.73908E-1,-1.2347987E0,-1.5021338E0,-1.0976139E0,1E0,-2.9597494E-1,-1.7638123E0,-5.7731956E-2,1E0,-8.6730886E-1,4.8585358E-1,4.8876405E-1,3.014832E-1,-5.002304E-4,4.0299823E-3,-8.882808E-3,-1.8830578E-3,-1.4973885E-2,-8.04785E-3,-5.9963474E-3,-3.573033E-3,9.471825E-3,5.2413214E-3,2.1253212E-3,4.6576494E-3,-5.4488756E-4,-3.4244582E-3,-2.4449106E-4,2.9330999E-3],"split_indices":[1,2,2,2,7,8,0,7,7,3,0,14,1,2,1,0,0,0,0,0,0,0,0,0,0,0,0,0,0,0,0],"split_type":[0,0,0,0,0,0,0,0,0,0,0,0,0,0,0,0,0,0,0,0,0,0,0,0,0,0,0,0,0,0,0],"sum_hessian":[1.0978E4,2.267E3,8.711E3,8.58E2,1.409E3,2.502E3,6.209E3,2.72E2,5.86E2,1.65E2,1.244E3,5.59E2,1.943E3,3.082E3,3.127E3,1.84E2,8.8E1,2.8E1,5.58E2,4.2E1,1.23E2,6.14E2,6.3E2,1.67E2,3.92E2,1.17E3,7.73E2,1.797E3,1.285E3,1.669E3,1.458E3],"tree_param":{"num_deleted":"0","num_feature":"15","num_nodes":"31","size_leaf_vector":"1"}},{"base_weights":[-1.2909478E-3,3.4307826E-1,-1.0717919E-1,4.3506956E-1,1.7522825E-1,-4.0569308E-1,-3.7473083E-2,6.9311595E-1,3.7635404E-1,-2.2035618E-1,2.4493355E-1,-6.084942E-1,-2.0264113E-1,2.724154E-2,-2.8735244E-1,6.075282E-3,1.0668516E-2,5.7999203E-3,2.9319185E-3,-7.849687E-3,-1.2521067E-3,1.8851327E-3,6.618785E-3,-4.364222E-3,-7.703928E-3,-4.588841E-3,-1.291072E-3,-1.2696553E-3,9.799777E-4,-6.8899426E-3,-2.3162449E-3],"categories":[],"categories_nodes":[],"categories_segments":[],"categories_sizes":[],"default_left":[0,0,0,0,0,0,0,0,0,0,0,0,0,0,0,0,0,0,0,0,0,0,0,0,0,0,0,0,0,0,0],"id":23,"left_children":[1,3,5,7,9,11,13,15,17,19,21,23,25,27,29,-1,-1,-1,-1,-1,-1,-1,-1,-1,-1,-1,-1,-1,-1,-1,-1],"loss_changes":[4.0701874E2,4.045572E1,1.7762476E2,2.5420654E1,2.5725672E1,6.642221E1,1.1194244E2,9.363846E0,2.3251022E1,7.4225607E0,1.8506351E1,2.2173218E1,1.518438E1,6.0012646E1,3.1713348E1,0E0,0E0,0E0,0E0,0E0,0E0,0E0,0E0,0E0,0E0,0E0,0E0,0E0,0E0,0E0,0E0],"parents":[2147483647,0,0,1,1,2,2,3,3,4,4,5,5,6,6,7,7,8,8,9,9,10,10,11,11,12,12,13,13,14,14],"right_children":[2,4,6,8,10,12,14,16,18,20,22,24,26,28,30,-1,-1,-1,-1,-1,-1,-1,-1,-1,-1,-1,-1,-1,-1,-1,-1],"split_conditions":[-6.33606E-1,-1.1224453E0,-8.275437E-1,-1.3618377E0,-9.0527016E-1,-3.9635015E-1,9.7655797E-1,7.364227E-1,-1.0792664E0,-1.2463987E0,1.1415664E0,1.0648788E-1,-1.4450694E0,-3.4888533E-1,-1.0116506E0,6.075282E-3,1.0668516E-2,5.7999203E-3,2.9319185E-3,-7.849687E-3,-1.2521067E-3,1.8851327E-3,6.618785E-3,-4.364222E-3,-7.703928E-3,-4.588841E-3,-1.291072E-3,-1.2696553E-3,9.799777E-4,-6.8899426E-3,-2.3162449E-3],"split_indices":[2,2,5,8,13,7,2,11,10,5,11,14,5,11,9,0,0,0,0,0,0,0,0,0,0,0,0,0,0,0,0],"split_type":[0,0,0,0,0,0,0,0,0,0,0,0,0,0,0,0,0,0,0,0,0,0,0,0,0,0,0,0,0,0,0],"sum_hessian":[1.116E4,2.624E3,8.536E3,1.694E3,9.3E2,1.615E3,6.921E3,3.12E2,1.382E3,1.39E2,7.91E2,8.07E2,8.08E2,5.498E3,1.423E3,2.56E2,5.6E1,3.99E2,9.83E2,1.9E1,1.2E2,6.98E2,9.3E1,3.93E2,4.14E2,1.79E2,6.29E2,1.729E3,3.769E3,1.72E2,1.251E3],"tree_param":{"num_deleted":"0","num_feature":"15","num_nodes":"31","size_leaf_vector":"1"}},{"base_weights":[8.656822E-3,3.1506702E-1,-1.0959704E-1,-9.980463E-2,4.049817E-1,-3.9545584E-1,2.2281209E-2,-3.7855643E-1,2.6561407E-2,5.0462294E-1,2.4256606E-1,-5.3533316E-1,-2.5900108E-1,-8.625965E-2,1.9766587E-1,8.282963E-4,-4.894881E-3,3.291775E-3,-6.91491E-4,9.267642E-3,4.6312064E-3,1.2897882E-3,4.3642092E-3,-6.903477E-3,-3.8218736E-3,-5.55176E-3,-1.9733314E-3,-2.314694E-3,5.4834754E-4,3.1790324E-3,7.925044E-5],"categories":[],"categories_nodes":[],"categories_segments":[],"categories_sizes":[],"default_left":[0,0,0,0,0,0,0,0,0,0,0,0,0,0,0,0,0,0,0,0,0,0,0,0,0,0,0,0,0,0,0],"id":24,"left_children":[1,3,5,7,9,11,13,15,17,19,21,23,25,27,29,-1,-1,-1,-1,-1,-1,-1,-1,-1,-1,-1,-1,-1,-1,-1,-1],"loss_changes":[3.997339E2,1.1463544E2,3.0008936E2,1.9313225E1,4.0740417E1,4.7826813E1,1.0372736E2,8.792723E0,1.0970982E1,2.6971832E1,2.1126411E1,2.9173553E1,2.3159409E1,6.897626E1,4.751892E1,0E0,0E0,0E0,0E0,0E0,0E0,0E0,0E0,0E0,0E0,0E0,0E0,0E0,0E0,0E0,0E0],"parents":[2147483647,0,0,1,1,2,2,3,3,4,4,5,5,6,6,7,7,8,8,9,9,10,10,11,11,12,12,13,13,14,14],"right_children":[2,4,6,8,10,12,14,16,18,20,22,24,26,28,30,-1,-1,-1,-1,-1,-1,-1,-1,-1,-1,-1,-1,-1,-1,-1,-1],"split_conditions":[-4.8754752E-1,-8.5026556E-1,-3.7926894E-1,-1.0418472E0,-9.91828E-1,1E0,6.247978E-1,-5.7559405E-2,-1.021602E0,-1.6276007E0,5.2145416E-1,-1.127715E0,-1.1960043E0,1E0,5.537214E-1,8.282963E-4,-4.894881E-3,3.291775E-3,-6.91491E-4,9.267642E-3,4.6312064E-3,1.2897882E-3,4.3642092E-3,-6.903477E-3,-3.8218736E-3,-5.55176E-3,-1.9733314E-3,-2.314694E-3,5.4834754E-4,3.1790324E-3,7.925044E-5],"split_indices":[2,1,1,9,2,0,1,4,10,8,1,1,7,0,2,0,0,0,0,0,0,0,0,0,0,0,0,0,0,0,0],"split_type":[0,0,0,0,0,0,0,0,0,0,0,0,0,0,0,0,0,0,0,0,0,0,0,0,0,0,0,0,0,0,0],"sum_hessian":[1.103E4,3.071E3,7.959E3,5.47E2,2.524E3,2.512E3,5.447E3,1.7E2,3.77E2,1.563E3,9.61E2,1.239E3,1.273E3,3.365E3,2.082E3,3.3E1,1.37E2,9E1,2.87E2,1.38E2,1.425E3,6.07E2,3.54E2,6.14E2,6.25E2,2.18E2,1.055E3,1.658E3,1.707E3,1.274E3,8.08E2],"tree_param":{"num_deleted":"0","num_feature":"15","num_nodes":"31","size_leaf_vector":"1"}},{"base_weights":[5.0410423E-3,3.123822E-1,-1.1820928E-1,-2.1381744E-3,4.351906E-1,-4.069074E-1,3.823617E-5,-2.5889838E-1,1.02199525E-1,7.42884E-1,3.522057E-1,-6.5391415E-1,-3.4312832E-1,-1.4910933E-1,1.4742924E-1,-3.6142597E-3,1.6030907E-3,2.051413E-3,-1.6901238E-4,-4.763876E-4,7.882611E-3,2.3297719E-3,4.7455663E-3,-8.336569E-3,-4.69822E-3,-6.0088057E-3,-2.888078E-3,-5.255796E-4,-3.7344417E-3,4.528752E-4,3.3847992E-3],"categories":[],"categories_nodes":[],"categories_segments":[],"categories_sizes":[],"default_left":[0,0,0,0,0,0,0,0,0,0,0,0,0,0,0,0,0,0,0,0,0,0,0,0,0,0,0,0,0,0,0],"id":25,"left_children":[1,3,5,7,9,11,13,15,17,19,21,23,25,27,29,-1,-1,-1,-1,-1,-1,-1,-1,-1,-1,-1,-1,-1,-1,-1,-1],"loss_changes":[4.1660217E2,1.2159476E2,2.67982E2,2.3735407E1,5.754709E1,3.5710205E1,1.22467354E2,1.1060905E1,7.727548E0,1.7255981E1,2.5928513E1,1.5061005E1,2.5238693E1,5.9956463E1,5.466359E1,0E0,0E0,0E0,0E0,0E0,0E0,0E0,0E0,0E0,0E0,0E0,0E0,0E0,0E0,0E0,0E0],"parents":[2147483647,0,0,1,1,2,2,3,3,4,4,5,5,6,6,7,7,8,8,9,9,10,10,11,11,12,12,13,13,14,14],"right_children":[2,4,6,8,10,12,14,16,18,20,22,24,26,28,30,-1,-1,-1,-1,-1,-1,-1,-1,-1,-1,-1,-1,-1,-1,-1,-1],"split_conditions":[-4.73908E-1,-4.7681394E-1,-4.7681394E-1,-9.6445096E-1,-1.131721E0,-1.1843837E0,1E0,-8.3078825E-1,-1.1224453E0,-1.2518772E0,1E0,1E0,-1.2179157E0,7.560829E-1,6.472621E-1,-3.6142597E-3,1.6030907E-3,2.051413E-3,-1.6901238E-4,-4.763876E-4,7.882611E-3,2.3297719E-3,4.7455663E-3,-8.336569E-3,-4.69822E-3,-6.0088057E-3,-2.888078E-3,-5.255796E-4,-3.7344417E-3,4.528752E-4,3.3847992E-3],"split_indices":[2,1,1,5,8,5,0,1,2,13,0,0,7,2,1,0,0,0,0,0,0,0,0,0,0,0,0,0,0,0,0],"split_type":[0,0,0,0,0,0,0,0,0,0,0,0,0,0,0,0,0,0,0,0,0,0,0,0,0,0,0,0,0,0,0],"sum_hessian":[1.0996E4,3.147E3,7.849E3,8.84E2,2.263E3,2.28E3,5.569E3,2.55E2,6.29E2,4.79E2,1.784E3,4.66E2,1.814E3,2.768E3,2.801E3,2.05E2,5E1,3.37E2,2.92E2,2.6E1,4.53E2,9.05E2,8.79E2,2.34E2,2.32E2,3.14E2,1.5E3,1.936E3,8.32E2,1.826E3,9.75E2],"tree_param":{"num_deleted":"0","num_feature":"15","num_nodes":"31","size_leaf_vector":"1"}},{"base_weights":[7.106133E-3,-1.2772767E-1,1.413721E-1,-3.98934E-1,-4.7186933E-2,4.5217052E-1,6.802545E-2,-1.9916257E-1,-5.698703E-1,3.1548694E-1,-9.107037E-2,6.8359566E-1,2.7392864E-1,-5.9030183E-2,1.9765721E-1,1.348005E-3,-3.0747356E-3,-7.5606857E-3,-3.0488106E-3,5.7996875E-3,1.6102878E-3,-1.7666335E-3,7.889428E-4,8.5312E-3,4.771917E-3,-1.9875173E-3,3.8101126E-3,-3.013435E-3,2.670882E-4,3.077938E-3,5.2691123E-4],"categories":[],"categories_nodes":[],"categories_segments":[],"categories_sizes":[],"default_left":[0,0,0,0,0,0,0,0,0,0,0,0,0,0,0,0,0,0,0,0,0,0,0,0,0,0,0,0,0,0,0],"id":26,"left_children":[1,3,5,7,9,11,13,15,17,19,21,23,25,27,29,-1,-1,-1,-1,-1,-1,-1,-1,-1,-1,-1,-1,-1,-1,-1,-1],"loss_changes":[1.9778168E2,1.1904824E2,1.24754684E2,4.2503433E1,6.6936966E1,4.2918625E1,7.297575E1,2.091262E1,3.2926346E1,1.8453136E1,5.4582664E1,1.5478577E1,3.0040318E1,4.650407E1,3.4997368E1,0E0,0E0,0E0,0E0,0E0,0E0,0E0,0E0,0E0,0E0,0E0,0E0,0E0,0E0,0E0,0E0],"parents":[2147483647,0,0,1,1,2,2,3,3,4,4,5,5,6,6,7,7,8,8,9,9,10,10,11,11,12,12,13,13,14,14],"right_children":[2,4,6,8,10,12,14,16,18,20,22,24,26,28,30,-1,-1,-1,-1,-1,-1,-1,-1,-1,-1,-1,-1,-1,-1,-1,-1],"split_conditions":[1E0,-7.2831976E-1,-8.392271E-1,-3.1247549E-2,-1.0622584E0,-4.7910178E-1,-1.9643618E-2,-7.491207E-1,-2.0456386E-1,-7.4700654E-1,3.8119194E-1,-5.4505277E-1,-8.132034E-1,-7.0893586E-1,1.1422401E-1,1.348005E-3,-3.0747356E-3,-7.5606857E-3,-3.0488106E-3,5.7996875E-3,1.6102878E-3,-1.7666335E-3,7.889428E-4,8.5312E-3,4.771917E-3,-1.9875173E-3,3.8101126E-3,-3.013435E-3,2.670882E-4,3.077938E-3,5.2691123E-4],"split_indices":[0,5,6,14,8,10,9,8,7,6,7,8,7,5,8,0,0,0,0,0,0,0,0,0,0,0,0,0,0,0,0],"split_type":[0,0,0,0,0,0,0,0,0,0,0,0,0,0,0,0,0,0,0,0,0,0,0,0,0,0,0,0,0,0,0],"sum_hessian":[1.0923E4,5.45E3,5.473E3,1.247E3,4.203E3,1.044E3,4.429E3,5.76E2,6.71E2,4.53E2,3.75E3,4.53E2,5.91E2,2.237E3,2.192E3,1.41E2,4.35E2,3.93E2,2.78E2,1.66E2,2.87E2,2.494E3,1.256E3,2.47E2,2.06E2,1.09E2,4.82E2,5.84E2,1.653E3,1.245E3,9.47E2],"tree_param":{"num_deleted":"0","num_feature":"15","num_nodes":"31","size_leaf_vector":"1"}},{"base_weights":[7.1248948E-3,3.0025283E-1,-1.1105348E-1,4.1554463E-1,1.495586E-1,-3.0134103E-1,6.1266646E-3,5.5766E-1,2.961555E-1,-2.6318756E-1,2.034492E-1,-6.7513037E-1,-2.1286632E-1,7.250654E-2,-2.364455E-1,4.788439E-3,7.7474145E-3,4.835701E-3,1.9565767E-3,-1.006159E-2,-1.5516885E-3,1.294992E-3,3.8805753E-3,-7.659646E-3,7.091123E-4,-1.0091484E-3,-4.472341E-3,-9.230343E-4,1.463464E-3,-1.5860726E-3,-5.485328E-3],"categories":[],"categories_nodes":[],"categories_segments":[],"categories_sizes":[],"default_left":[0,0,0,0,0,0,0,0,0,0,0,0,0,0,0,0,0,0,0,0,0,0,0,0,0,0,0,0,0,0,0],"id":27,"left_children":[1,3,5,7,9,11,13,15,17,19,21,23,25,27,29,-1,-1,-1,-1,-1,-1,-1,-1,-1,-1,-1,-1,-1,-1,-1,-1],"loss_changes":[3.814696E2,5.490857E1,1.7499596E2,3.0239746E1,3.059338E1,9.877136E1,7.824022E1,1.3607513E1,1.8288116E1,1.2604389E1,1.653666E1,3.881659E1,6.3450386E1,4.644033E1,2.5274189E1,0E0,0E0,0E0,0E0,0E0,0E0,0E0,0E0,0E0,0E0,0E0,0E0,0E0,0E0,0E0,0E0],"parents":[2147483647,0,0,1,1,2,2,3,3,4,4,5,5,6,6,7,7,8,8,9,9,10,10,11,11,12,12,13,13,14,14],"right_children":[2,4,6,8,10,12,14,16,18,20,22,24,26,28,30,-1,-1,-1,-1,-1,-1,-1,-1,-1,-1,-1,-1,-1,-1,-1,-1],"split_conditions":[-4.639057E-1,-1.042807E0,-3.785284E-1,-8.392271E-1,-1.1151913E0,-9.899979E-1,9.7655797E-1,5.1601213E-1,-9.706326E-1,-1.371578E0,5.090661E-1,8.2911754E-1,7.3627245E-1,-3.8740817E-1,1.879592E0,4.788439E-3,7.7474145E-3,4.835701E-3,1.9565767E-3,-1.006159E-2,-1.5516885E-3,1.294992E-3,3.8805753E-3,-7.659646E-3,7.091123E-4,-1.0091484E-3,-4.472341E-3,-9.230343E-4,1.463464E-3,-1.5860726E-3,-5.485328E-3],"split_indices":[2,2,5,6,9,7,2,13,8,7,7,9,2,7,2,0,0,0,0,0,0,0,0,0,0,0,0,0,0,0,0],"split_type":[0,0,0,0,0,0,0,0,0,0,0,0,0,0,0,0,0,0,0,0,0,0,0,0,0,0,0,0,0,0,0],"sum_hessian":[1.101E4,3.163E3,7.847E3,1.791E3,1.372E3,2.99E3,4.857E3,8.16E2,9.75E2,1.58E2,1.214E3,5.71E2,2.419E3,3.814E3,1.043E3,6.01E2,2.15E2,3.39E2,6.36E2,1.9E1,1.39E2,8.68E2,3.46E2,5.09E2,6.2E1,1.638E3,7.81E2,1.18E3,2.634E3,8.36E2,2.07E2],"tree_param":{"num_deleted":"0","num_feature":"15","num_nodes":"31","size_leaf_vector":"1"}},{"base_weights":[-4.9879113E-3,-2.7990013E-1,1.212717E-1,-4.031335E-1,-1.3353463E-1,3.5050496E-1,2.5089713E-2,-6.3966787E-1,-3.223211E-1,-1.9127328E-2,-3.6016688E-1,5.2755284E-1,1.8419965E-1,-1.0412957E-1,1.5434808E-1,-2.9346396E-3,-8.206557E-3,-5.996207E-3,-2.6563762E-3,2.717254E-4,-6.624913E-3,-3.089011E-3,-9.228953E-3,7.520088E-3,4.42462E-3,6.7237986E-4,4.0877345E-3,-1.5729254E-3,1.7027477E-3,3.135641E-3,7.156578E-4],"categories":[],"categories_nodes":[],"categories_segments":[],"categories_sizes":[],"default_left":[0,0,0,0,0,0,0,0,0,0,0,0,0,0,0,0,0,0,0,0,0,0,0,0,0,0,0,0,0,0,0],"id":28,"left_children":[1,3,5,7,9,11,13,15,17,19,21,23,25,27,29,-1,-1,-1,-1,-1,-1,-1,-1,-1,-1,-1,-1,-1,-1,-1,-1],"loss_changes":[3.8302753E2,6.258908E1,1.66719E2,3.582541E1,4.1193314E1,6.5710205E1,8.900791E1,2.977266E1,2.195636E1,3.1503567E1,1.509127E1,2.033255E1,3.0284084E1,3.8904213E1,3.5089798E1,0E0,0E0,0E0,0E0,0E0,0E0,0E0,0E0,0E0,0E0,0E0,0E0,0E0,0E0,0E0,0E0],"parents":[2147483647,0,0,1,1,2,2,3,3,4,4,5,5,6,6,7,7,8,8,9,9,10,10,11,11,12,12,13,13,14,14],"right_children":[2,4,6,8,10,12,14,16,18,20,22,24,26,28,30,-1,-1,-1,-1,-1,-1,-1,-1,-1,-1,-1,-1,-1,-1,-1,-1],"split_conditions":[-3.7926894E-1,-9.9945295E-1,-5.5485034E-1,-1.1387407E0,2.711111E-1,-3.921621E-1,1E0,-4.525037E-1,-1.4450694E0,1.4523231E0,1.3477505E0,-1.2282009E0,7.3262626E-1,1.2160993E0,-3.385478E-1,-2.9346396E-3,-8.206557E-3,-5.996207E-3,-2.6563762E-3,2.717254E-4,-6.624913E-3,-3.089011E-3,-9.228953E-3,7.520088E-3,4.42462E-3,6.7237986E-4,4.0877345E-3,-1.5729254E-3,1.7027477E-3,3.135641E-3,7.156578E-4],"split_indices":[1,1,6,7,8,8,0,14,5,12,14,8,1,1,8,0,0,0,0,0,0,0,0,0,0,0,0,0,0,0,0],"split_type":[0,0,0,0,0,0,0,0,0,0,0,0,0,0,0,0,0,0,0,0,0,0,0,0,0,0,0,0,0,0,0],"sum_hessian":[1.1033E4,3.472E3,7.561E3,1.884E3,1.588E3,2.234E3,5.327E3,4.78E2,1.406E3,1.056E3,5.32E2,1.081E3,1.153E3,2.664E3,2.663E3,1.65E2,3.13E2,2.37E2,1.169E3,9.86E2,7E1,4.89E2,4.3E1,2.95E2,7.86E2,7.59E2,3.94E2,2.232E3,4.32E2,9.1E2,1.753E3],"tree_param":{"num_deleted":"0","num_feature":"15","num_nodes":"31","size_leaf_vector":"1"}},{"base_weights":[-5.81853E-3,2.590858E-1,-1.243386E-1,-3.4549132E-2,3.733179E-1,-3.850437E-1,-6.4775385E-3,1.2635092E-1,-1.489627E-1,6.035769E-1,2.8808072E-1,-6.906678E-1,-3.1159478E-1,-9.4174564E-2,1.6767095E-1,1.1108952E-3,1.5980111E-2,-8.96472E-3,-1.0628927E-3,6.812475E-3,3.4990022E-3,1.59015E-3,4.2591514E-3,-8.800657E-3,-4.974269E-3,-4.6439487E-3,-2.2738893E-3,6.493455E-5,-2.6111489E-3,3.4695974E-4,3.072852E-3],"categories":[],"categories_nodes":[],"categories_segments":[],"categories_sizes":[],"default_left":[0,0,0,0,0,0,0,0,0,0,0,0,0,0,0,0,0,0,0,0,0,0,0,0,0,0,0,0,0,0,0],"id":29,"left_children":[1,3,5,7,9,11,13,15,17,19,21,23,25,27,29,-1,-1,-1,-1,-1,-1,-1,-1,-1,-1,-1,-1,-1,-1,-1,-1],"loss_changes":[3.4564465E2,1.1415814E2,2.3370691E2,1.758115E1,4.7911346E1,5.29411E1,8.002739E1,8.738937E0,1.7704235E1,1.2785461E1,3.1775833E1,1.6324738E1,2.4482605E1,5.856904E1,3.2571262E1,0E0,0E0,0E0,0E0,0E0,0E0,0E0,0E0,0E0,0E0,0E0,0E0,0E0,0E0,0E0,0E0],"parents":[2147483647,0,0,1,1,2,2,3,3,4,4,5,5,6,6,7,7,8,8,9,9,10,10,11,11,12,12,13,13,14,14],"right_children":[2,4,6,8,10,12,14,16,18,20,22,24,26,28,30,-1,-1,-1,-1,-1,-1,-1,-1,-1,-1,-1,-1,-1,-1,-1,-1],"split_conditions":[-4.0446335E-1,-4.9082077E-1,-3.7926894E-1,-1.2347987E0,-9.706326E-1,-1.2030786E0,7.3262626E-1,2.7319674E0,-1.7513777E0,-8.4857816E-1,1E0,1E0,-1.2914556E0,6.2952954E-1,1E0,1.1108952E-3,1.5980111E-2,-8.96472E-3,-1.0628927E-3,6.812475E-3,3.4990022E-3,1.59015E-3,4.2591514E-3,-8.800657E-3,-4.974269E-3,-4.6439487E-3,-2.2738893E-3,6.493455E-5,-2.6111489E-3,3.4695974E-4,3.072852E-3],"split_indices":[2,1,1,2,8,5,1,14,9,2,0,0,1,2,0,0,0,0,0,0,0,0,0,0,0,0,0,0,0,0,0],"split_type":[0,0,0,0,0,0,0,0,0,0,0,0,0,0,0,0,0,0,0,0,0,0,0,0,0,0,0,0,0,0,0],"sum_hessian":[1.1007E4,3.402E3,7.605E3,9.53E2,2.449E3,2.367E3,5.238E3,3.96E2,5.57E2,6.6E2,1.789E3,4.57E2,1.91E3,3.484E3,1.754E3,3.93E2,3E0,2.9E1,5.28E2,5.04E2,1.56E2,9.25E2,8.64E2,2.29E2,2.28E2,6.77E2,1.233E3,2.174E3,1.31E3,8.99E2,8.55E2],"tree_param":{"num_deleted":"0","num_feature":"15","num_nodes":"31","size_leaf_vector":"1"}},{"base_weights":[4.0733786E-3,2.8685203E-1,-1.2153253E-1,-5.0792573E-3,4.0502828E-1,-3.9247355E-1,2.0116426E-3,1.5218228E-1,-1.181883E-1,2.7004734E-1,5.4226446E-1,-6.851242E-1,-3.3000863E-1,-1.4563565E-1,1.4876096E-1,1.1446067E-3,8.122515E-3,-3.4408772E-3,-1.3891407E-4,4.213277E-3,1.5668769E-3,6.8648956E-3,3.5445136E-3,-5.802792E-3,-1.0526121E-2,-2.3465229E-3,-4.81694E-3,-8.9012616E-4,-4.458643E-3,6.4982375E-4,3.4098236E-3],"categories":[],"categories_nodes":[],"categories_segments":[],"categories_sizes":[],"default_left":[0,0,0,0,0,0,0,0,0,0,0,0,0,0,0,0,0,0,0,0,0,0,0,0,0,0,0,0,0,0,0],"id":30,"left_children":[1,3,5,7,9,11,13,15,17,19,21,23,25,27,29,-1,-1,-1,-1,-1,-1,-1,-1,-1,-1,-1,-1,-1,-1,-1,-1],"loss_changes":[3.9194788E2,1.17092834E2,2.5576941E2,1.7432146E1,4.4608246E1,4.351886E1,1.1375247E2,1.0115568E1,1.3424765E1,2.0855873E1,3.2180206E1,1.5571487E1,2.8439209E1,4.4448933E1,4.237977E1,0E0,0E0,0E0,0E0,0E0,0E0,0E0,0E0,0E0,0E0,0E0,0E0,0E0,0E0,0E0,0E0],"parents":[2147483647,0,0,1,1,2,2,3,3,4,4,5,5,6,6,7,7,8,8,9,9,10,10,11,11,12,12,13,13,14,14],"right_children":[2,4,6,8,10,12,14,16,18,20,22,24,26,28,30,-1,-1,-1,-1,-1,-1,-1,-1,-1,-1,-1,-1,-1,-1,-1,-1],"split_conditions":[-4.0446335E-1,-4.7681394E-1,-3.7926894E-1,-1.2347987E0,1E0,-1.2463987E0,1E0,9.0681785E-1,-9.528867E-1,-1.2570895E0,-9.91828E-1,8.21911E-1,6.2952954E-1,1.1181276E0,7.859338E-1,1.1446067E-3,8.122515E-3,-3.4408772E-3,-1.3891407E-4,4.213277E-3,1.5668769E-3,6.8648956E-3,3.5445136E-3,-5.802792E-3,-1.0526121E-2,-2.3465229E-3,-4.81694E-3,-8.9012616E-4,-4.458643E-3,6.4982375E-4,3.4098236E-3],"split_indices":[2,1,1,2,0,5,0,7,5,2,2,14,2,2,1,0,0,0,0,0,0,0,0,0,0,0,0,0,0,0,0],"split_type":[0,0,0,0,0,0,0,0,0,0,0,0,0,0,0,0,0,0,0,0,0,0,0,0,0,0,0,0,0,0,0],"sum_hessian":[1.1033E4,3.393E3,7.64E3,9.78E2,2.415E3,2.392E3,5.248E3,4.09E2,5.69E2,1.219E3,1.196E3,4.19E2,1.973E3,2.616E3,2.632E3,3.88E2,2.1E1,1.79E2,3.9E2,5.21E2,6.98E2,6.75E2,5.21E2,3.28E2,9.1E1,1.213E3,7.6E2,2.202E3,4.14E2,1.834E3,7.98E2],"tree_param":{"num_deleted":"0","num_feature":"15","num_nodes":"31","size_leaf_vector":"1"}},{"base_weights":[-2.260944E-3,2.8086498E-1,-1.2915987E-1,4.15481E-2,4.3740177E-1,-3.4975064E-1,2.2457583E-2,1.7245859E-1,-1.4764664E-1,7.410614E-1,3.5711467E-1,-5.098893E-1,-2.2626108E-1,1.08916774E-1,-1.5250954E-1,4.084972E-3,6.044684E-4,-1.2029135E-3,-8.679148E-3,5.171706E-3,9.07097E-3,7.102497E-3,3.11625E-3,-8.413797E-3,-4.4183056E-3,-1.9042699E-3,-6.3306335E-3,-1.6147416E-4,2.395107E-3,-4.348341E-3,-7.6628145E-4],"categories":[],"categories_nodes":[],"categories_segments":[],"categories_sizes":[],"default_left":[0,0,0,0,0,0,0,0,0,0,0,0,0,0,0,0,0,0,0,0,0,0,0,0,0,0,0,0,0,0,0],"id":31,"left_children":[1,3,5,7,9,11,13,15,17,19,21,23,25,27,29,-1,-1,-1,-1,-1,-1,-1,-1,-1,-1,-1,-1,-1,-1,-1,-1],"loss_changes":[3.948172E2,1.2738974E2,2.537916E2,3.3362617E1,4.9860535E1,6.101059E1,6.806017E1,2.1020834E1,1.0752026E1,1.5478455E1,2.5930847E1,2.9972534E1,2.5346146E1,4.9181404E1,3.1844368E1,0E0,0E0,0E0,0E0,0E0,0E0,0E0,0E0,0E0,0E0,0E0,0E0,0E0,0E0,0E0,0E0],"parents":[2147483647,0,0,1,1,2,2,3,3,4,4,5,5,6,6,7,7,8,8,9,9,10,10,11,11,12,12,13,13,14,14],"right_children":[2,4,6,8,10,12,14,16,18,20,22,24,26,28,30,-1,-1,-1,-1,-1,-1,-1,-1,-1,-1,-1,-1,-1,-1,-1,-1],"split_conditions":[-4.0446335E-1,-2.0097671E-1,-1.5661693E-1,-8.743133E-1,-1.131721E0,-9.7013825E-1,7.236144E-1,-9.618044E-1,1.3122095E0,-1.487919E-2,-1.4407146E0,-1.4450694E0,1.4677293E0,5.2145416E-1,-4.3866768E-1,4.084972E-3,6.044684E-4,-1.2029135E-3,-8.679148E-3,5.171706E-3,9.07097E-3,7.102497E-3,3.11625E-3,-8.413797E-3,-4.4183056E-3,-1.9042699E-3,-6.3306335E-3,-1.6147416E-4,2.395107E-3,-4.348341E-3,-7.6628145E-4],"split_indices":[2,1,1,2,8,1,2,10,8,9,6,5,14,1,5,0,0,0,0,0,0,0,0,0,0,0,0,0,0,0,0],"split_type":[0,0,0,0,0,0,0,0,0,0,0,0,0,0,0,0,0,0,0,0,0,0,0,0,0,0,0,0,0,0,0],"sum_hessian":[1.0987E4,3.4E3,7.587E3,1.345E3,2.055E3,3.09E3,4.497E3,7.95E2,5.5E2,4.28E2,1.627E3,1.344E3,1.746E3,3.01E3,1.487E3,2.55E2,5.4E2,5.31E2,1.9E1,1.84E2,2.44E2,1.84E2,1.443E3,2.27E2,1.117E3,1.606E3,1.4E2,1.538E3,1.472E3,3.14E2,1.173E3],"tree_param":{"num_deleted":"0","num_feature":"15","num_nodes":"31","size_leaf_vector":"1"}},{"base_weights":[7.627205E-3,2.3548299E-1,-1.392528E-1,6.0126223E-2,4.1048798E-1,-5.469976E-1,-5.756227E-2,-1.3247019E-1,1.7245361E-1,5.564598E-1,2.90868E-1,-8.1816E-1,-4.7942808E-1,-1.5249242E-1,1.2610248E-1,-3.8955517E-3,-3.003452E-4,6.710798E-3,1.3125838E-3,6.413486E-3,3.66355E-3,2.4889521E-3,6.743883E-3,-1.1260255E-2,-6.1520063E-3,-3.1515607E-3,-6.177543E-3,-5.543765E-4,-2.843471E-3,2.38422E-3,-2.781331E-4],"categories":[],"categories_nodes":[],"categories_segments":[],"categories_sizes":[],"default_left":[0,0,0,0,0,0,0,0,0,0,0,0,0,0,0,0,0,0,0,0,0,0,0,0,0,0,0,0,0,0,0],"id":32,"left_children":[1,3,5,7,9,11,13,15,17,19,21,23,25,27,29,-1,-1,-1,-1,-1,-1,-1,-1,-1,-1,-1,-1,-1,-1,-1,-1],"loss_changes":[3.6937967E2,1.3273296E2,2.2350449E2,4.679523E1,3.764154E1,2.0128754E1,9.751755E1,2.0977036E1,2.7970951E1,1.5483246E1,1.9020271E1,1.3178741E1,2.0233414E1,4.7167244E1,3.2957085E1,0E0,0E0,0E0,0E0,0E0,0E0,0E0,0E0,0E0,0E0,0E0,0E0,0E0,0E0,0E0,0E0],"parents":[2147483647,0,0,1,1,2,2,3,3,4,4,5,5,6,6,7,7,8,8,9,9,10,10,11,11,12,12,13,13,14,14],"right_children":[2,4,6,8,10,12,14,16,18,20,22,24,26,28,30,-1,-1,-1,-1,-1,-1,-1,-1,-1,-1,-1,-1,-1,-1,-1,-1],"split_conditions":[-2.0384543E-1,2.594067E-2,-1.0506374E0,-9.3505967E-1,-1.0165337E0,-1.3761946E0,5.471026E-1,-1.0418472E0,-1.5072702E0,-4.5184946E-1,1.4556009E0,-8.541469E-1,4.3303686E-1,6.4135045E-1,6.4135045E-1,-3.8955517E-3,-3.003452E-4,6.710798E-3,1.3125838E-3,6.413486E-3,3.66355E-3,2.4889521E-3,6.743883E-3,-1.1260255E-2,-6.1520063E-3,-3.1515607E-3,-6.177543E-3,-5.543765E-4,-2.843471E-3,2.38422E-3,-2.781331E-4],"split_indices":[2,1,1,1,2,5,1,9,6,6,11,9,2,2,2,0,0,0,0,0,0,0,0,0,0,0,0,0,0,0,0],"split_type":[0,0,0,0,0,0,0,0,0,0,0,0,0,0,0,0,0,0,0,0,0,0,0,0,0,0,0,0,0,0,0],"sum_hessian":[1.1035E4,4.325E3,6.71E3,2.161E3,2.164E3,1.119E3,5.591E3,7.96E2,1.365E3,9.73E2,1.191E3,2.21E2,8.98E2,3.686E3,1.905E3,2.26E2,5.7E2,1.03E2,1.262E3,6.71E2,3.02E2,1.075E3,1.16E2,8.6E1,1.35E2,4.12E2,4.86E2,2.124E3,1.562E3,1.101E3,8.04E2],"tree_param":{"num_deleted":"0","num_feature":"15","num_nodes":"31","size_leaf_vector":"1"}},{"base_weights":[4.0319525E-3,-2.992068E-1,1.1020612E-1,-5.0353354E-1,-2.2407427E-1,3.5154754E-1,2.0535907E-2,-2.8292352E-1,-6.450841E-1,-3.4574613E-1,-1.05649866E-1,5.239491E-1,1.7645593E-1,-1.0453912E-1,1.4972866E-1,-7.6463674E-3,-1.7166283E-3,-6.0300115E-3,-1.5491746E-2,-2.8699744E-3,-6.2368517E-3,2.942066E-3,-1.5297853E-3,3.4023619E-3,6.81463E-3,-2.5852665E-4,3.0639821E-3,-1.7897111E-3,1.4011144E-3,2.5990363E-3,3.3383325E-4],"categories":[],"categories_nodes":[],"categories_segments":[],"categories_sizes":[],"default_left":[0,0,0,0,0,0,0,0,0,0,0,0,0,0,0,0,0,0,0,0,0,0,0,0,0,0,0,0,0,0,0],"id":33,"left_children":[1,3,5,7,9,11,13,15,17,19,21,23,25,27,29,-1,-1,-1,-1,-1,-1,-1,-1,-1,-1,-1,-1,-1,-1,-1,-1],"loss_changes":[3.527093E2,4.3501022E1,1.7558896E2,2.3644058E1,2.9919617E1,6.625653E1,9.562719E1,1.5947462E1,1.6719543E1,1.6557785E1,2.0010544E1,3.1801788E1,2.8714897E1,5.4782024E1,3.7305534E1,0E0,0E0,0E0,0E0,0E0,0E0,0E0,0E0,0E0,0E0,0E0,0E0,0E0,0E0,0E0,0E0],"parents":[2147483647,0,0,1,1,2,2,3,3,4,4,5,5,6,6,7,7,8,8,9,9,10,10,11,11,12,12,13,13,14,14],"right_children":[2,4,6,8,10,12,14,16,18,20,22,24,26,28,30,-1,-1,-1,-1,-1,-1,-1,-1,-1,-1,-1,-1,-1,-1,-1,-1],"split_conditions":[-5.5107784E-1,-1.0052596E0,-6.400577E-1,-2.649783E-1,1E0,-3.6101773E-1,1E0,-5.7731956E-2,2.2309566E0,8.556555E-1,-1.0862161E0,1E0,1.2550646E-1,9.317033E-1,-1.7802369E-2,-7.6463674E-3,-1.7166283E-3,-6.0300115E-3,-1.5491746E-2,-2.8699744E-3,-6.2368517E-3,2.942066E-3,-1.5297853E-3,3.4023619E-3,6.81463E-3,-2.5852665E-4,3.0639821E-3,-1.7897111E-3,1.4011144E-3,2.5990363E-3,3.3383325E-4],"split_indices":[1,7,6,12,0,8,0,3,8,8,6,0,1,1,8,0,0,0,0,0,0,0,0,0,0,0,0,0,0,0,0],"split_type":[0,0,0,0,0,0,0,0,0,0,0,0,0,0,0,0,0,0,0,0,0,0,0,0,0,0,0,0,0,0,0],"sum_hessian":[1.0953E4,2.84E3,8.113E3,7.62E2,2.078E3,2.197E3,5.916E3,2.99E2,4.63E2,1.024E3,1.054E3,1.106E3,1.091E3,3.006E3,2.91E3,5.5E1,2.44E2,4.44E2,1.9E1,8.47E2,1.77E2,1.11E2,9.43E2,5.12E2,5.94E2,4.27E2,6.64E2,2.305E3,7.01E2,1.494E3,1.416E3],"tree_param":{"num_deleted":"0","num_feature":"15","num_nodes":"31","size_leaf_vector":"1"}},{"base_weights":[1.6573402E-3,-2.559752E-1,1.20731264E-1,-2.097504E-2,-3.9886647E-1,4.3990767E-1,2.2149993E-2,-1.942864E-1,6.026389E-2,-5.44597E-1,-2.5809065E-1,7.355559E-1,3.701818E-1,-1.18870184E-1,1.5898488E-1,-4.1048173E-3,-8.970389E-4,5.378038E-3,3.006165E-4,-1.0954611E-2,-4.883695E-3,-5.5100266E-3,-1.8094215E-3,9.906007E-3,5.947758E-3,5.7474067E-3,2.8831635E-3,-8.1999204E-4,-7.0345746E-3,4.5346422E-4,3.2440487E-3],"categories":[],"categories_nodes":[],"categories_segments":[],"categories_sizes":[],"default_left":[0,0,0,0,0,0,0,0,0,0,0,0,0,0,0,0,0,0,0,0,0,0,0,0,0,0,0,0,0,0,0],"id":34,"left_children":[1,3,5,7,9,11,13,15,17,19,21,23,25,27,29,-1,-1,-1,-1,-1,-1,-1,-1,-1,-1,-1,-1,-1,-1,-1,-1],"loss_changes":[3.357021E2,1.16143036E2,2.3547296E2,1.8441944E1,4.3987946E1,3.61326E1,1.10375465E2,9.414264E0,1.28489485E1,3.217325E1,2.4667397E1,1.1474991E1,2.3798264E1,6.0660793E1,5.45561E1,0E0,0E0,0E0,0E0,0E0,0E0,0E0,0E0,0E0,0E0,0E0,0E0,0E0,0E0,0E0,0E0],"parents":[2147483647,0,0,1,1,2,2,3,3,4,4,5,5,6,6,7,7,8,8,9,9,10,10,11,11,12,12,13,13,14,14],"right_children":[2,4,6,8,10,12,14,16,18,20,22,24,26,28,30,-1,-1,-1,-1,-1,-1,-1,-1,-1,-1,-1,-1,-1,-1,-1,-1],"split_conditions":[-3.7926894E-1,-2.2866936E-1,-6.33606E-1,-1.4307226E0,1E0,-1.2446028E0,1E0,-1.0604879E0,-1.6276007E0,-1.5522616E0,-1.1199158E0,-2.7090997E-1,-1.0142698E0,1.6616675E0,5.3310627E-1,-4.1048173E-3,-8.970389E-4,5.378038E-3,3.006165E-4,-1.0954611E-2,-4.883695E-3,-5.5100266E-3,-1.8094215E-3,9.906007E-3,5.947758E-3,5.7474067E-3,2.8831635E-3,-8.1999204E-4,-7.0345746E-3,4.5346422E-4,3.2440487E-3],"split_indices":[1,2,2,1,0,6,0,9,8,5,7,5,8,2,1,0,0,0,0,0,0,0,0,0,0,0,0,0,0,0,0],"split_type":[0,0,0,0,0,0,0,0,0,0,0,0,0,0,0,0,0,0,0,0,0,0,0,0,0,0,0,0,0,0,0],"sum_hessian":[1.0941E4,3.458E3,7.483E3,1.308E3,2.15E3,1.765E3,5.718E3,4.17E2,8.91E2,1.055E3,1.095E3,3.35E2,1.43E3,2.816E3,2.902E3,1.35E2,2.82E2,5.2E1,8.39E2,9.6E1,9.59E2,2.27E2,8.68E2,1.17E2,2.18E2,4.07E2,1.023E3,2.65E3,1.66E2,1.721E3,1.181E3],"tree_param":{"num_deleted":"0","num_feature":"15","num_nodes":"31","size_leaf_vector":"1"}},{"base_weights":[5.522349E-4,2.8547412E-1,-1.1267132E-1,-9.698877E-2,3.716734E-1,-3.5254335E-1,-2.485566E-3,-3.4147474E-1,2.2175764E-3,7.817891E-1,3.348E-1,-6.169091E-1,-2.7967674E-1,-1.4058484E-1,1.362749E-1,5.0052414E-3,-3.9228303E-3,1.7251507E-3,-1.7647989E-3,7.0145302E-3,1.8678673E-2,2.230614E-3,4.4999183E-3,-9.4430195E-3,-5.1705083E-3,-4.24983E-3,-1.4200627E-3,-9.5480835E-5,-3.2002758E-3,2.8241618E-4,2.8747749E-3],"categories":[],"categories_nodes":[],"categories_segments":[],"categories_sizes":[],"default_left":[0,0,0,0,0,0,0,0,0,0,0,0,0,0,0,0,0,0,0,0,0,0,0,0,0,0,0,0,0,0,0],"id":35,"left_children":[1,3,5,7,9,11,13,15,17,19,21,23,25,27,29,-1,-1,-1,-1,-1,-1,-1,-1,-1,-1,-1,-1,-1,-1,-1,-1],"loss_changes":[3.5847156E2,1.04215E2,2.1017432E2,1.4116911E1,3.873883E1,4.8043854E1,1.04455986E2,7.3834705E0,1.2659615E1,1.7187042E1,3.0379028E1,1.7165894E1,3.922824E1,6.4236084E1,4.440651E1,0E0,0E0,0E0,0E0,0E0,0E0,0E0,0E0,0E0,0E0,0E0,0E0,0E0,0E0,0E0,0E0],"parents":[2147483647,0,0,1,1,2,2,3,3,4,4,5,5,6,6,7,7,8,8,9,9,10,10,11,11,12,12,13,13,14,14],"right_children":[2,4,6,8,10,12,14,16,18,20,22,24,26,28,30,-1,-1,-1,-1,-1,-1,-1,-1,-1,-1,-1,-1,-1,-1,-1,-1],"split_conditions":[-4.8754752E-1,-8.3078825E-1,-3.7926894E-1,-1.0418472E0,-1.5757643E0,-1.1387407E0,1E0,-2.1497614E0,-4.5216644E-1,1.4556009E0,1E0,-5.7731956E-2,1E0,5.01568E-1,5.471026E-1,5.0052414E-3,-3.9228303E-3,1.7251507E-3,-1.7647989E-3,7.0145302E-3,1.8678673E-2,2.230614E-3,4.4999183E-3,-9.4430195E-3,-5.1705083E-3,-4.24983E-3,-1.4200627E-3,-9.5480835E-5,-3.2002758E-3,2.8241618E-4,2.8747749E-3],"split_indices":[2,1,1,9,8,7,0,2,10,11,0,3,0,2,1,0,0,0,0,0,0,0,0,0,0,0,0,0,0,0,0],"split_type":[0,0,0,0,0,0,0,0,0,0,0,0,0,0,0,0,0,0,0,0,0,0,0,0,0,0,0,0,0,0,0],"sum_hessian":[1.111E4,3.159E3,7.951E3,5.81E2,2.578E3,2.502E3,5.449E3,1.67E2,4.14E2,2.11E2,2.367E3,5.39E2,1.963E3,2.731E3,2.718E3,9E0,1.58E2,2.12E2,2.02E2,1.98E2,1.3E1,1.203E3,1.164E3,1.24E2,4.15E2,9.54E2,1.009E3,1.579E3,1.152E3,1.586E3,1.132E3],"tree_param":{"num_deleted":"0","num_feature":"15","num_nodes":"31","size_leaf_vector":"1"}},{"base_weights":[6.1348747E-3,2.4710341E-1,-1.02649465E-1,-9.450991E-2,2.9525423E-1,-3.2731134E-1,-6.8892585E-3,-1.824968E-1,4.991203E-1,4.3422714E-1,2.1365172E-1,-2.0558132E-1,-5.470146E-1,-1.1785639E-1,9.835332E-2,6.8349234E-4,-3.444569E-3,1.0695759E-2,2.7824335E-3,6.2276046E-3,3.4946E-3,1.0272112E-3,3.1230177E-3,-5.772235E-3,-1.4923417E-3,-7.076421E-3,-3.6603312E-3,-5.395423E-4,-3.5434722E-3,1.1251462E-5,2.4504273E-3],"categories":[],"categories_nodes":[],"categories_segments":[],"categories_sizes":[],"default_left":[0,0,0,0,0,0,0,0,0,0,0,0,0,0,0,0,0,0,0,0,0,0,0,0,0,0,0,0,0,0,0],"id":36,"left_children":[1,3,5,7,9,11,13,15,17,19,21,23,25,27,29,-1,-1,-1,-1,-1,-1,-1,-1,-1,-1,-1,-1,-1,-1,-1,-1],"loss_changes":[2.8874197E2,5.6382065E1,1.6326498E2,2.223732E1,3.396286E1,6.0544037E1,6.216439E1,1.5055554E1,6.6324244E0,1.7521774E1,2.0694557E1,3.0508617E1,2.3230011E1,3.913679E1,3.8964447E1,0E0,0E0,0E0,0E0,0E0,0E0,0E0,0E0,0E0,0E0,0E0,0E0,0E0,0E0,0E0,0E0],"parents":[2147483647,0,0,1,1,2,2,3,3,4,4,5,5,6,6,7,7,8,8,9,9,10,10,11,11,12,12,13,13,14,14],"right_children":[2,4,6,8,10,12,14,16,18,20,22,24,26,28,30,-1,-1,-1,-1,-1,-1,-1,-1,-1,-1,-1,-1,-1,-1,-1,-1],"split_conditions":[-4.0446335E-1,-1.0604879E0,-5.5738896E-1,7.223149E-1,-8.392271E-1,6.7602515E-1,1E0,-1.2347987E0,-1.0622584E0,-8.3034E-1,-6.577953E-2,-1.5522616E0,1E0,9.6166855E-1,2.0680451E-1,6.8349234E-4,-3.444569E-3,1.0695759E-2,2.7824335E-3,6.2276046E-3,3.4946E-3,1.0272112E-3,3.1230177E-3,-5.772235E-3,-1.4923417E-3,-7.076421E-3,-3.6603312E-3,-5.395423E-4,-3.5434722E-3,1.1251462E-5,2.4504273E-3],"split_indices":[2,9,5,5,6,2,0,2,8,14,11,5,0,2,9,0,0,0,0,0,0,0,0,0,0,0,0,0,0,0,0],"split_type":[0,0,0,0,0,0,0,0,0,0,0,0,0,0,0,0,0,0,0,0,0,0,0,0,0,0,0,0,0,0,0],"sum_hessian":[1.1013E4,3.425E3,7.588E3,4.23E2,3.002E3,2.267E3,5.321E3,3.69E2,5.4E1,1.109E3,1.893E3,1.46E3,8.07E2,2.59E3,2.731E3,1.45E2,2.24E2,1.4E1,4E1,3.42E2,7.67E2,8.92E2,1.001E3,1.91E2,1.269E3,4.26E2,3.81E2,2.04E3,5.5E2,1.643E3,1.088E3],"tree_param":{"num_deleted":"0","num_feature":"15","num_nodes":"31","size_leaf_vector":"1"}},{"base_weights":[2.9952172E-3,1.9825335E-1,-7.984119E-2,4.344023E-2,3.5146737E-1,-2.6947102E-1,1.7512146E-2,-2.9936008E-2,4.360194E-1,3.2128766E-1,1.1304713E0,-3.9455318E-1,-1.120419E-1,-8.120227E-2,1.164103E-1,2.105421E-3,-1.6379916E-3,7.1151024E-3,1.2114749E-3,4.7994526E-3,1.995995E-3,2.2268095E-3,1.2237582E-2,-6.4246724E-3,-2.9336864E-3,1.4365268E-3,-1.9287268E-3,-1.6388827E-3,3.086852E-4,1.813022E-4,2.49608E-3],"categories":[],"categories_nodes":[],"categories_segments":[],"categories_sizes":[],"default_left":[0,0,0,0,0,0,0,0,0,0,0,0,0,0,0,0,0,0,0,0,0,0,0,0,0,0,0,0,0,0,0],"id":37,"left_children":[1,3,5,7,9,11,13,15,17,19,21,23,25,27,29,-1,-1,-1,-1,-1,-1,-1,-1,-1,-1,-1,-1,-1,-1,-1,-1],"loss_changes":[1.8076566E2,7.89471E1,1.4486894E2,4.7744564E1,3.896924E1,5.237477E1,5.0638676E1,4.5005535E1,2.255407E1,3.1026688E1,4.9779434E0,3.701268E1,2.441594E1,2.4061375E1,3.3913425E1,0E0,0E0,0E0,0E0,0E0,0E0,0E0,0E0,0E0,0E0,0E0,0E0,0E0,0E0,0E0,0E0],"parents":[2147483647,0,0,1,1,2,2,3,3,4,4,5,5,6,6,7,7,8,8,9,9,10,10,11,11,12,12,13,13,14,14],"right_children":[2,4,6,8,10,12,14,16,18,20,22,24,26,28,30,-1,-1,-1,-1,-1,-1,-1,-1,-1,-1,-1,-1,-1,-1,-1,-1],"split_conditions":[-5.5485034E-1,1E0,-4.2894614E-1,8.993745E-1,2.102001E0,-1.8020718E-1,1E0,-5.0485456E-1,-2.494845E-1,-3.9143866E-1,-1.6867342E0,-7.7799326E-1,-4.7494537E-1,2.5906426E-1,1.2712832E-1,2.105421E-3,-1.6379916E-3,7.1151024E-3,1.2114749E-3,4.7994526E-3,1.995995E-3,2.2268095E-3,1.2237582E-2,-6.4246724E-3,-2.9336864E-3,1.4365268E-3,-1.9287268E-3,-1.6388827E-3,3.086852E-4,1.813022E-4,2.49608E-3],"split_indices":[6,0,5,9,7,7,0,12,8,10,14,9,12,13,9,0,0,0,0,0,0,0,0,0,0,0,0,0,0,0,0],"split_type":[0,0,0,0,0,0,0,0,0,0,0,0,0,0,0,0,0,0,0,0,0,0,0,0,0,0,0,0,0,0,0],"sum_hessian":[1.1174E4,3.328E3,7.846E3,1.656E3,1.672E3,2.661E3,5.185E3,1.396E3,2.6E2,1.611E3,6.1E1,1.482E3,1.179E3,2.595E3,2.59E3,4.99E2,8.97E2,1.38E2,1.22E2,6.98E2,9.13E2,6E0,5.5E1,4.28E2,1.054E3,2.83E2,8.96E2,1.493E3,1.102E3,1.491E3,1.099E3],"tree_param":{"num_deleted":"0","num_feature":"15","num_nodes":"31","size_leaf_vector":"1"}},{"base_weights":[-1.3940917E-2,-3.6925834E-1,6.578886E-2,-1.3894989E-1,-5.0660866E-1,3.5685498E-1,-2.5060024E-2,-3.6775962E-1,-4.90154E-2,-6.721072E-1,-3.5165843E-1,6.7911386E-1,2.9424387E-1,-1.5895906E-1,1.08690895E-1,-7.966268E-3,-2.7945247E-3,1.1447424E-3,-1.7199953E-3,-9.639989E-3,-5.4466645E-3,-6.439361E-3,-2.4442752E-3,6.241405E-3,1.2041888E-2,1.8458035E-3,4.102136E-3,-6.651388E-4,-3.1649205E-3,-1.7872348E-4,2.556583E-3],"categories":[],"categories_nodes":[],"categories_segments":[],"categories_sizes":[],"default_left":[0,0,0,0,0,0,0,0,0,0,0,0,0,0,0,0,0,0,0,0,0,0,0,0,0,0,0,0,0,0,0],"id":38,"left_children":[1,3,5,7,9,11,13,15,17,19,21,23,25,27,29,-1,-1,-1,-1,-1,-1,-1,-1,-1,-1,-1,-1,-1,-1,-1,-1],"loss_changes":[3.1348886E2,6.408121E1,2.3900104E2,1.5600589E1,3.2331573E1,4.3180695E1,1.2339319E2,7.881996E0,1.0997909E1,2.2277863E1,2.0465118E1,9.322357E0,2.2841492E1,5.0119926E1,6.412109E1,0E0,0E0,0E0,0E0,0E0,0E0,0E0,0E0,0E0,0E0,0E0,0E0,0E0,0E0,0E0,0E0],"parents":[2147483647,0,0,1,1,2,2,3,3,4,4,5,5,6,6,7,7,8,8,9,9,10,10,11,11,12,12,13,13,14,14],"right_children":[2,4,6,8,10,12,14,16,18,20,22,24,26,28,30,-1,-1,-1,-1,-1,-1,-1,-1,-1,-1,-1,-1,-1,-1,-1,-1],"split_conditions":[-9.0604144E-1,-2.2866936E-1,-6.33606E-1,-1.0418472E0,1E0,-1.3030415E0,1E0,-1.5522616E0,-8.4857816E-1,-1.1151168E0,-1.1199158E0,1.4800643E0,1E0,5.416013E-1,2.8527483E-1,-7.966268E-3,-2.7945247E-3,1.1447424E-3,-1.7199953E-3,-9.639989E-3,-5.4466645E-3,-6.439361E-3,-2.4442752E-3,6.241405E-3,1.2041888E-2,1.8458035E-3,4.102136E-3,-6.651388E-4,-3.1649205E-3,-1.7872348E-4,2.556583E-3],"split_indices":[1,2,2,9,0,8,0,5,2,5,7,1,0,2,1,0,0,0,0,0,0,0,0,0,0,0,0,0,0,0,0],"split_type":[0,0,0,0,0,0,0,0,0,0,0,0,0,0,0,0,0,0,0,0,0,0,0,0,0,0,0,0,0,0,0],"sum_hessian":[1.1064E4,2.027E3,9.037E3,7.58E2,1.269E3,2.149E3,6.888E3,2.13E2,5.45E2,6.12E2,6.57E2,3.48E2,1.801E3,3.442E3,3.446E3,3.5E1,1.78E2,2.34E2,3.11E2,1.84E2,4.28E2,1.75E2,4.82E2,3.17E2,3.1E1,9.27E2,8.74E2,2.17E3,1.272E3,1.852E3,1.594E3],"tree_param":{"num_deleted":"0","num_feature":"15","num_nodes":"31","size_leaf_vector":"1"}},{"base_weights":[-9.217019E-3,2.6516727E-1,-1.179855E-1,4.8261648E-1,2.0245463E-1,-3.6398762E-1,-4.073304E-2,6.491765E-1,2.7500507E-1,-3.7723504E-2,2.5230592E-1,-6.0874075E-1,-2.7504522E-1,5.3725127E-2,-1.7582658E-1,-4.335678E-3,6.850762E-3,-2.2355537E-3,3.5125795E-3,-2.6434844E-3,2.071289E-3,3.7695076E-3,1.5387599E-3,-8.966146E-3,-4.768072E-3,3.360101E-5,-3.3160301E-3,-3.2941895E-4,1.8595478E-3,-2.928866E-3,-4.974276E-4],"categories":[],"categories_nodes":[],"categories_segments":[],"categories_sizes":[],"default_left":[0,0,0,0,0,0,0,0,0,0,0,0,0,0,0,0,0,0,0,0,0,0,0,0,0,0,0,0,0,0,0],"id":39,"left_children":[1,3,5,7,9,11,13,15,17,19,21,23,25,27,29,-1,-1,-1,-1,-1,-1,-1,-1,-1,-1,-1,-1,-1,-1,-1,-1],"loss_changes":[3.2769254E2,4.2408234E1,1.4941574E2,2.3923569E1,2.8996605E1,4.0736374E1,7.638216E1,1.5300949E1,1.1939726E1,2.3193949E1,2.4540909E1,1.8562592E1,2.173059E1,4.0379536E1,3.6337776E1,0E0,0E0,0E0,0E0,0E0,0E0,0E0,0E0,0E0,0E0,0E0,0E0,0E0,0E0,0E0,0E0],"parents":[2147483647,0,0,1,1,2,2,3,3,4,4,5,5,6,6,7,7,8,8,9,9,10,10,11,11,12,12,13,13,14,14],"right_children":[2,4,6,8,10,12,14,16,18,20,22,24,26,28,30,-1,-1,-1,-1,-1,-1,-1,-1,-1,-1,-1,-1,-1,-1,-1,-1],"split_conditions":[-4.73908E-1,-1.1145447E0,-7.0893586E-1,-4.6136084E-1,-8.541469E-1,-8.7238765E-1,5.1294565E-1,-1.9289685E0,-9.6144265E-1,-3.0829826E-1,-6.6826516E-1,-7.7799326E-1,-1.726382E-1,1.9776739E-1,-4.574952E-3,-4.335678E-3,6.850762E-3,-2.2355537E-3,3.5125795E-3,-2.6434844E-3,2.071289E-3,3.7695076E-3,1.5387599E-3,-8.966146E-3,-4.768072E-3,3.360101E-5,-3.3160301E-3,-3.2941895E-4,1.8595478E-3,-2.928866E-3,-4.974276E-4],"split_indices":[2,8,5,10,9,7,2,7,7,7,6,9,2,9,7,0,0,0,0,0,0,0,0,0,0,0,0,0,0,0,0],"split_type":[0,0,0,0,0,0,0,0,0,0,0,0,0,0,0,0,0,0,0,0,0,0,0,0,0,0,0,0,0,0,0],"sum_hessian":[1.0978E4,3.116E3,7.862E3,6.96E2,2.42E3,1.878E3,5.984E3,3.85E2,3.11E2,4.16E2,2.004E3,4.99E2,1.379E3,3.522E3,2.462E3,1.2E1,3.73E2,4.1E1,2.7E2,2.16E2,2E2,8.83E2,1.121E3,1.55E2,3.44E2,2.33E2,1.146E3,2.128E3,1.394E3,1.276E3,1.186E3],"tree_param":{"num_deleted":"0","num_feature":"15","num_nodes":"31","size_leaf_vector":"1"}},{"base_weights":[-6.882821E-3,-2.7411732E-1,1.0425843E-1,1.0917129E-1,-3.5987684E-1,2.5514847E-1,-8.180595E-2,2.4243392E-1,-9.859267E-2,-6.2484425E-1,-2.9224992E-1,4.5762837E-1,1.7077565E-1,-4.541248E-2,-4.9689108E-1,2.2328666E-3,1.9098649E-2,-1.6461036E-3,4.3588006E-3,-8.475906E-3,-4.9887393E-3,-1.870166E-3,-4.2097867E-3,3.6753442E-3,6.3652745E-3,7.549918E-4,3.0833688E-3,-1.0182784E-3,1.7111144E-3,-6.0267723E-3,7.5992895E-4],"categories":[],"categories_nodes":[],"categories_segments":[],"categories_sizes":[],"default_left":[0,0,0,0,0,0,0,0,0,0,0,0,0,0,0,0,0,0,0,0,0,0,0,0,0,0,0,0,0,0,0],"id":40,"left_children":[1,3,5,7,9,11,13,15,17,19,21,23,25,27,29,-1,-1,-1,-1,-1,-1,-1,-1,-1,-1,-1,-1,-1,-1,-1,-1],"loss_changes":[3.297369E2,1.0723047E2,2.20159E2,1.6553143E1,4.757135E1,7.3894684E1,5.3031075E1,1.1194881E1,8.328361E0,1.4757309E1,2.8707703E1,2.0283905E1,4.005594E1,3.9472763E1,1.7196495E1,0E0,0E0,0E0,0E0,0E0,0E0,0E0,0E0,0E0,0E0,0E0,0E0,0E0,0E0,0E0,0E0],"parents":[2147483647,0,0,1,1,2,2,3,3,4,4,5,5,6,6,7,7,8,8,9,9,10,10,11,11,12,12,13,13,14,14],"right_children":[2,4,6,8,10,12,14,16,18,20,22,24,26,28,30,-1,-1,-1,-1,-1,-1,-1,-1,-1,-1,-1,-1,-1,-1,-1,-1],"split_conditions":[-4.646331E-1,-8.743133E-1,1.2935679E-1,-4.4301695E-1,-1.2030786E0,-1.0685458E0,1.7587969E0,2.7319674E0,-5.5107784E-1,-8.236527E-1,3.1036463E-1,7.429233E-1,5.2145416E-1,9.6602696E-1,1.1181884E0,2.2328666E-3,1.9098649E-2,-1.6461036E-3,4.3588006E-3,-8.475906E-3,-4.9887393E-3,-1.870166E-3,-4.2097867E-3,3.6753442E-3,6.3652745E-3,7.549918E-4,3.0833688E-3,-1.0182784E-3,1.7111144E-3,-6.0267723E-3,7.5992895E-4],"split_indices":[1,2,2,10,5,2,2,14,1,13,2,1,1,1,9,0,0,0,0,0,0,0,0,0,0,0,0,0,0,0,0],"split_type":[0,0,0,0,0,0,0,0,0,0,0,0,0,0,0,0,0,0,0,0,0,0,0,0,0,0,0,0,0,0,0],"sum_hessian":[1.11E4,3.26E3,7.84E3,5.96E2,2.664E3,4.329E3,3.511E3,3.63E2,2.33E2,5.4E2,2.124E3,1.272E3,3.057E3,3.229E3,2.82E2,3.6E2,3E0,2.08E2,2.5E1,1.93E2,3.47E2,1.17E3,9.54E2,8.48E2,4.24E2,1.807E3,1.25E3,2.562E3,6.67E2,2.38E2,4.4E1],"tree_param":{"num_deleted":"0","num_feature":"15","num_nodes":"31","size_leaf_vector":"1"}},{"base_weights":[-2.169142E-3,-3.6552903E-1,7.6505266E-2,-1.05638005E-1,-4.9042362E-1,3.714004E-1,-1.594191E-2,-4.1798308E-1,2.4623802E-2,-6.316791E-1,-3.5707846E-1,6.369735E-1,3.1646156E-1,-1.1140964E-1,1.7270882E-1,-3.8466274E-3,-2.3556245E-2,1.7904916E-3,-1.1878203E-3,-5.435963E-3,-8.6381165E-3,-6.105874E-3,-2.7720693E-3,7.1486807E-3,2.5093625E-3,5.9828386E-3,2.6949912E-3,-2.430605E-3,1.9890352E-4,2.3102239E-3,-1.0881949E-3],"categories":[],"categories_nodes":[],"categories_segments":[],"categories_sizes":[],"default_left":[0,0,0,0,0,0,0,0,0,0,0,0,0,0,0,0,0,0,0,0,0,0,0,0,0,0,0,0,0,0,0],"id":41,"left_children":[1,3,5,7,9,11,13,15,17,19,21,23,25,27,29,-1,-1,-1,-1,-1,-1,-1,-1,-1,-1,-1,-1,-1,-1,-1,-1],"loss_changes":[3.1705914E2,6.402225E1,2.485556E2,2.6131117E1,2.4882477E1,3.1546875E1,1.2504505E2,1.1296268E1,1.0075324E1,1.2739136E1,1.3761467E1,1.1006729E1,2.3728043E1,7.969217E1,3.832582E1,0E0,0E0,0E0,0E0,0E0,0E0,0E0,0E0,0E0,0E0,0E0,0E0,0E0,0E0,0E0,0E0],"parents":[2147483647,0,0,1,1,2,2,3,3,4,4,5,5,6,6,7,7,8,8,9,9,10,10,11,11,12,12,13,13,14,14],"right_children":[2,4,6,8,10,12,14,16,18,20,22,24,26,28,30,-1,-1,-1,-1,-1,-1,-1,-1,-1,-1,-1,-1,-1,-1,-1,-1],"split_conditions":[-9.7013825E-1,-3.538802E-1,-6.33606E-1,-1.0418472E0,1E0,-1.3030415E0,5.770258E-1,2.721257E0,-9.6038437E-1,9.2741674E-1,-1.1780514E0,2.8370436E-2,-1.4070772E0,1E0,1.095354E0,-3.8466274E-3,-2.3556245E-2,1.7904916E-3,-1.1878203E-3,-5.435963E-3,-8.6381165E-3,-6.105874E-3,-2.7720693E-3,7.1486807E-3,2.5093625E-3,5.9828386E-3,2.6949912E-3,-2.430605E-3,1.9890352E-4,2.3102239E-3,-1.0881949E-3],"split_indices":[1,2,2,9,0,8,1,13,2,2,7,6,6,0,2,0,0,0,0,0,0,0,0,0,0,0,0,0,0,0,0],"split_type":[0,0,0,0,0,0,0,0,0,0,0,0,0,0,0,0,0,0,0,0,0,0,0,0,0,0,0,0,0,0,0],"sum_hessian":[1.1089E4,1.973E3,9.116E3,6.41E2,1.332E3,2.175E3,6.941E3,1.88E2,4.53E2,6.45E2,6.87E2,3.71E2,1.804E3,4.609E3,2.332E3,1.86E2,2E0,2.18E2,2.35E2,4.7E2,1.75E2,1.63E2,5.24E2,3.08E2,6.3E1,2.56E2,1.548E3,2.301E3,2.308E3,1.932E3,4E2],"tree_param":{"num_deleted":"0","num_feature":"15","num_nodes":"31","size_leaf_vector":"1"}},{"base_weights":[2.1262567E-2,-2.1062429E-1,1.4560567E-1,-3.4379065E-1,-7.41318E-2,2.838092E-1,2.2412833E-2,-6.016621E-1,-2.8486407E-1,3.139231E-2,-2.779228E-1,5.164136E-1,1.8960875E-1,-3.977432E-2,2.6974836E-1,-2.040349E-3,-7.324798E-3,-5.333258E-3,-2.378908E-3,2.3535185E-3,-7.658067E-4,3.314008E-3,-3.0486204E-3,7.993181E-3,4.189416E-3,9.0732827E-4,4.0454445E-3,-1.5189459E-3,7.5362355E-4,3.3569413E-3,-1.2122717E-3],"categories":[],"categories_nodes":[],"categories_segments":[],"categories_sizes":[],"default_left":[0,0,0,0,0,0,0,0,0,0,0,0,0,0,0,0,0,0,0,0,0,0,0,0,0,0,0,0,0,0,0],"id":42,"left_children":[1,3,5,7,9,11,13,15,17,19,21,23,25,27,29,-1,-1,-1,-1,-1,-1,-1,-1,-1,-1,-1,-1,-1,-1,-1,-1],"loss_changes":[3.184394E2,7.004381E1,1.2239133E2,2.947499E1,4.0975494E1,7.413803E1,5.848965E1,1.8680557E1,1.8430115E1,2.7677809E1,1.0770588E1,2.6578613E1,5.1244293E1,3.924238E1,1.973904E1,0E0,0E0,0E0,0E0,0E0,0E0,0E0,0E0,0E0,0E0,0E0,0E0,0E0,0E0,0E0,0E0],"parents":[2147483647,0,0,1,1,2,2,3,3,4,4,5,5,6,6,7,7,8,8,9,9,10,10,11,11,12,12,13,13,14,14],"right_children":[2,4,6,8,10,12,14,16,18,20,22,24,26,28,30,-1,-1,-1,-1,-1,-1,-1,-1,-1,-1,-1,-1,-1,-1,-1,-1],"split_conditions":[-2.6905194E-1,-9.3505967E-1,-1.9275442E-1,-1.3117473E0,2.4973768E-1,-6.103047E-1,1.0995647E0,-6.001099E-1,-1.4098002E0,-4.2380068E-1,-1.3392559E0,-1.1682054E0,7.859338E-1,1E0,1.0208666E0,-2.040349E-3,-7.324798E-3,-5.333258E-3,-2.378908E-3,2.3535185E-3,-7.658067E-4,3.314008E-3,-3.0486204E-3,7.993181E-3,4.189416E-3,9.0732827E-4,4.0454445E-3,-1.5189459E-3,7.5362355E-4,3.3569413E-3,-1.2122717E-3],"split_indices":[1,1,8,7,8,10,1,10,5,14,6,8,1,0,10,0,0,0,0,0,0,0,0,0,0,0,0,0,0,0,0],"split_type":[0,0,0,0,0,0,0,0,0,0,0,0,0,0,0,0,0,0,0,0,0,0,0,0,0,0,0,0,0,0,0],"sum_hessian":[1.1042E4,3.854E3,7.188E3,1.95E3,1.904E3,3.387E3,3.801E3,3.61E2,1.589E3,1.255E3,6.49E2,9.75E2,2.412E3,3.038E3,7.63E2,9E1,2.71E2,2.51E2,1.338E3,4.34E2,8.21E2,2.7E1,6.22E2,2.48E2,7.27E2,1.653E3,7.59E2,1.539E3,1.499E3,6.53E2,1.1E2],"tree_param":{"num_deleted":"0","num_feature":"15","num_nodes":"31","size_leaf_vector":"1"}},{"base_weights":[1.7906148E-2,-1.388414E-1,1.8527582E-1,-3.146029E-1,-4.2453777E-2,4.0729913E-1,9.348855E-2,-6.222764E-1,-2.4566947E-1,5.213165E-2,-2.0331477E-1,2.0434543E-1,5.993966E-1,5.331073E-2,3.9157882E-1,-7.913687E-3,-4.4516358E-3,-5.9354263E-3,-1.9747703E-3,8.28052E-4,-3.904409E-3,-3.435344E-3,-6.901441E-4,9.760032E-4,4.4084475E-3,1.0504822E-2,5.3602206E-3,-5.2494527E-4,1.6282084E-3,4.3831794E-3,-3.8813858E-4],"categories":[],"categories_nodes":[],"categories_segments":[],"categories_sizes":[],"default_left":[0,0,0,0,0,0,0,0,0,0,0,0,0,0,0,0,0,0,0,0,0,0,0,0,0,0,0,0,0,0,0],"id":43,"left_children":[1,3,5,7,9,11,13,15,17,19,21,23,25,27,29,-1,-1,-1,-1,-1,-1,-1,-1,-1,-1,-1,-1,-1,-1,-1,-1],"loss_changes":[2.9049728E2,9.685663E1,1.0909099E2,4.279535E1,5.62152E1,6.093097E1,4.5370514E1,1.0728622E1,2.7645386E1,3.162199E1,2.5737846E1,1.921902E1,2.2421143E1,3.8719868E1,9.069298E0,0E0,0E0,0E0,0E0,0E0,0E0,0E0,0E0,0E0,0E0,0E0,0E0,0E0,0E0,0E0,0E0],"parents":[2147483647,0,0,1,1,2,2,3,3,4,4,5,5,6,6,7,7,8,8,9,9,10,10,11,11,12,12,13,13,14,14],"right_children":[2,4,6,8,10,12,14,16,18,20,22,24,26,28,30,-1,-1,-1,-1,-1,-1,-1,-1,-1,-1,-1,-1,-1,-1,-1,-1],"split_conditions":[7.132415E-2,-9.3505967E-1,-5.5485034E-1,-1.4098002E0,1.9951867E-1,1E0,1.5423251E0,-7.6097417E-1,-1.5021338E0,1.4148077E0,1E0,6.7499465E-1,-1.5748657E0,1E0,1.311419E0,-7.913687E-3,-4.4516358E-3,-5.9354263E-3,-1.9747703E-3,8.28052E-4,-3.904409E-3,-3.435344E-3,-6.901441E-4,9.760032E-4,4.4084475E-3,1.0504822E-2,5.3602206E-3,-5.2494527E-4,1.6282084E-3,4.3831794E-3,-3.8813858E-4],"split_indices":[1,1,6,5,10,0,1,7,7,12,0,9,6,0,10,0,0,0,0,0,0,0,0,0,0,0,0,0,0,0,0],"split_type":[0,0,0,0,0,0,0,0,0,0,0,0,0,0,0,0,0,0,0,0,0,0,0,0,0,0,0,0,0,0,0],"sum_hessian":[1.1071E4,5.717E3,5.354E3,2.024E3,3.693E3,1.565E3,3.789E3,3.69E2,1.655E3,2.326E3,1.367E3,7.62E2,8.03E2,3.34E3,4.49E2,1.87E2,1.82E2,2E2,1.455E3,2.176E3,1.5E2,6.68E2,6.99E2,5.26E2,2.36E2,9.7E1,7.06E2,1.699E3,1.641E3,4.05E2,4.4E1],"tree_param":{"num_deleted":"0","num_feature":"15","num_nodes":"31","size_leaf_vector":"1"}},{"base_weights":[-4.9021066E-5,-1.6646837E-1,1.6128995E-1,-3.2349497E-1,-7.0704214E-2,3.6752042E-1,6.5511726E-2,-4.5111933E-1,-2.2508922E-1,1.0512937E-2,-2.2607909E-1,7.324023E-1,2.9273376E-1,2.8047703E-2,4.2638615E-1,-5.268142E-3,-1.1345684E-3,1.659322E-4,-3.0521315E-3,7.0333004E-4,-2.0363994E-3,-1.2545635E-2,-2.1346058E-3,-1.34326285E-2,7.505363E-3,1.021568E-2,2.6729438E-3,9.2487026E-4,-9.394797E-4,5.035909E-3,-2.9102308E-3],"categories":[],"categories_nodes":[],"categories_segments":[],"categories_sizes":[],"default_left":[0,0,0,0,0,0,0,0,0,0,0,0,0,0,0,0,0,0,0,0,0,0,0,0,0,0,0,0,0,0,0],"id":44,"left_children":[1,3,5,7,9,11,13,15,17,19,21,23,25,27,29,-1,-1,-1,-1,-1,-1,-1,-1,-1,-1,-1,-1,-1,-1,-1,-1],"loss_changes":[2.9967203E2,8.259326E1,1.11912704E2,2.6033676E1,4.3084E1,4.8822662E1,5.232322E1,2.3071411E1,2.279713E1,2.8748589E1,1.4942352E1,1.2488388E1,2.7408783E1,2.7586197E1,2.0307556E1,0E0,0E0,0E0,0E0,0E0,0E0,0E0,0E0,0E0,0E0,0E0,0E0,0E0,0E0,0E0,0E0],"parents":[2147483647,0,0,1,1,2,2,3,3,4,4,5,5,6,6,7,7,8,8,9,9,10,10,11,11,12,12,13,13,14,14],"right_children":[2,4,6,8,10,12,14,16,18,20,22,24,26,28,30,-1,-1,-1,-1,-1,-1,-1,-1,-1,-1,-1,-1,-1,-1,-1,-1],"split_conditions":[2.594067E-2,-8.760083E-1,-5.044903E-1,-8.375745E-1,2.4973768E-1,-1.1145447E0,1.665303E0,-7.941906E-2,-6.314225E-1,5.305884E-1,-1.8161283E0,-2.1788437E0,-1.9947199E0,3.5682613E-1,1.311419E0,-5.268142E-3,-1.1345684E-3,1.659322E-4,-3.0521315E-3,7.0333004E-4,-2.0363994E-3,-1.2545635E-2,-2.1346058E-3,-1.34326285E-2,7.505363E-3,1.021568E-2,2.6729438E-3,9.2487026E-4,-9.394797E-4,5.035909E-3,-2.9102308E-3],"split_indices":[1,1,6,5,8,8,1,7,10,10,5,7,6,8,10,0,0,0,0,0,0,0,0,0,0,0,0,0,0,0,0],"split_type":[0,0,0,0,0,0,0,0,0,0,0,0,0,0,0,0,0,0,0,0,0,0,0,0,0,0,0,0,0,0,0],"sum_hessian":[1.1159E4,5.493E3,5.666E3,2.08E3,3.413E3,1.796E3,3.87E3,9.04E2,1.176E3,2.242E3,1.171E3,3.04E2,1.492E3,3.507E3,3.63E2,7.38E2,1.66E2,2.93E2,8.83E2,1.753E3,4.89E2,1.3E1,1.158E3,2E0,3.02E2,4.9E1,1.443E3,2.295E3,1.212E3,3.28E2,3.5E1],"tree_param":{"num_deleted":"0","num_feature":"15","num_nodes":"31","size_leaf_vector":"1"}},{"base_weights":[5.1321476E-3,-2.3449874E-1,1.2809515E-1,3.70127E-3,-4.0517575E-1,4.3059868E-1,3.3965904E-2,-1.1462159E-1,1.5155682E-1,-7.535457E-1,-3.6574557E-1,7.511386E-1,3.6717016E-1,1.2692E-1,-1.4863177E-1,3.2004627E-4,-2.1413937E-3,5.9661586E-3,9.4955903E-4,-1.50482375E-2,-6.872453E-3,-5.988551E-3,-3.1661817E-3,8.342183E-3,4.337452E-3,6.5904525E-3,3.1181052E-3,2.2336718E-4,2.6822358E-3,-2.1286658E-3,1.3509927E-3],"categories":[],"categories_nodes":[],"categories_segments":[],"categories_sizes":[],"default_left":[0,0,0,0,0,0,0,0,0,0,0,0,0,0,0,0,0,0,0,0,0,0,0,0,0,0,0,0,0,0,0],"id":45,